tree
version=v4
num_class=3
num_tree_per_iteration=3
label_index=0
max_feature_idx=455
objective=multiclass num_class:3
feature_names=Column_0 Column_1 Column_2 Column_3 Column_4 Column_5 Column_6 Column_7 Column_8 Column_9 Column_10 Column_11 Column_12 Column_13 Column_14 Column_15 Column_16 Column_17 Column_18 Column_19 Column_20 Column_21 Column_22 Column_23 Column_24 Column_25 Column_26 Column_27 Column_28 Column_29 Column_30 Column_31 Column_32 Column_33 Column_34 Column_35 Column_36 Column_37 Column_38 Column_39 Column_40 Column_41 Column_42 Column_43 Column_44 Column_45 Column_46 Column_47 Column_48 Column_49 Column_50 Column_51 Column_52 Column_53 Column_54 Column_55 Column_56 Column_57 Column_58 Column_59 Column_60 Column_61 Column_62 Column_63 Column_64 Column_65 Column_66 Column_67 Column_68 Column_69 Column_70 Column_71 Column_72 Column_73 Column_74 Column_75 Column_76 Column_77 Column_78 Column_79 Column_80 Column_81 Column_82 Column_83 Column_84 Column_85 Column_86 Column_87 Column_88 Column_89 Column_90 Column_91 Column_92 Column_93 Column_94 Column_95 Column_96 Column_97 Column_98 Column_99 Column_100 Column_101 Column_102 Column_103 Column_104 Column_105 Column_106 Column_107 Column_108 Column_109 Column_110 Column_111 Column_112 Column_113 Column_114 Column_115 Column_116 Column_117 Column_118 Column_119 Column_120 Column_121 Column_122 Column_123 Column_124 Column_125 Column_126 Column_127 Column_128 Column_129 Column_130 Column_131 Column_132 Column_133 Column_134 Column_135 Column_136 Column_137 Column_138 Column_139 Column_140 Column_141 Column_142 Column_143 Column_144 Column_145 Column_146 Column_147 Column_148 Column_149 Column_150 Column_151 Column_152 Column_153 Column_154 Column_155 Column_156 Column_157 Column_158 Column_159 Column_160 Column_161 Column_162 Column_163 Column_164 Column_165 Column_166 Column_167 Column_168 Column_169 Column_170 Column_171 Column_172 Column_173 Column_174 Column_175 Column_176 Column_177 Column_178 Column_179 Column_180 Column_181 Column_182 Column_183 Column_184 Column_185 Column_186 Column_187 Column_188 Column_189 Column_190 Column_191 Column_192 Column_193 Column_194 Column_195 Column_196 Column_197 Column_198 Column_199 Column_200 Column_201 Column_202 Column_203 Column_204 Column_205 Column_206 Column_207 Column_208 Column_209 Column_210 Column_211 Column_212 Column_213 Column_214 Column_215 Column_216 Column_217 Column_218 Column_219 Column_220 Column_221 Column_222 Column_223 Column_224 Column_225 Column_226 Column_227 Column_228 Column_229 Column_230 Column_231 Column_232 Column_233 Column_234 Column_235 Column_236 Column_237 Column_238 Column_239 Column_240 Column_241 Column_242 Column_243 Column_244 Column_245 Column_246 Column_247 Column_248 Column_249 Column_250 Column_251 Column_252 Column_253 Column_254 Column_255 Column_256 Column_257 Column_258 Column_259 Column_260 Column_261 Column_262 Column_263 Column_264 Column_265 Column_266 Column_267 Column_268 Column_269 Column_270 Column_271 Column_272 Column_273 Column_274 Column_275 Column_276 Column_277 Column_278 Column_279 Column_280 Column_281 Column_282 Column_283 Column_284 Column_285 Column_286 Column_287 Column_288 Column_289 Column_290 Column_291 Column_292 Column_293 Column_294 Column_295 Column_296 Column_297 Column_298 Column_299 Column_300 Column_301 Column_302 Column_303 Column_304 Column_305 Column_306 Column_307 Column_308 Column_309 Column_310 Column_311 Column_312 Column_313 Column_314 Column_315 Column_316 Column_317 Column_318 Column_319 Column_320 Column_321 Column_322 Column_323 Column_324 Column_325 Column_326 Column_327 Column_328 Column_329 Column_330 Column_331 Column_332 Column_333 Column_334 Column_335 Column_336 Column_337 Column_338 Column_339 Column_340 Column_341 Column_342 Column_343 Column_344 Column_345 Column_346 Column_347 Column_348 Column_349 Column_350 Column_351 Column_352 Column_353 Column_354 Column_355 Column_356 Column_357 Column_358 Column_359 Column_360 Column_361 Column_362 Column_363 Column_364 Column_365 Column_366 Column_367 Column_368 Column_369 Column_370 Column_371 Column_372 Column_373 Column_374 Column_375 Column_376 Column_377 Column_378 Column_379 Column_380 Column_381 Column_382 Column_383 Column_384 Column_385 Column_386 Column_387 Column_388 Column_389 Column_390 Column_391 Column_392 Column_393 Column_394 Column_395 Column_396 Column_397 Column_398 Column_399 Column_400 Column_401 Column_402 Column_403 Column_404 Column_405 Column_406 Column_407 Column_408 Column_409 Column_410 Column_411 Column_412 Column_413 Column_414 Column_415 Column_416 Column_417 Column_418 Column_419 Column_420 Column_421 Column_422 Column_423 Column_424 Column_425 Column_426 Column_427 Column_428 Column_429 Column_430 Column_431 Column_432 Column_433 Column_434 Column_435 Column_436 Column_437 Column_438 Column_439 Column_440 Column_441 Column_442 Column_443 Column_444 Column_445 Column_446 Column_447 Column_448 Column_449 Column_450 Column_451 Column_452 Column_453 Column_454 Column_455
feature_infos=[-0.21147244611367688:14.061009050024211] [-0.12965633726897832:128.30206027538929] [-0.21121506831952153:14.518514363599992] [-0.21162783999343845:12.292516660747944] [-1.1439448489968289:28.910247149389331] [-3.2678016689533615:3.2735828099918156] [-71.000898482211767:85.850173978540468] [-71.212001384622354:80.382678860562919] [-99.621135860994613:63.489943471280135] [-3.8885468720278444:4.0954123385715855] [-0.21149123912613829:13.679246300668165] [-0.14622187717926516:81.770966855853672] [-0.21152884541430228:12.618349806907553] [-0.14939411127838867:65.677264685224173] [-0.21161497123912304:11.918138417874079] [-0.15615843149497166:44.181148915371466] [-0.21148084483250126:14.232063730050275] [-0.2115291747046173:13.327306033837333] [-0.21164805635280404:12.30971533161682] [-0.21147389796818114:13.623511502260277] [-0.12965788848386506:120.1098002222912] [-0.21121656469608599:14.430033774640563] [-0.21162947602584431:12.312347733941388] [-1.1430796466906223:31.198487888880148] [-3.2461270412841321:3.2908367103277252] [-67.39466241867639:83.858262273352821] [-71.302000299710016:78.526245254541976] [-92.05056190196278:63.488512491577076] [-3.9503932407901519:3.9550617221909996] [-0.211492706338753:13.650559445707108] [-0.14622533062011417:78.60647590870623] [-0.21153026496148758:12.602703288833284] [-0.1493955495206353:66.29438913973604] [-0.21161624889667149:11.910194168558181] [-0.1561598955796141:44.333770721896038] [-0.21148229221757484:14.341924070400722] [-0.21153062464645947:13.346347181961283] [-0.21164934030981625:12.311586776457604] [-0.21147535995203759:13.631243981890609] [-0.12965852461008126:149.9443823779811] [-0.21121805913007541:14.370207531332587] [-0.21163233688743624:12.217641935722252] [-1.1431317093455693:41.922862984097137] [-3.2931078542139605:3.2837452456501572] [-64.150374781189484:81.391956641858684] [-70.20675576716512:79.850318349354865] [-98.301831653600885:61.288488828656007] [-4.3674930808393277:4.0294945740702186] [-0.21149417610032642:13.678786906608725] [-0.14622885802487903:77.294652819134967] [-0.21153168842600908:12.624214800934139] [-0.14939702839756766:65.706607059091922] [-0.21161753017950397:11.912741983941004] [-0.15616134591045813:44.425217425775166] [-0.21148373974358556:13.975265696836216] [-0.21153207494561382:13.32909171113608] [-0.21165064180439142:12.312945449420679] [-0.21147680994290663:14.165652254213585] [-0.12966075333901661:264.47962490578595] [-0.2112195529669087:14.527577121746875] [-0.21163385394566384:12.224604923555649] [-1.1431997835125502:41.690883645063145] [-3.265431106309701:3.2633924373120564] [-67.602598350123316:81.889903855092868] [-67.764453642899184:81.295397194207226] [-99.6145221474209:59.42765349449725] [-4.3675599577301112:4.1655014638324088] [-0.21149564507603491:13.678558431695395] [-0.14623244512691069:81.767675109863234] [-0.21153311637751437:12.620181262626559] [-0.14939854860367213:64.670406413167115] [-0.2116188143962365:11.923532600168425] [-0.15616277027215406:44.245794337950663] [-0.21148519202040869:13.893610027051924] [-0.21153352501229977:13.269349578533371] [-0.2116519479256336:12.311839243054449] [-0.21147825078298349:14.561721790888088] [-0.12966490573211933:182.42365202305584] [-0.21122104502119118:14.566061175328372] [-0.21163532829733578:12.338812262280946] [-1.1432772851889246:41.133437703208372] [-3.2000035491005465:3.2736979522406142] [-67.602415083511275:78.476459974235709] [-64.408223475026702:81.465848516209846] [-99.613114804310428:54.489932165445524] [-3.9215314257415881:4.1140758130427297] [-0.21149711088848097:13.649875172625812] [-0.14623583811181037:81.766682292266736] [-0.21153454769826766:12.628804027936029] [-0.14940007007412298:63.572434768594242] [-0.21162010127189021:11.925586081566719] [-0.15616416413285047:44.147769827443831] [-0.2114866417656619:13.798288906096795] [-0.21153497334214078:13.255237690911493] [-0.21165325929778731:12.283125188415168] [-0.21147969145946865:14.561478992617664] [-0.12966810099954418:264.47550250669286] [-0.21122253761082593:14.517312877179561] [-0.21163640988706373:12.291481448424108] [-1.1433694126677771:38.671759037170823] [-3.2654660097796344:3.2747094619618751] [-66.6556663506354:83.636493828627209] [-60.203553317774151:80.378603286384831] [-77.198936855117893:59.42615459308] [-4.0716669889810033:4.1655552326693313] [-0.21149857206766093:13.514623855758154] [-0.14623908066474203:78.602583631134053] [-0.21153598172912208:12.635662331122704] [-0.14940156599457438:61.810891003442052] [-0.21162139027269486:11.920615408455362] [-0.15616548979434852:44.177303161843049] [-0.21148809366269752:14.062058054217863] [-0.21153641860322353:13.326191928961585] [-0.21165457207376728:12.295464270554476] [-0.211481148013276:14.19935124362388] [-0.1296701181190181:167.94175462594171] [-0.21122403117038749:14.428839130121414] [-0.21163741442425663:12.338395883484782] [-1.14347517036818:36.084686890533717] [-3.2931694810722658:3.275537814715908] [-66.657965433338759:85.848504912532817] [-61.622990497243421:78.522974549101562] [-71.827649002344586:55.574889202084378] [-4.3675829541629616:4.1655746622037357] [-0.21150003026777239:13.567820761015851] [-0.14624158373001286:77.291343951370791] [-0.21153741722846778:12.617106534070137] [-0.14940308499874447:60.885423636317341] [-0.21162268146690244:11.917070067305106] [-0.15616676059436571:44.329891715223098] [-0.21148953371442841:14.230673036177537] [-0.21153786387182499:13.345231703723236] [-0.21165588644295774:12.308612297012552] [-0.2114826010355649:14.059402567511393] [-0.12967297204722122:149.94085051134348] [-0.21122552855204327:14.369019759737224] [-0.21163934815160323:12.338186579652227] [-1.1436004361104994:41.946453265119402] [-3.265494351887122:3.275588799512049] [-66.376764760645855:85.848364808456608] [-63.414474718464078:78.172747878236663] [-75.175079286328:55.091773323988804] [-4.3676522618275753:4.0578304296776437] [-0.21150148555463141:13.639397011292726] [-0.14624291687648666:75.661164981054014] [-0.21153885482809712:12.623175283300428] [-0.14940464987805632:62.026723554601212] [-0.21162397524795959:11.911849200082692] [-0.15616798798719367:44.42131289090274] [-0.21149097560616825:14.34052043859473] [-0.2115393095726659:13.327977743272649] [-0.21165720262629853:12.310481563192662] [-0.21148401205239739:13.629903686075526] [-0.12967469657103609:264.47337762022698] [-0.21122702805201873:14.347130149929288] [-0.21164088066826769:12.31089242477872] [-1.1435780524537447:41.953661377846437] [-3.2113970018200022:3.2755987157005526] [-65.151630642738809:83.856867812075151] [-64.323499636507378:79.847277160913492] [-92.042500907125174:56.440187209311844] [-3.6879040844652393:4.1656430721148077] [-0.21150293457946229:13.677429957902156] [-0.1462434796611666:74.525818301272125] [-0.21154029334957272:12.619140716765394] [-0.14940625150717463:62.698799596706046] [-0.21162527128989844:11.92263711862368] [-0.15616918423768292:44.24189005360985] [-0.21149241648874664:14.34028541266121] [-0.21154075574847025:13.285881014154965] [-0.21165852037540489:12.31183867076393] [-0.21148541598867973:14.164252060046488] [-0.12967711258942394:264.4726584412407] [-0.21122852764988093:14.526142690173485] [-0.21164236798335676:12.310683509418107] [-1.1436631861854321:41.726265766253704] [-3.2105805529516318:3.2839156425104434] [-66.657724349496959:81.889072739554521] [-65.448145952412261:81.292835206324213] [-98.295084930019826:59.424870920145224] [-3.9252304717306497:4.0578559674177885] [-0.21150437758888729:13.648752829287124] [-0.14624456674102237:76.138570594435265] [-0.21154173199108228:12.627761757472278] [-0.14940794470994789:63.742319501339061] [-0.21162656941997463:11.924688504564738] [-0.15617038026260885:44.171333957988629] [-0.211493833701831:13.97366023485443] [-0.21154219619582448:13.327530757551298] [-0.21165983857766904:12.310731097235042] [-0.21148679011799607:14.560272779246718] [-0.12967977040223708:167.94033047225901] [-0.21123001356651236:14.564623784846956] [-0.2116437892924975:12.215989865971911] [-1.143878940037006:41.173886377448419] [-3.2312441244661319:3.263537309477341] [-72.669048368992762:81.888946313627599] [-67.812767955080744:81.463719797654804] [-99.608915663318598:62.987946809651689] [-3.9287416853913464:4.1656643390366206] [-0.2115058129087343:13.513514604602305] [-0.1462458444067179:81.764355517656938] [-0.21154316861832323:12.634618488221719] [-0.14940980329408232:63.742085429545853] [-0.21162786972944791:11.922276113923877] [-0.15617162675588081:44.173391933589087] [-0.21149522874166429:13.89200280022828] [-0.21154362925226342:13.327304718189326] [-0.21166115836636362:12.29454012518832] [-0.21148819131282548:14.198163585441041] [-0.12968191027577519:182.42039862776411] [-0.21123149030568861:14.564382764298598] [-0.21164489267456438:12.222951791767942] [-1.1442184284544721:38.715066833129477] [-3.2105880210728821:3.2730439804594744] [-74.69174423899797:83.635739408350858] [-70.134638563053855:81.4635316634742] [-92.040365325969418:63.481592018071353] [-3.8073118900116332:4.0956762988084146] [-0.2115072440277399:13.451139977127207] [-0.14624714052467502:78.600510654674011] [-0.21154460402810799:12.616062963288577] [-0.14941172375352982:64.738778803520731] [-0.21162917305882528:11.924326491991053] [-0.15617293022191886:44.325963706183096] [-0.2114966145533213:14.060653122139458] [-0.21154506401850742:13.344108497457613] [-0.21166248398656187:12.307685538565181] [-0.21148957529554846:14.55977934723852] [-0.12968309433275321:171.91928411035067] [-0.21123295837796338:14.515640429693102] [-0.21164591517634482:12.337144575429496] [-1.1446376472520485:36.129899052949398] [-3.224004088057971:3.2730096724250073] [-70.998887666731065:85.847675231300656] [-71.206797058439236:80.376680966765818] [-98.291976060354301:61.28243731077967] [-4.0836744732634802:4.1656618966801453] [-0.21150866985599506:13.566482550410075] [-0.14624866588510765:77.289191160597341] [-0.21154603849513778:12.622129785944315] [-0.14941366493753594:65.673851188368062] [-0.21163047935865884:11.919353452370581] [-0.15617427834206996:44.41737881040342] [-0.21149800292165671:14.229243633758847] [-0.21154650004243553:13.324621569507903] [-0.2116638135779734:12.309552756785008] [-0.21149093664740293:14.197682748034138] [-0.12968455346786034:182.42031828691626] [-0.21123441765790921:14.427176151009743] [-0.21164683767910963:12.289821325134458] [-1.1448876721359769:33.336160551265941] [-3.1738066200902035:3.2838589317935982] [-72.668527501770654:83.856045612826279] [-71.297670260606168:78.521366526202669] [-99.60523939257078:54.288645585761174] [-4.1082843223233612:4.1656569578210316] [-0.21151008928099257:13.6380487019231] [-0.14625032418951539:81.762250582958842] [-0.21154747185449416:12.61809395365335] [-0.1494156700031006:66.291211455595146] [-0.21163178843345765:11.915805573892818] [-0.15617568700633092:44.324403254119858] [-0.21149937852113745:14.339071348057857] [-0.21154792763641203:13.343656969145714] [-0.21166514428590535:12.310907249171283] [-0.21149233022552388:14.057737361345694] [-0.12968723074455824:182.42011100342236] [-0.21123586650122259:14.367361818291654] [-0.21164781635404381:12.309649699080957] [-1.1451265088323506:31.268848059624283] [-3.2138903441194735:3.2737598863165647] [-74.691112681494332:85.847133968572052] [-70.203176845202734:79.846146260605153] [-77.19290816860854:54.288079556095248] [-4.0125166830552343:4.1142193518150059] [-0.21151150300173374:13.676073114551155] [-0.14625210264283908:78.598442796134293] [-0.21154890417398464:12.626712595960894] [-0.14941767339995304:65.703624684753791] [-0.2116331005498609:11.910582285358355] [-0.15617715052640413:44.415821827110108] [-0.21150075704044149:14.22875919607149] [-0.21154935603585648:13.343431781922241] [-0.21166647775225789:12.309797280851184] [-0.21149368720467168:14.559026228259398] [-0.12968959732489493:182.42002095078666] [-0.21123729460071899:14.524700255713276] [-0.21165071602124919:12.214965844560924] [-1.1453458927096136:42.023977106427253] [-3.2367655175340526:3.2668983574201391] [-74.690672644576438:83.855264074475571] [-71.206346040089343:81.29173331083004] [-92.03548258460107:54.484213917613673] [-3.9506010846159869:4.0834240819697047] [-0.21151290792261912:13.675842982830126] [-0.14625410532384295:77.286896562858573] [-0.21155033383995403:12.633566786238454] [-0.14941982314048277:65.673020381070287] [-0.21163441513659809:11.921366002853826] [-0.1561787296993862:44.415044396047662] [-0.21150213014126862:14.338581806917853] [-0.21155077957371402:13.326178023662601] [-0.21166781364519976:12.310531452044824] [-0.21149495392011991:14.196920513738215] [-0.12969144363011578:169.5895737315802] [-0.21123868188050723:14.563170490804431] [-0.21165228785307144:12.084665147123307] [-1.1455394796147815:41.796464478028035] [-3.2653892463366931:3.2737304851628566] [-70.997059823556768:83.633367577531047] [-71.297069769217401:81.462502222603945] [-98.283821540972653:59.418064110713956] [-3.9671450363653982:4.0956647687175733] [-0.21151429984884593:13.647160155566565] [-0.14625606370712738:76.132531242433188] [-0.21155175871647133:12.626289407124165] [-0.14942238099457636:66.290159593356776] [-0.21163573169558259:11.923413904325622] [-0.15618055734970671:44.235644019658338] [-0.21150347263828206:14.059445671392943] [-0.21155218610201548:13.266444827284708] [-0.21166915008447965:12.309420379482223] [-0.21149622038665836:14.162258312715721] [-0.12969261209543317:182.41998359331524] [-0.21124004247098052:14.524200346510908] [-0.21165381978632294:12.221732546635659] [-1.1456886987177688:42.03969432339678] [-3.2461011179279349:3.2712422654387172] [-67.598347830956726:85.843573973146093] [-71.29660594973501:81.290867514097087] [-99.59243408820457:59.414533701780165] [-3.9363798642802208:4.1656543809134581] [-0.21151567806400889:13.511926870672971] [-0.14625825303753826:81.755171472320825] [-0.21155317902429382:12.633141521908327] [-0.14942514556515923:66.289519695557487] [-0.2116370501643498:11.923229743815591] [-0.15618257466613611:44.137620366223487] [-0.21150475706814875:14.227998331558865] [-0.21155358047115849:13.252331136539418] [-0.21167048818944995:12.293227480143425] [-0.21149747556693102:13.619548038305386] [-0.12969479023648184:171.91870553098354] [-0.21124138423870772:14.562659621757131] [-0.21165520084285691:12.335921201700121] [-1.145798688196852:41.808817805863974] [-3.2345557668894318:3.2754732209571276] [-66.649990828336769:83.850019841158385] [-70.201582899129761:81.461160495948079] [-77.179294082613055:59.411057331681434] [-3.9505226547504688:4.1370825490612635] [-0.21151704203936547:13.565101236087523] [-0.14626055696326273:78.589028202107997] [-0.21155459515552938:12.632927613713909] [-0.149427999455712:65.701451019293572] [-0.21163837072083899:11.918254046411112] [-0.15618472459951271:44.167123829412532] [-0.21150603457761399:14.337792343254936] [-0.2115549632743719:13.32326399780076] [-0.21167182697717982:12.306367798742734] [-0.21149871002505252:13.627244164802256] [-0.12969731395029871:264.47086757320693] [-0.2112427060735545:14.513901723802299] [-0.2116567312296124:12.335722415673224] [-1.1458908643920234:41.250298409362678] [-3.2676314765186101:3.2653739871466265] [-66.650200583068923:81.381600694401243] [-67.759182123476165:80.373395260827067] [-65.696077841779712:59.407484503956667] [-3.9201024630478614:4.165574670893422] [-0.21151838759477101:13.636646859481942] [-0.14626339779520714:77.275324719700862] [-0.21155600595191862:12.61436939441335] [-0.14943093602607788:64.664755007262883] [-0.21163969263828603:11.91470321975061] [-0.15618700034504374:44.319651079390681] [-0.21150729454641246:13.971200255806744] [-0.21155633465200052:13.342292334463258] [-0.21167316604484843:12.308230974387273] [-0.21149999972722922:14.557660064982139] [-0.12970031359849202:264.47002785028934] [-0.21124401172605589:14.523417104293296] [-0.2116579888005018:12.308444169738872] [-1.1456929538187048:42.053889290078111] [-3.2102348818977604:3.283724806765393] [-72.658337021940469:81.876789013555808] [-67.80854621811666:81.287482141663105] [-71.802280655944529:56.420724834324012] [-4.0834493796827553:4.1655515095188189] [-0.21151972040911499:13.674652289165508] [-0.14626607885417842:75.642799212969109] [-0.21155741297325698:12.620429760201761] [-0.14943384247365105:63.737083457693814] [-0.2116410161719055:11.906752529120803] [-0.15618936825431903:44.411022997559783] [-0.21150856987508557:13.889531936924042] [-0.21155769116976619:13.322680838694897] [-0.21167450563143442:12.309581413935895] [-0.21150128847764121:14.55738706026008] [-0.12970273857028133:264.46966973928619] [-0.21124530218715742:14.561863564084737] [-0.21165956464555188:12.308244377950434] [-1.1458568496431354:42.057171261860077] [-3.190607121103668:3.2776893169975874] [-74.678087146562774:83.620350102582762] [-70.128896815194778:81.456781506970358] [-92.00764841027123:58.574174174446959] [-4.1080439582065482:4.1655467300226645] [-0.21152104291438459:13.645958959489581] [-0.14626855578214751:74.505095346184021] [-0.21155881705312712:12.616388301516414] [-0.14943671634687039:64.732817155386556] [-0.21164234139370652:11.89626415492695] [-0.15619179797730251:44.231611993777996] [-0.21150984549377885:14.058128786987771] [-0.21155904659315061:13.324798499080563] [-0.21167584766836103:12.309389743181248] [-0.21150260047629199:14.195327857855123] [-0.12970637929322068:264.46591671275075] [-0.21124658078430594:14.513101027130139] [-0.21166109388191023:12.213575248743657] [-1.1461061023967505:41.824661931502391] [-3.292809192095898:3.2754143435843326] [-70.983567986787648:85.829039637354285] [-71.199329822500516:80.368165401576576] [-98.256512928104542:62.963693484040441] [-4.3674033242360659:4.1369950032359242] [-0.21152236121656934:13.674159361060397] [-0.14627064412457583:76.115077355413106] [-0.2115602193845538:12.62499929576944] [-0.14943951215385923:65.666843110969907] [-0.21164366878559346:11.900122043524284] [-0.15619426651234944:44.161046404436178] [-0.21151113978637529:14.226667356046978] [-0.21156038773733676:13.324561674840005] [-0.21167718763972873:12.308274665820631] [-0.21150392603319712:14.055387612977649] [-0.12970959368550083:264.4638355738183] [-0.21124785314386302:14.424622800292372] [-0.21166254304088297:12.220539865261815] [-1.1464582597675481:41.265516261248436] [-3.2634250145850907:3.2837244846101092] [-72.650740394422712:85.826288282350475] [-71.288402730698493:78.511066811743433] [-99.569945640343235:63.457377039550067] [-4.3673927470211353:4.1369817658315569] [-0.21152367419756873:13.645464224642302] [-0.14627273671356034:81.737404715936989] [-0.21156162066580936:12.631846184449682] [-0.14944227034269705:66.283116575176791] [-0.21164499752946669:11.90891659113441] [-0.15619676218138623:44.132780014498238] [-0.21151244770154415:14.336453920388525] [-0.21156173453526633:13.264825180765293] [-0.21167853118292754:12.283591192057955]
tree_sizes=3499 3516 3510 3617 3589 3591 3602 3604 3601 3622 3602 3616 3611 3604 3610 3628 3600 3596 3616 3608 3604 3623 3597 3602 3620 3592 3618 3626 3601 3613 3622 3616 3611 3622 3603 3614 3627 3605 3623 3635 3612 3620 3650 3597 3616 3631 3586 3625 3627 3623 3634 3619 3612 3643 3624 3600 3640 3639 3621 3639 3636 3633 3641 3649 3626 3622 3662 3634 3628 3624 3638 3620 3658 3625 3624 3656 3621 3645 3634 3629 3618 3638 3626 3657 3617 3618 3657 3632 3637 3617 3624 3658 3637 3649 3637 3643 3664 3635 3616 3635 3656 3602 3621 3658 3622 3562 3649 3626 3646 3634 3618 3617 3641 3640 3636 3642 3627 3563 3640 3656 3653 3660 3621 3643 3623 3595 3598 3674 3596 3609 3648 3603 3621 3663 3570 3637 3635 3574 3570 3613 3580 3606 3659 3551 3601 3661 3589 3583 3650 3616 3627 3676 3598 3536 3652 3604 3654 3647 3620 3529 3617 3579 3567 3642 3597 3606 3658 3568 3564 3654 3580 3586 3664 3541 3623 3656 3628 3529 3662 3624 3593 3654 3643 3596 3614 3625 3566 3603 3540 3531 3639 3506 3578 3629 3611 3532 3664 3533 3590 3640 3612 3504 3646 3523 3559 3632 3563 3545 3593 3588 3531 3637 3566 3531 3609 3573 3622 3676 3627 3521 3674 3586 3549 3667 3572 3503 3577 3593 3558 3620 3543 3581 3607 3564 3563 3568 3569 3535 3641 3504 3535 3626 3582 3585 3607 3579 3482 3643 3619 3579 3597 3623 3513 3614 3562 3505 3613 3509 3546 3694 3550 3622 3642 3622 3551 3592 3495 3499 3595 3588 3590 3595 3600 3603 3637 3505 3477 3625 3479 3589 3625 3596 3530 3580 3482 3602 3603 3592 3566 3623 3560 3556 3670 3535 3581 3617 3592 3588 3585 3596

Tree=0
num_leaves=31
num_cat=0
split_feature=327 137 441 62 441 137 441 118 289 446 308 81 446 442 441 99 156 251 441 47 118 9 118 43 176 309 407 9 4 213
split_gain=39433 9400.24 8535.93 4214.13 3171.69 2418.16 1684.7 1519.47 1334.74 1111.98 1040.89 945.959 941.347 753.233 744.816 704.482 697.28 659.244 647.057 597.847 559.94 528.523 512.775 508.933 491.95 552.479 485.991 474.685 464.129 457.598
threshold=-0.53951702477497687 0.25346654330965596 -0.85245187374983722 -1.0427918234451512 -0.062841468554967889 1.8131610975398378 -0.57139458654390185 -0.39595995992662192 -0.96925550350752054 -0.1533374537100364 -0.18310380733376622 -0.67119801026768022 -0.19300383657219969 -0.45844032450523819 -0.17511019789759533 -0.67868421433952453 -0.55035743089966782 5.551056112262704 1.2392515329063449 -1.153578167311512 3.2369271589351292 0.86231830599539538 -0.7381836765135944 -1.6448873368842194 -1.3896780568194544 -1.3526101212976032 -7.0089972547991453e-05 0.20329151766654838 -0.33826617569870859 1.1125630393148251
decision_type=2 2 2 2 2 2 2 2 2 2 2 2 2 2 2 2 2 2 2 2 2 2 2 2 2 2 2 2 2 2
left_child=2 4 8 14 7 10 12 13 -1 29 -5 28 26 -2 -3 -14 -13 23 -12 -9 -11 -18 -15 -16 25 -20 -4 -26 -6 -7
right_child=1 3 6 5 11 9 -8 19 -10 20 18 16 15 22 17 -17 21 -19 24 -21 -22 -23 -24 -25 27 -27 -28 -29 -30 -31
leaf_value=-1.1953515296895769 -1.1043147988812911 -1.1141473479231887 -1.1317853208833206 -1.0948974539634737 -1.11078006564636 -1.0366407686327859 -1.1150904033046081 -1.1199097154690036 -1.1607060809814105 -1.0532813546165809 -1.0773419185818622 -1.1014439330716104 -1.1594439026976289 -1.1459186014371199 -1.1046870550232499 -1.1357697681435337 -1.0817094755995151 -1.139385742953142 -1.0112760441266251 -1.0983832635089401 -1.0289509396616725 -1.0965778086346911 -1.1202366185794654 -1.0847171752637172 -1.0506876338300115 -1.1021226727886759 -1.108444682830803 -1.0708775844712448 -1.0934835008641715 -1.0785573774588313
leaf_weight=19658.000585854053 27660.334157675505 18901.333896636963 25091.667414456606 27062.667473196983 28720.667522609234 3019.6667566597462 70861.668778508902 14469.667097896338 25602.667429685593 27971.334166944027 152081.67119905353 28946.667529344559 18903.0005633533 9293.3336102962494 17120.000510215759 37516.001118063927 125675.33707875013 2792.666749894619 763.33335608243942 119055.33688145876 14292.000425934792 29524.334213227034 47568.334750980139 50130.334827333689 22863.667348057032 5441.0001621544361 13842.000412523746 23732.000707268715 33737.667672127485 18939.667231112719
leaf_count=58974 82981 56704 75275 81188 86162 9059 212585 43409 76808 83914 456245 86840 56709 27880 51360 112548 377026 8378 2290 357166 42876 88573 142705 150391 68591 16323 41526 71196 101213 56819
internal_value=-1.09861 -1.089 -1.13725 -1.07744 -1.09857 -1.07171 -1.12677 -1.10736 -1.17575 -1.05454 -1.07647 -1.0908 -1.13545 -1.11785 -1.09653 -1.1437 -1.0872 -1.09178 -1.07403 -1.10072 -1.04505 -1.08454 -1.12443 -1.0898 -1.06449 -1.09095 -1.12349 -1.06097 -1.10144 -1.07279
internal_weight=0 849763 211475 385111 464652 296167 166214 218047 45260.7 64222.7 231944 246605 95352.7 84522 88944.3 56419 184146 70043 204882 133525 42263.3 155200 56861.7 67250.3 52800 6204.33 38933.7 46595.7 62458.3 21959.3
internal_count=3183714 2549289 634425 1155334 1393955 888501 498643 654141 135782 192668 695833 739814 286058 253566 266833 169257 552439 210129 614645 400575 126790 465599 170585 201751 158400 18613 116801 139787 187375 65878
is_linear=0
shrinkage=1


Tree=1
num_leaves=31
num_cat=0
split_feature=441 346 213 156 441 441 441 156 441 42 441 4 441 4 4 270 419 99 327 80 441 270 99 4 251 28 346 441 441 61
split_gain=177888 43331 35875.2 11502 10100.7 7822.98 7723.46 5430.62 3607.82 2627.34 2002.15 1748.37 1560.84 1526.51 1403.92 1322.36 1224.04 1126.61 1102.37 957.575 798.593 722.09 630.979 558.254 532.759 524.847 521.171 514.549 509.783 453.642
threshold=-0.37166025966224808 -0.81912124955829879 0.12053458157221693 -0.4741993750176367 0.55300351098188238 0.32994899881270029 -0.97056657851195782 -0.52522599258584479 -0.63315696987076187 -0.75783509351660705 1.9150956517334456 -0.36951034107527697 -0.62588196212972647 0.074985244228428422 -0.13077207644177968 -0.1901226267204397 -0.12969723642358047 0.21305380356358497 0.14671903086006707 -0.77400143753022699 1.329751370049965 -0.42164612179197902 -0.9003010997961377 -0.32589165731329167 0.61977568958010987 -0.88419264947818454 -0.69217265236081549 -0.69757139893133357 1.4324767162320158 -0.87058782887895603
decision_type=2 2 2 2 2 2 2 2 2 2 2 2 2 2 2 2 2 2 2 2 2 2 2 2 2 2 2 2 2 2
left_child=1 6 5 9 13 7 29 19 26 22 17 28 -11 24 -9 25 -8 -6 -15 -2 -13 -16 -3 -17 -4 -10 -5 -18 -7 -1
right_child=2 3 4 8 10 11 16 14 15 12 -12 20 -14 18 21 23 27 -19 -20 -21 -22 -23 -24 -25 -26 -27 -28 -29 -30 -31
leaf_value=-0.9028208939108926 -1.0371939355627364 -0.97022664405137848 -1.1083093279152982 -1.0285084468225707 -1.1373611810030677 -1.0976912655187059 -0.93907544937286147 -1.0888213207356865 -1.0513452222474455 -1.0224801138392525 -1.1728175472556142 -1.1244542705503324 -1.0503915879535601 -1.1214451664502261 -1.0891618448959461 -1.0773626678006545 -0.98642867035305337 -1.157659284743384 -1.1415015455057114 -1.0695159716354792 -1.1476781131361948 -1.1124192089057585 -1.0086793190656156 -1.0997469001364133 -1.125898512883923 -1.0751467318491965 -1.0533810304785869 -1.0200387105760242 -1.1288495347527741 -0.94726299182280382
leaf_weight=18082.000538885593 11464.000341653824 5331.3334922194481 37760.667792022228 11010.333661466837 36112.001076221466 28265.667509049177 4994.6668155193329 72253.668819993734 11562.667011260986 37980.001131892204 74468.668886005878 56592.668353259563 42404.334597080946 40976.001221179962 16637.667162507772 16485.000491291285 25654.667431235313 112619.33668965101 82741.002465873957 45724.001362681389 20053.333930969238 67550.668679833412 21383.333970606327 34373.001024395227 31657.00094345212 46613.001389175653 35869.001068979502 5538.3334983885288 6449.0001921951771 2631.0000784099102
leaf_count=54246 34392 15994 113282 33031 108336 84797 14984 216761 34688 113940 223406 169778 127213 122928 49913 49455 76964 337858 248223 137172 60160 202652 64150 103119 94971 139839 107607 16615 19347 7893
internal_value=-1.09861 -1.03629 -1.12551 -1.05341 -1.14494 -1.10061 -0.957163 -1.08941 -1.07074 -1.02817 -1.15943 -1.1221 -1.0372 -1.1282 -1.09905 -1.08071 -0.985037 -1.15273 -1.13486 -1.06304 -1.13053 -1.10782 -1.00101 -1.09249 -1.11633 -1.07042 -1.04754 -0.992396 -1.10348 -0.908466
internal_weight=0 319913 741325 263012 416335 324991 56900.7 213630 155913 107099 223200 111361 80384.3 193135 156442 109034 36187.7 148731 123717 57188 76646 84188.3 26714.7 50858 69417.7 58175.7 46879.3 31193 34714.7 20713
internal_count=3183714 959738 2223976 789036 1249004 974972 170702 640890 467739 321297 669600 334082 241153 579404 469326 327101 108563 446194 371151 171564 229938 252565 80144 152574 208253 174527 140638 93579 104144 62139
is_linear=0
shrinkage=1


Tree=2
num_leaves=31
num_cat=0
split_feature=441 308 213 175 442 42 62 441 365 446 441 194 156 175 275 441 403 214 62 446 137 4 290 180 351 446 446 270 441 442
split_gain=52514.2 11591.2 10969.3 3892.7 3705.43 3091.21 2101.57 2097.99 1600.01 1296.62 1280.18 991.875 910.29 865.809 809.423 786.577 780.62 670.294 625.359 578.271 553.977 541.19 534.717 534.706 534.115 621.246 531.241 518.416 495.713 490.788
threshold=-0.33906748346815369 0.50658027952256168 -0.69900070460797437 -0.29744405276299041 -0.81940140052287158 -0.92115279173283027 -1.1265431555308665 -0.61911421639309683 1.9692392137428547 -0.54459163689139156 0.26516511375632595 5.4508003599581523 -0.59535137192850962 -0.20300600561436738 -2.0057876458642085 0.075068018541326345 1.8006801367650482 -1.1678803561238891 1.2489196929365456 0.19547329305429559 1.9921015153208992 -0.23433140430374452 -0.98907227332881809 -1.309820340600877 -1.3768529433117085 0.67041411558502395 -0.1533374537100364 2.3859453288937775 0.74866540185397035 -1.0531110137397299
decision_type=2 2 2 2 2 2 2 2 2 2 2 2 2 2 2 2 2 2 2 2 2 2 2 2 2 2 2 2 2 2
left_child=2 3 5 9 8 -1 11 21 -3 12 18 24 -2 26 27 -11 20 22 -5 -7 -16 -4 -10 -18 -6 28 -9 -8 -26 -19
right_child=1 4 7 10 6 19 14 13 17 15 -12 -13 -14 -15 16 -17 23 29 -20 -21 -22 -23 -24 -25 25 -27 -28 -29 -30 -31
leaf_value=-1.1899804138979255 -1.1350200336461174 -1.0554505828269092 -1.1379040950997805 -1.0903366835220543 -1.0795191919618381 -1.1564178122677011 -1.1197505000502237 -1.1294090901732838 -1.0148750956285912 -1.1079054136933408 -1.0784419841231352 -0.98651813282395395 -1.1092346171608027 -1.1053820960000658 -1.0783321989423968 -1.0885820013478555 -1.0380493997921429 -1.0133990185259296 -1.1093400240370666 -1.1374500500004445 -1.096018197078193 -1.1215461440729482 -0.95475971164536289 -1.0703058419277316 -1.0567105475424519 -1.0771893846744574 -1.1131816130357051 -1.0631856347850801 -1.0289649887998236 -1.063346369710078
leaf_weight=25382.667423129082 22053.000657230616 46217.668044060469 58232.668402135372 145846.33767989278 8865.3335975408554 41434.334568172693 7257.0002162754536 35433.334389328957 4099.3334555029869 49542.001476466656 104166.33643773198 2053.3333945274353 36106.33440938592 76314.335607677698 115463.00344106555 36649.001092225313 5732.3335041701794 4220.0001257658005 19650.000585615635 26259.667449265718 20919.333956778049 30987.667590171099 2315.3334023356438 49653.001479774714 14818.000441610813 7562.0002253651619 46845.001396089792 2086.0000621676445 11388.333672732115 3685.3334431648254
leaf_count=76148 66159 138653 174698 437539 26596 124303 21771 106300 12298 148626 312499 6160 108319 228943 346389 109947 17197 12660 58950 78779 62758 92963 6946 148959 44454 22686 140535 6258 34165 11056
internal_value=-1.09861 -1.08331 -1.13095 -1.09422 -1.06856 -1.16022 -1.07402 -1.11996 -1.0464 -1.10747 -1.08713 -1.0544 -1.11901 -1.11305 -1.07838 -1.09969 -1.07698 -1.01719 -1.09259 -1.14906 -1.08105 -1.13222 -0.993177 -1.06697 -1.05767 -1.05194 -1.12017 -1.10712 -1.04465 -1.03668
internal_weight=0 720348 340890 414013 306335 93076.7 245798 247813 60537.7 144350 269663 44687 58159.3 158593 201111 86191 191768 14320 165496 67694 136382 89220.3 6414.67 55385.3 42633.7 33768.3 82278.3 9343 26206.3 7905.33
internal_count=3183714 2161045 1022669 1242039 919006 279230 737393 743439 181613 433051 808988 134061 174478 475778 603332 258573 575303 42960 496489 203082 409147 267661 19244 166156 127901 101305 246835 28029 78619 23716
is_linear=0
shrinkage=1


Tree=3
num_leaves=31
num_cat=0
split_feature=441 175 308 62 137 441 118 446 441 446 251 446 42 118 308 43 442 441 442 122 255 442 309 81 9 118 43 422 366 137
split_gain=32551.6 8689.69 6687.95 3085.43 2475.29 2424.44 1495.84 1441.95 1094 1036.55 888.364 745.239 712.958 705.931 650.392 623.343 614.254 759.075 545.953 535.239 526.583 524.534 685.225 523.734 504.691 496.808 476.641 466.866 456.015 454.671
threshold=-0.57139458654390185 0.067373572290643655 -0.87096145021169968 -1.0981775693869238 1.7065764263811598 -0.062841468554967889 -0.63763718690880411 0.092009711762448668 1.1545955427488757 -0.1533374537100364 -1.0074202970755743 0.031544917832628992 -0.32636284777404334 -0.7381836765135944 -0.27400601370510852 1.4510273417124655 -0.48157006517841439 1.539161224127265 -0.56219911951635726 -5.8228151278531421e-05 -1.4588612298403201e-05 -1.1076994332442112 -1.1241751449970045 -0.35973939817266803 0.63057429691059463 3.2369271589351292 -1.4734813274966141 2.2580509550375831 -1.4642863458492468 0.42397360805020956
decision_type=2 2 2 2 2 2 2 2 2 2 2 2 2 2 2 2 2 2 2 2 2 2 2 2 2 2 2 2 2 2
left_child=2 5 10 26 8 7 11 -2 14 -6 -1 -4 16 -9 -5 18 19 -18 -8 -7 21 -10 27 -15 -14 -11 -3 -23 -24 -16
right_child=1 3 6 4 9 12 15 13 20 25 -12 -13 24 23 29 -17 17 -19 -20 -21 -22 22 28 -25 -26 -27 -28 -29 -30 -31
leaf_value=-0.093838761515717031 -0.0025006350589646194 -0.0072087850843332579 -0.031572651895462184 -0.0023232837355640266 0.021722942958633008 -0.0032178924343480245 -0.012242021242883235 -0.04440389051096378 -0.0017146663524867198 0.039772866772781391 -0.062520833820310623 -0.056957269474005312 0.01439849598573878 -0.027758316459586381 0.010210800869159859 0.0028696777631177436 -0.012794991536999645 0.028762153738354015 -0.029104385114642459 0.020826830264674419 0.037928888739350436 0.023642056517467383 0.074487658075293922 -0.010849622921954231 -0.00061629312350116065 0.061704797262766065 0.0072676359280582255 0.061897256496199364 0.011118900968372286 0.019805959408442316
leaf_weight=15933.084339886904 112704.01526463032 38947.072367489338 24847.594126194715 21885.043601602316 25604.631453245878 19489.245197445154 27005.27533519268 9991.0065324902534 8306.012049973011 33013.712530046701 20988.971486151218 21635.31466075778 84779.160827845335 26998.55673801899 84482.191745847464 9335.0142823457718 45306.022994786501 4867.5706081092358 66438.488510400057 17634.658791482449 31385.759332001209 5867.8449659347534 1207.8336711525917 56978.41863065958 30418.878107100725 15030.892463445663 54669.944803267717 6990.8246587812901 18990.797406882048 118872.63150966167
leaf_count=50610 339592 117000 76050 65675 75937 58512 81911 30531 24674 97142 65242 66765 252974 81528 252004 28225 136222 14547 201910 52769 92713 17372 3583 171816 90975 43848 163482 20651 56333 353121
internal_value=0 0.00812186 -0.0379284 0.0174705 0.0215577 -0.00250822 -0.028502 -0.0101276 0.0175004 0.0379737 -0.0760356 -0.0433878 0.00526835 -0.0192754 0.0140569 -0.0217697 -0.00154791 -0.00876334 -0.0242312 0.00820387 0.0281619 0.0207509 0.0263956 -0.0162858 0.0104337 0.0466343 0.00124507 0.0444401 0.0149082 0.0158197
internal_weight=0 874423 186184 465255 371638 409168 149262 206672 297989 73649.2 36922.1 46482.9 202496 93968 225240 102779 87297.5 50173.6 93443.8 37123.9 72749.1 41363.3 33057.3 83977 115198 48044.6 93617 12858.7 20198.6 203355
internal_count=3183714 2613001 570713 1383535 1103053 1229466 454861 623467 886126 216927 115852 142815 605999 283875 670800 312046 262050 150769 283821 111281 215326 122613 97939 253344 343949 140990 280482 38023 59916 605125
is_linear=0
shrinkage=0.1


Tree=4
num_leaves=31
num_cat=0
split_feature=441 441 232 251 441 156 80 441 441 118 80 4 137 441 365 441 118 441 441 308 4 99 80 365 4 80 441 9 251 270
split_gain=142049 32250.4 30603.8 9493.46 7710.93 7194.84 5211.27 3563.32 2579.77 2298.03 2024.96 1850.81 1468.68 1224.26 1170.28 1007.42 908.542 873.169 825.177 726.359 744.413 660.104 572.373 547.705 546.075 513.669 472.503 429.085 422.345 418.359
threshold=-0.37166025966224808 -0.82762683614735677 0.19464124109811437 -0.49922062078591573 0.81974435935538958 -0.38595652644732453 -0.88474880940560963 0.21450627398289779 0.44705742668030041 -0.73035738820508811 -0.33937139409933659 0.17640294437795395 -0.6509953581658845 2.1127398055092592 -0.55203341342056689 -0.62588196212972647 0.059404985859138802 0.12873363760991338 1.1025948484532109 -0.50677145422026948 -0.38866398078934766 -0.7221690524342782 -0.90044497408690261 -0.90308688941844206 -0.52394370882038144 -1.0065767919515138 -0.59241558556069263 -1.1958680744746759 0.80101146498461329 -0.65858471478486358
decision_type=2 2 2 2 2 2 2 2 2 2 2 2 2 2 2 2 2 2 2 2 2 2 2 2 2 2 2 2 2 2
left_child=1 6 5 9 11 8 25 19 12 22 21 24 -2 16 -12 29 -6 -13 -9 -7 -21 -5 -3 -8 -4 -1 -23 -16 -26 -11
right_child=2 3 4 10 13 7 23 18 -10 15 14 17 -14 -15 27 -17 -18 -19 -20 20 -22 26 -24 -25 28 -27 -28 -29 -30 -31
leaf_value=0.16491588426581991 0.040325142292691823 0.10750993199368619 -0.0023849516907132225 0.072940328586294276 -0.033648940326527238 0.020720220335079639 0.11531855772890993 -0.023200657102007218 -0.0095002487793311424 0.071451621509065283 0.032923920110355241 -0.028557994480665594 0.014637391704770601 -0.07105161741300238 0.025818233895297207 0.040946535895797519 -0.057632837033700562 -0.045583371765479476 -0.044210383388990637 0.011988117555499486 -0.0093873625999268007 0.048595961272977863 0.075426390851260017 0.086670210562299552 -0.017541726301143899 0.13531146244165546 0.027117896219234036 0.0047649161296107294 -0.033411140414855392 0.051528763810191093
leaf_weight=17334.294022858143 33824.298347055912 6843.8525653779507 14650.766170442104 5262.6110990643501 19114.128261864185 11533.838364541531 9386.6468645036221 66187.781142890453 31344.314705252647 23466.806317418814 25615.640081107616 49199.311136156321 65085.7167712152 61842.04358419776 11489.62664732337 44143.32176092267 90942.995854526758 77692.642757087946 26052.459735780954 19766.52966606617 92694.196644544601 16706.284686356783 29653.171476006508 23087.127303600311 44026.14310786128 8854.967160820961 26474.062736481428 61483.761806637049 27089.35559746623 19134.32343390584
leaf_count=48189 99725 19514 44428 15311 58501 34470 26681 200923 94601 67889 75464 150160 193892 192830 34124 129620 281242 238640 79877 59107 279316 48937 85631 66487 133480 24943 78261 183068 82784 55619
internal_value=0 0.0545076 -0.0246223 0.0399197 -0.0440436 -0.00306711 0.121717 -0.0142512 0.0154995 0.0603907 0.0227611 -0.0313124 0.0234218 -0.0597935 0.0145348 0.0515333 -0.0534674 -0.0389822 -0.0291347 -0.00317923 -0.00563033 0.0395029 0.0814426 0.0949511 -0.019965 0.154906 0.0354277 0.00807975 -0.0235867 0.0625033
internal_weight=0 328936 731047 270273 384557 346489 58663 216235 130254 123241 147032 212658 98910 171899 98589 86744.5 110057 126892 92240.2 123995 112461 48443 36497 32473.8 85766.3 26189.3 43180.3 72973.4 71115.5 42601.1
internal_count=3183714 959738 2223976 793438 1182065 1041911 166300 653693 388218 358273 435165 649492 293617 532573 292656 253128 339743 388800 280800 372893 338423 142509 105145 93168 260692 73132 127198 217192 216264 123508
is_linear=0
shrinkage=0.1


Tree=5
num_leaves=31
num_cat=0
split_feature=441 175 194 441 232 441 442 346 175 62 389 62 441 213 213 446 441 446 195 43 61 347 446 251 446 332 218 289 441 142
split_gain=42792.5 10539.5 8181.39 3764.39 2682.69 2603.37 1489.27 1646.68 1394.65 1218.12 1196.44 1161.66 1106.38 829.031 681.391 665.902 651.417 620.453 518.798 475.186 461.344 449.246 929.451 511.025 425.529 470.954 424.791 534.536 397.252 388.319
threshold=-0.27875453652832299 -0.71344987526458026 -0.1085575219060662 0.78321669273953687 -0.94360940000010174 -0.705276506764421 -0.91413771391216836 1.1265788820497453 -0.19611685638028434 -1.0981775693869238 -1.1178575357366671 -1.2861340861660511 0.44705742668030041 -0.43900037823455668 5.4499324977193444 -0.081333730211501157 0.22465747520364218 0.19547329305429559 -1.1652046687466502 1.2340114598392802 -0.47812818212502456 -0.76149217755730103 -0.1533374537100364 2.9469255614428627 0.67041411558502395 -1.198567725215453 -1.7448116217530085 0.53372836823987591 5.5813650303077837 -0.54979702680519982
decision_type=2 2 2 2 2 2 2 2 2 2 2 2 2 2 2 2 2 2 2 2 2 2 2 2 2 2 2 2 2 2
left_child=1 4 10 11 -1 -3 7 -5 15 14 13 26 20 -2 24 -7 -13 -6 -9 -10 -12 -11 23 -23 25 -8 -4 -28 -20 -17
right_child=2 5 3 6 17 8 9 18 19 21 12 16 -14 -15 -16 29 -18 -19 28 -21 -22 22 -24 -25 -26 -27 27 -29 -30 -31
leaf_value=-0.087098510271472945 -0.027860104098828012 -0.03791254249239296 0.0067954723582213175 0.02959199885286394 -0.055416243473292083 -0.028591151856955994 0.031679690298437049 0.089029427157607199 -0.0022053019874758955 0.013018962797468859 -0.011448280784214927 0.0069630498040435911 0.016364942398086984 -0.002422616907907349 0.099333024811119108 -0.029965292594822997 0.01746454775723923 -0.034894168201696753 0.05217676418650416 -0.019529958835310567 0.0019945530922912914 0.040166046640474545 0.023000584243025431 0.085004803984930224 0.022507638415057426 0.06380782299526809 0.022630410929440941 0.048764356074243669 0.11908362861522162 -0.010343995614073925
leaf_weight=23329.321880012751 25351.079110890627 54016.918101280928 6193.3416190445423 22554.280441761017 37149.294139355421 58084.847074955702 7925.8477970063686 7697.3945247232914 89487.094806671143 30267.945663303137 38468.085651963949 128506.51820164919 42525.956988275051 25903.5314886868 2243.0732962489128 12367.865079134703 109316.34055456519 24413.896437168121 13070.997915714979 19234.978241920471 75903.152856528759 11060.013106584549 86568.894757956266 3300.1957088708878 7915.0030476748943 10751.962058931589 15945.37670904398 15371.13582521677 952.04655948281288 54676.545755922794
leaf_count=73530 76640 165406 18297 66665 114894 176869 23315 22363 269343 89618 115969 383686 126611 77471 6424 37477 324874 74914 38307 58054 227751 32748 256776 9684 23382 31363 47518 45320 2770 165675
internal_value=0 -0.027257 0.0148163 0.0220011 -0.058221 -0.0181257 0.0322855 0.0485174 -0.0135552 0.0277947 -0.00173961 0.0143697 0.00259364 -0.0150043 0.0464042 -0.0207537 0.0117901 -0.0472779 0.0681694 -0.00527036 -0.00252686 0.0237045 0.026909 0.0504707 0.0419397 0.0501744 0.0307253 0.0354578 0.0567192 -0.0139636
internal_weight=0 372761 687792 479640 84892.5 287868 204308 44274.7 233851 160033 208152 275333 156897 51254.6 28835.9 125129 237823 61563.2 21720.4 108722 114371 131197 100929 14360.2 26592.8 18677.8 37509.9 31316.5 14023 67044.4
internal_count=3183714 1136162 2047552 1423110 263338 872824 603415 130105 707418 473310 624442 819695 470331 154111 84484 380021 708560 189808 63440 327397 343720 388826 299208 42432 78060 54678 111135 92838 41077 203152
is_linear=0
shrinkage=0.1


Tree=6
num_leaves=31
num_cat=0
split_feature=327 441 441 4 118 446 122 62 160 441 66 80 252 442 327 80 4 80 118 9 62 62 441 351 99 194 61 99 350 403
split_gain=27021.9 6395.23 6363.73 2815.54 2155.32 1448.98 1219.32 1100.72 1053.94 915.374 716.991 787.683 686.695 666.2 651.272 642.112 589.802 564.351 559.568 551.584 524.028 440.271 438.609 436.92 424.194 404.974 394.497 384.511 460.966 551.891
threshold=-0.54604590670750353 -0.8987162188290686 0.008020042577989538 0.65655817826064822 -0.39015461948949209 -0.3780951098708169 -5.8228151278531421e-05 -0.63562235269086231 -4.4573875826221268e-05 -0.61911421639309683 -1.057203256978257 3.2142311162491262 -0.57006218506318562 -0.45844032450523819 2.0369830762239496 -0.85668943009324183 -0.33211200326193163 -0.68694329585102598 0.47259671222787675 0.63057429691059463 -0.40672830765662377 -1.3037510562898211 0.37660684529175908 -2.0532447530993352 -0.69913389192958819 5.4508003599581523 3.4321686159549776 1.1450570750407072 5.7791488747768124e-05 5.5552250590388654
decision_type=2 2 2 2 2 2 2 2 2 2 2 2 2 2 2 2 2 2 2 2 2 2 2 2 2 2 2 2 2 2
left_child=1 15 4 6 13 19 16 12 23 17 -10 -12 -6 -2 20 -1 -4 -7 -9 -3 -8 -14 -11 25 -15 -5 -20 28 29 -18
right_child=2 5 3 8 7 9 14 18 10 22 11 -13 21 24 -16 -17 27 -19 26 -21 -22 -23 -24 -25 -26 -27 -28 -29 -30 -31
leaf_value=-0.085633966005330631 -0.0038395883993005892 -0.0087084451230795886 -0.0061827281363155788 0.070073703416757879 0.0032116239522798963 -0.0539098469298393 -0.0012885551530145607 0.0032377355656303462 0.012800922427266057 -0.024212964999182601 0.031126636259745002 0.058652015776016919 -0.027919965100879397 -0.036338892605368274 0.034572192383168492 -0.054738209754491021 0.003076257681197782 -0.033632743841748386 0.01507510518698978 -0.03309803777494038 0.015844366091220047 -0.0079082610522047247 0.019500545705316265 0.015566601835145655 -0.017024038419779286 -0.071270727861163619 0.090282678612542799 -0.014373994035268081 0.01786871062447273 0.088055967880226238
leaf_weight=20284.038203269243 31671.912543326616 49838.794893562794 48866.741017371416 2309.4193506538868 35552.950768828392 20878.680748254061 21110.828715413809 121325.30342963338 17391.08110627532 43860.972986847162 71880.447499632835 12154.4008641541 17239.716318428516 14943.74665287137 15917.248786300421 10064.636299490929 73271.319805920124 40064.482637465 44733.899701416492 11392.167657494545 115654.21935582161 30345.407583445311 2422.0896504223347 93711.81216815114 47553.535218000412 222.21221506595612 708.50880852341652 7924.0844309926033 35155.088752627373 772.28301781415939
leaf_count=68251 95676 152849 146908 6780 106962 66541 62740 363918 51108 134577 210309 35003 52135 46429 46403 32406 217467 124959 132212 34886 342623 91097 7300 276023 145067 683 2062 23751 104320 2269
internal_value=0 -0.0331319 0.00777368 0.014794 -0.00276153 -0.0255192 0.00897824 0.00209689 0.02417 -0.0325276 0.0312829 0.0351078 -0.00730266 -0.0156548 0.0154278 -0.0753879 0.00304568 -0.0405795 0.00678281 -0.0132462 0.0131998 -0.0151583 -0.0219253 0.016674 -0.0216424 0.0576673 0.0162477 0.00689602 0.00843949 0.00396261
internal_weight=0 198806 860416 516341 344075 168457 318672 249906 197669 107226 101426 84034.8 83138.1 94169.2 152682 30348.7 165990 60943.2 166768 61231 136765 47585.1 46283.1 96243.4 62497.3 2531.63 45442.4 117123 109199 74043.6
internal_count=3183714 621769 2561945 1526387 1035558 521112 946481 748386 579906 333377 296420 245312 250194 287172 451766 100657 494715 191500 498192 187735 405363 143232 141877 283486 191496 7463 134274 347807 324056 219736
is_linear=0
shrinkage=0.1


Tree=7
num_leaves=31
num_cat=0
split_feature=441 346 175 441 441 156 441 137 4 441 441 441 4 441 61 289 441 4 137 137 80 175 441 47 80 4 441 251 4 66
split_gain=114867 28433.7 22333 7593.73 7259.38 6569.63 4602.44 3000.75 1985.42 1610.53 1394.52 1189.37 977.685 906.391 871.667 843.371 819.385 799.374 668.058 568.294 545.549 525.677 506.644 467.063 466.884 425.042 418.671 412.602 406.874 373.059
threshold=-0.2921337893135641 -0.73220700260008986 0.067373572290643655 0.62418837467938659 -0.91868082474982338 -0.32740333077221412 0.51133951772435038 -0.54005102730743937 -0.71878058597121208 -0.60593268907532538 1.8073074137026837 0.11960129015449449 -0.36951034107527697 -0.5586865148641037 -0.87058782887895603 -0.19050660874766806 -0.66855467095917731 -0.13077207644177968 -0.82201963375098963 1.0010689947045626 -0.75642586967264847 0.93485478100639363 1.329751370049965 -0.98500690208367214 -0.87010959054359804 -0.32589165731329167 2.6100934697702258 -0.53124686454781145 0.3551609834557255 -0.95212797738588162
decision_type=2 2 2 2 2 2 2 2 2 2 2 2 2 2 2 2 2 2 2 2 2 2 2 2 2 2 2 2 2 2
left_child=1 4 6 11 14 8 7 20 24 29 19 28 26 -10 -1 23 18 -9 -6 -5 -2 -13 -14 -11 -3 -17 -8 -19 -4 -7
right_child=2 5 3 10 16 9 12 17 13 15 -12 21 22 -15 -16 25 -18 27 -20 -21 -22 -23 -24 -25 -26 -27 -28 -29 -30 -31
leaf_value=0.1383672083568312 0.043054912307359472 0.089197707066208443 -0.012405562381341663 -0.041635613562020196 0.095283012617751739 0.047196418193138183 -0.0046532692605890493 0.0047922621896575868 0.046278594687045808 0.035542214161164869 -0.065548883112706513 -0.0286138945773876 -0.023564166447985969 0.027921505229042159 0.10109448990479092 0.011471998151150464 0.051347688394491608 0.012902112461192669 0.069864293418507292 -0.055351274119526506 0.019504500960214843 -0.043493277753292453 -0.0433523533285885 0.011234144430659489 0.058971697978662786 -0.0069640502343319508 -0.050238757002795655 -0.012772819023950319 -0.025398191982839907 0.024482865019504668
leaf_weight=23410.651214629412 13181.263368189335 6509.522021651268 48673.063104808331 64419.886162042618 14269.137418448925 9814.2420974969864 27003.42455548048 71899.877361983061 50479.751606345177 9850.6156496405602 73149.670764386654 60940.180168390274 36407.377524495125 57575.124742776155 8571.6588945686817 17711.391506135464 16621.887261122465 6949.4225618541241 37546.666452944279 56885.111082226038 38762.867173969746 38900.116144180298 20072.051427841187 40009.979044139385 23774.622901409864 42544.473111957312 2177.1862327158451 63010.429345756769 47746.616117864847 27474.126734465361
leaf_count=62961 38225 18148 149054 203168 39346 28360 82068 215135 143975 28938 237164 188823 112176 167361 23585 52561 47353 20730 105174 181608 113909 122124 63004 118247 67567 128018 6783 191210 147323 79616
internal_value=0 0.0432739 -0.0251992 -0.0406379 0.0890469 0.0271877 -0.00361457 0.0049172 0.0428395 0.0124985 -0.0546436 -0.0267611 -0.0229175 0.0364973 0.128378 0.00641588 0.0706668 -0.00261241 0.0768642 -0.0480675 0.0254806 -0.0344113 -0.0305966 0.0160365 0.0654687 -0.00154502 -0.00805444 -0.0102224 -0.0188395 0.030461
internal_weight=0 386164 670179 390715 100420 285744 279464 193804 138339 147405 194455 196260 85660 108055 31982.3 110116 68437.7 141860 51815.8 121305 51944.1 99840.3 56479.4 49860.6 30284.1 60255.9 29180.6 69959.9 96419.7 37288.4
internal_count=3183714 1111210 2072504 1229264 278419 832791 843240 579209 397051 435740 621940 607324 264031 311336 86546 327764 191873 427075 144520 384776 152134 310947 175180 147185 85715 180579 88851 211940 296377 107976
is_linear=0
shrinkage=0.1


Tree=8
num_leaves=31
num_cat=0
split_feature=365 441 327 442 61 156 346 43 441 446 422 346 275 332 62 194 442 214 441 270 122 43 442 62 160 384 328 427 5 290
split_gain=35109.2 9100.63 6237.83 2752.56 2634.63 2237.32 2223.68 1242.13 1029.92 990.125 958.077 915.995 825.919 758.961 659.535 583.945 556.409 523.833 507.2 476.985 602.552 474.042 403.627 401.361 386.574 385.165 520.296 515.068 381.128 371.123
threshold=-0.27352494001255395 -0.77463108904076938 0.63565676404260119 -0.80775563268941875 -0.57079280721467018 -0.28225459445975604 -0.94376663700719676 -1.2407304966571704 -0.53259310862758324 1.0000000180025095e-35 0.14778985984322132 2.1811071029964832 -1.7907857357244026 -0.79656674132668492 1.04723613968587 5.4508003599581523 1.5666173616294261 -1.1678803561238891 0.10202228380841617 2.3859453288937775 -5.5936191549255435e-05 1.4105450902239312 1.7794416355057254 -0.87973064368745191 -4.4573875826221268e-05 2.7449480052409756 -1.1812890420497433 -0.16280968294817577 -1.1376281893577003 -0.98907227332881809
decision_type=2 2 2 2 2 2 2 2 2 2 2 2 2 2 2 2 2 2 2 2 2 2 2 2 2 2 2 2 2 2
left_child=1 6 5 11 9 13 -1 15 -6 -3 21 -4 19 -2 25 -5 -10 29 -15 -9 -21 -7 -11 -12 -25 28 -27 -28 -14 -13
right_child=2 4 3 7 8 10 -8 12 16 22 23 17 14 18 -16 -17 -18 -19 -20 20 -22 -23 -24 24 -26 26 27 -29 -30 -31
leaf_value=-0.083640868128518897 -0.017733196367259202 -0.042647999566092956 0.037719444632031106 0.034387990138217313 -0.020220392570562296 0.0064342752636856104 -0.045188630669082575 -0.015602878576491562 -0.0082219719544507248 -0.02461149734607665 0.026091238958969722 0.07047928153867708 0.0036468863538249852 -0.0084280322507276056 0.0084381872224904252 0.089217559757370835 0.011941675710746559 0.048884979393583647 0.0083737663414034814 0.0054004529622812478 0.10545588319104593 -0.012403566380313587 0.0060190476060485313 0.019948327388948039 0.007829861734599609 -0.011278206759881058 0.074014102378460817 0.032034309229959278 0.022061956867836161 0.12215141071036301
leaf_weight=21634.674885720015 39516.224148869514 43204.213991850615 44605.860349655151 30768.882372766733 80214.945061773062 138487.9553502202 49333.580301165581 11509.419742047787 120273.39921557903 36419.728062003851 31159.042413204908 3692.18946403265 12660.971838772297 38025.501237541437 46274.366055309772 2073.3003188073635 15442.487871199846 6546.3014741539955 34059.393853038549 3008.4403656125069 752.41719242930412 14784.515049040318 4878.2290887236595 47205.690801501274 59504.364933550358 2186.4564553201199 3640.3969407081604 14824.800850719213 100062.7373149395 2229.1636834740639
leaf_count=72187 120041 135608 129600 89295 246920 413617 156253 34114 364120 112539 91553 10497 37132 115071 136617 5786 46352 18762 101748 8701 2190 44482 14978 139346 175695 6396 10471 43343 294098 6202
internal_value=0 -0.0247034 0.0134534 0.0247793 -0.0170954 0.00544325 -0.0569108 0.0198583 -0.0112372 -0.0320649 0.0100578 0.0444171 0.016827 -0.00659513 0.0187248 0.0378493 -0.00592764 0.0683797 -0.00048935 -0.00549999 0.0254181 0.0046172 -0.0209933 0.0161063 0.0131907 0.0222937 0.0348487 0.0403106 0.0199936 0.0899319
internal_weight=0 371401 687578 284836 300433 402743 70968.3 227762 215931 84502.2 291142 57073.5 194920 111601 179650 32842.2 135716 12467.7 72084.9 15270.3 3760.86 153272 41298 137869 106710 133375 20651.7 18465.2 112724 5921.35
internal_count=3183714 1148957 2034757 833204 920517 1201553 228440 668143 657392 263125 864693 165061 573062 336860 528057 95081 410472 35461 216819 45005 10891 458099 127517 406594 315041 391440 60210 53814 331230 16699
is_linear=0
shrinkage=0.1


Tree=9
num_leaves=31
num_cat=0
split_feature=308 441 441 4 99 446 289 122 43 160 194 47 42 62 252 308 4 28 441 99 80 294 331 175 444 99 9 62 350 403
split_gain=22191.3 5735.95 5361.93 2461.48 1474.6 1325.7 1050.86 1023.58 950.584 787.991 708.698 686.235 760.575 597.563 584.806 558.512 517.685 504.728 490.398 486.112 468.066 406.157 402.964 365.352 362.18 350.692 376.159 336.462 334.669 404.628
threshold=-0.5460575843512453 -0.85245187374983722 -0.062841468554967889 0.56405782815248529 -0.39838132524391129 -0.3780951098708169 -0.96925550350752054 -5.7852453944608433e-05 -1.0060683878050283 -4.4573875826221268e-05 -0.75416146786083571 -1.6744136255256092 3.1830178369068212 1.2814446686462744 -0.46520832436206921 1.5778939871026194 -0.33211200326193163 0.51568585038936299 0.023715530821039107 -0.69913389192958819 3.0183911295035726 -1.2933166312046107 0.005737165281880229 5.4548758262297516 -0.0029465364198557925 1.4406174094982183 0.63057429691059463 -0.92714177794146568 0.00021623810566941292 5.5552250590388654
decision_type=2 2 2 2 2 2 2 2 2 2 2 2 2 2 2 2 2 2 2 2 2 2 2 2 2 2 2 2 2 2
left_child=1 6 4 7 19 17 -1 16 14 21 -7 -11 -13 20 -6 22 -4 -3 27 -2 24 23 -9 -5 -10 26 28 -12 29 -18
right_child=2 5 3 9 8 10 -8 15 13 11 18 12 -14 -15 -16 -17 25 -19 -20 -21 -22 -23 -24 -25 -26 -27 -28 -29 -30 -31
leaf_value=-0.08412476505099431 -0.028792693863920738 -0.0050118790308794981 -0.0060695741661105796 0.034022283179349355 -0.00054130462069775377 -0.043972554910552443 -0.050731676786902949 0.012877782960286445 0.0090601495996430453 -0.00019306664712684884 -0.043772483289282751 0.025688914598907504 0.050536885220720189 0.016201660125897532 -0.022463307083528047 0.027778953155664549 0.0049702982768690517 -0.027234804470836906 0.0040203827848329524 -0.010619844097303257 0.072476265325931918 0.012461315779492992 -0.0042206525692466638 -0.025144976441265607 -0.0021851776261015672 -0.024108136446647135 -0.0045740490305687413 -0.023601286576644856 0.019220169561656529 0.076512623992194231
leaf_weight=16255.677915662527 18956.520337402821 45992.135037004948 53221.788416713476 14645.485562741756 24115.372516453266 23703.501559853554 22423.675609976053 115490.94039472938 39557.633213847876 8710.6580405235291 9635.4339914917946 92499.943290114403 14211.108784109354 33492.681259185076 24564.373824298382 22848.993100106716 64611.828055620193 13139.973016858101 5722.5141492486 65853.539421498775 919.96204939484596 93852.373419940472 15651.206430971622 1123.7086081504822 103777.39041182399 3795.0016490221024 23239.016356557608 58327.232783794403 26204.363467872143 800.34375002980232
leaf_count=58974 59481 141618 160495 42879 72966 76285 74772 340813 118701 25447 30372 267960 40400 99552 74667 66045 191356 40640 17296 201602 2640 274659 46375 3447 310842 11479 68949 183350 77345 2307
internal_value=0 -0.0302824 0.00705721 0.0129848 -0.00343492 -0.0217609 -0.0647657 0.00742992 0.000777678 0.0210283 -0.0289321 0.026795 0.028998 0.00416849 -0.0116034 0.013351 0.00212488 -0.00995012 -0.0240938 -0.0146818 0.00137466 0.0149564 0.0108372 0.029806 0.00091831 0.00580058 0.00678881 -0.0264611 0.00967106 0.00584565
internal_weight=0 195200 862144 550907 311237 156521 38679.4 325863 226427 225043 97388.7 115422 106711 177748 48679.7 153991 171872 59132.1 73685.2 84810.1 144255 109622 131142 15769.2 143335 118651 114856 67962.7 91616.5 65412.2
internal_count=3183714 623307 2560407 1619956 940451 489561 133746 965164 679368 654792 307303 333807 308360 531735 147633 453233 511931 182258 231018 261083 432183 320985 387188 46326 429543 351436 339957 213722 271008 193663
is_linear=0
shrinkage=0.1


Tree=10
num_leaves=31
num_cat=0
split_feature=441 308 175 441 175 441 137 441 441 4 327 441 99 441 441 18 289 4 281 441 175 47 232 156 441 4 4 61 441 4
split_gain=93527.8 24906.1 16860.8 6015.27 5992.65 5769 3162.79 1938.28 1917.08 1696.5 1068.6 1015.56 958.877 933.3 917.571 901.041 738.284 578.924 553.929 516.505 510.976 498.038 496.064 445.717 424.576 383.37 383.057 367.737 326.224 316.921
threshold=-0.22385081479612765 -0.73296595848467139 0.067373572290643655 0.81974435935538958 -0.32991894011127582 -0.94221405741811093 -0.50849824898600293 -0.57790769168656986 0.93647699086488367 -0.74303295216586662 0.1378973609625713 -0.62588196212972647 0.34109096202527994 2.1127398055092592 0.60908693029128058 0.055684197188731126 0.066346111972512264 -0.34477349278255526 -0.055854002635040999 -0.66855467095917731 -0.66162688035397044 -1.1941405763250732 -0.52501198165749396 -0.66992359377204969 -1.0107992515048714 -0.51190095076238296 0.32104092793562106 -0.15251480633747794 0.20482990832247164 -0.8866252871836493
decision_type=2 2 2 2 2 2 2 2 2 2 2 2 2 2 2 2 2 2 2 2 2 2 2 2 2 2 2 2 2 2
left_child=1 5 6 10 9 24 14 25 17 29 -4 -11 -12 26 20 19 21 -8 -17 -7 -2 -9 -19 -13 -1 -6 -5 -18 -24 -3
right_child=2 4 3 13 7 15 8 16 -10 11 12 23 -14 -15 -16 18 27 22 -20 -21 -22 -23 28 -25 -26 -27 -28 -29 -30 -31
leaf_value=0.12659054813676704 0.030862705154257541 0.07919998869172204 -0.016473259185077027 -0.039048844824381951 0.043883391730802912 0.066181543308383078 0.0029352325284119508 0.027730923990148589 -0.033003958076453573 0.044733635028347714 -0.020793586491476564 0.039860217929096137 -0.037957796618893598 -0.064034455633291396 -0.0071423940093223882 0.1379952552250282 0.0065393605022143536 0.010118138991197914 0.080124361228639848 0.046703584246435614 0.010967433225434434 0.0056758403206920438 -0.0080762252760245845 0.022097640526783521 0.099759119420421469 0.022139079348633066 -0.052114158064492433 -0.01306544266308015 -0.019903247750174012 0.05340712174202257
leaf_weight=18871.713814467192 21693.174445301294 6172.6503384113312 60047.745073050261 32897.594059973955 10358.285536140203 42670.018451422453 40367.321023523808 11929.390055060387 36064.191007494926 41025.719216972589 48548.611838191748 17690.919812619686 98749.878537297249 55495.58913820982 17873.263853907585 2108.9460877776146 13791.112675070763 9902.4637926220894 7667.1305818557739 19992.85683375597 31881.261840075254 72244.094107598066 51704.822144061327 70122.647014290094 8578.2264373898506 37327.181553691626 70592.543705374002 31243.566991060972 42485.398213654757 20871.536278426647
leaf_count=50397 62663 16984 186500 106879 29534 116492 120891 35122 114412 114399 152147 50081 316017 188077 54761 5662 41246 29656 20970 56127 93609 214428 156638 202219 22985 107124 232650 95218 131763 58063
internal_value=0 0.0353739 -0.0252422 -0.0389377 0.0222289 0.0791659 -0.00533095 0.00963166 -0.0123793 0.0365241 -0.027717 0.0317445 -0.0323006 -0.0535716 0.0124778 0.0643722 0.00327249 -0.00723034 0.0926086 0.059967 0.0190234 0.00880157 -0.0111726 0.0256761 0.118206 0.0268624 -0.0479609 -0.0070618 -0.0134109 0.0592942
internal_weight=0 432666 618304 366332 332777 99888.9 251972 176894 180524 155883 207346 128839 147298 158986 71447.7 72439 129208 144460 9776.08 62662.9 53574.4 84173.5 104093 87813.6 27449.9 47685.5 103490 45034.7 94190.2 27044.2
internal_count=3183714 1237051 1946663 1182270 964418 272633 764393 522672 553360 441746 654664 366699 468164 527606 211033 199251 386014 438948 26632 172619 156272 249550 318057 252300 73382 136658 339529 136464 288401 75047
is_linear=0
shrinkage=0.1


Tree=11
num_leaves=31
num_cat=0
split_feature=441 118 308 442 4 194 441 62 365 442 308 175 275 141 118 120 442 351 446 441 194 9 446 43 62 441 9 332 291 385
split_gain=28683.7 7273.14 6126.15 2129.25 1918.13 1892.16 1848.98 1523.77 1371.08 903.636 797.163 770.763 697.555 857.984 666.589 602.195 600.402 795.438 554.759 553.485 489.464 488.163 463.951 440.59 423.075 417.738 388.046 396.677 398.097 386.655
threshold=-0.33906748346815369 -0.7381836765135944 0.30441829534537168 -0.9759291866176284 -0.26144031158496189 -0.96948891794536352 -0.705276506764421 -0.64692363831866695 1.4985036515869028 -0.40932791138750552 2.6199203339302075 -0.19611685638028434 -1.1837233257127846 -5.1163300582470844e-05 -0.094783982367048228 -0.0026500099788631473 0.36109679227780705 -1.3520585005737888 0.2580149540396755 0.016344218455846448 -0.50263613822358122 -0.64281260863234635 1.0000000180025095e-35 -1.4520931022771466 -0.31953641907952274 4.8172507763262846 -1.7577178674199041 -1.3613263949922676 -0.0026642193706841884 -0.5466255792401481
decision_type=2 2 2 2 2 2 2 2 2 2 2 2 2 2 2 2 2 2 2 2 2 2 2 2 2 2 2 2 2 2
left_child=1 5 4 8 9 -1 -3 10 -4 15 16 22 14 -14 -9 20 17 -5 -7 -11 -2 -6 -8 -19 -23 -10 -12 -28 -29 -15
right_child=2 6 3 7 21 18 11 12 25 19 26 -13 13 29 -16 -17 -18 23 -20 -21 -22 24 -24 -25 -26 -27 27 28 -30 -31
leaf_value=-0.0828191638538429 -0.022344199164660804 -0.032897125269716547 0.02790845990433883 0.011219644703588921 -0.00033405494249666965 -0.052533166109502455 -0.024482639080481941 -0.019440820651917656 0.054988374412354282 -0.0088594593895675849 0.074842271507035027 -0.0055575641386189853 0.024165035579312009 -0.0037140881266156953 0.011305558317652528 -0.02848998811515312 0.01374617401493662 0.058494857259199576 -0.030450696533757995 0.0086592419732133986 0.0039355134307110283 0.019599368135920201 -0.011622958116094408 0.032094164108826734 0.007293417962199485 0.098287222345175687 0.014750690505914661 0.063061785634429268 0.015045386943965237 0.011787089570607027
leaf_weight=17238.099450707436 12718.486520826817 57579.597665220499 42364.636070609093 15080.072136700153 62683.69245710969 30333.080747246742 56154.790445744991 12993.517865091562 13512.721727102995 39508.581169784069 3687.9603845775127 88011.278724610806 58107.27484831214 18775.157073050737 15418.745121508837 27054.51784619689 40981.325375288725 8544.2265598475933 18203.964139282703 33180.108102381229 16007.150641053915 36124.847975552082 56065.73712387681 24296.516403853893 123266.78253266215 2668.150166451931 4699.0977303385735 6655.7001805305481 2331.5333856642246 112574.58701637387
leaf_count=61814 39608 184752 122584 43820 185848 100281 176439 38426 38014 119543 10374 267513 169399 55008 44772 82683 118629 24470 58645 99101 48117 107099 173225 70576 366571 7384 13380 18708 6680 330251
internal_value=0 -0.0246774 0.0110665 0.0198147 0.00151604 -0.0543588 -0.0171047 0.0166447 0.0373661 -0.00820962 0.0264615 -0.0125634 0.0118561 0.0140473 -0.0027554 -0.0177836 0.0226327 0.0302324 -0.0442511 -0.000862721 -0.00770002 0.00714226 -0.0180579 0.0389629 0.0100825 0.0621282 0.0460525 0.0382947 0.050605 0.00957135
internal_weight=0 323587 733235 382691 350544 65775.1 257811 324146 58545.5 128469 106276 200232 217869 189457 28412.3 55780.2 88902.1 47920.8 48537 72688.7 28725.6 222075 112221 32840.7 159392 16180.9 17374.3 13686.3 8987.23 131350
internal_count=3183714 1022669 2161045 1112475 1048570 220740 801929 944493 167982 389052 306637 617177 637856 554658 83198 170408 257495 138866 158926 218644 87725 659518 349664 95046 473670 45398 49142 38768 25388 385259
is_linear=0
shrinkage=0.1


Tree=12
num_leaves=31
num_cat=0
split_feature=441 289 156 43 289 441 427 446 251 118 446 99 62 47 9 442 442 99 384 81 66 252 84 81 9 176 441 423 62 256
split_gain=18510.6 5751.94 4130.99 1675.92 1438.3 1306.2 1161.1 844.317 829.351 803.536 640.282 622.658 577.02 546.618 522.368 683.844 520.725 463.465 426.095 405.399 388.943 399.436 386.756 380.108 380.592 377.426 449.129 377.802 374.735 373.361
threshold=-0.4686606059802752 -0.87123535957076059 0.40845544129370032 -1.0197488130436472 -0.58751094383853963 0.31870024836280769 1.1335754577581629 -0.22300777582333017 -1.0074202970755743 2.3948568326763016 -0.070944627342284003 -0.69243835477815863 1.2980365466288064 -1.2830985153326175 0.434086394256532 -0.95122069333308978 -0.70816301671741722 -0.34726300969612661 1.3648709582834695 -0.097353345283914802 -1.3648405944252064 -0.60340025856495116 -7.2250392383510999e-05 -0.63731487474142334 0.41215994350011687 -1.5817928231658061 1.1545955427488757 -1.9121898516000788 0.12450295398883711 -0.12075493263419081
decision_type=2 2 2 2 2 2 2 2 2 2 2 2 2 2 2 2 2 2 2 2 2 2 2 2 2 2 2 2 2 2
left_child=1 8 5 -4 7 6 13 -3 -1 14 18 -6 16 29 25 -16 -13 22 -11 -8 -18 -22 -15 -7 -25 -5 28 -28 -27 -2
right_child=2 4 3 9 11 23 19 -9 -10 10 -12 12 -14 17 15 -17 20 -19 -20 -21 21 -23 -24 24 -26 26 27 -29 -30 -31
leaf_value=-0.083289986711198499 -0.0073381067838609636 -0.015857528079385209 0.0033301877098785488 -0.002290719922496715 -0.036129713509171241 0.00055194120054612497 -0.03324447678469479 -0.035724530273214102 -0.050456803052918102 0.033441609336633961 0.042610842781454217 0.0018618595275058766 0.0085238725818535341 -0.009771605889985208 -0.0045999289081950943 0.016344626562115227 -0.034516757001972535 0.0047443052589457753 8.0779656547800034e-05 -0.011506248282580421 0.00021335425676221196 -0.017917487549865916 0.0025984925216085593 0.015176790234826043 0.0041310624608762196 0.01335224745600579 0.096836064242837971 0.031740823378436443 0.028137316083822674 -0.038605163692216164
leaf_weight=12922.747733652592 12487.593217879534 35747.289018958807 79030.671297311783 5881.2468857169151 9041.2609697580338 46829.738356918097 12598.43585729599 53266.766351938248 19011.284503877163 7641.8641647696495 25425.711888760328 21273.480867356062 16311.532994389534 54546.347878098488 19228.398824453354 82359.509419053793 9754.098414093256 146839.78038236499 7672.339581400156 26889.441165268421 16638.725170046091 45051.05971583724 47099.217378020287 83048.881308108568 49959.095737308264 42366.673803389072 918.00880143046379 30984.038580656052 28793.022041350603 5501.5731707513332
leaf_count=50859 37818 113830 234253 17208 29203 139047 38883 175060 66131 21908 71407 64985 49396 167169 56121 237994 30291 438443 22189 81938 51229 138923 143700 243392 147110 123661 2632 88754 83455 16725
internal_value=0 -0.0242397 0.00740303 0.0160314 -0.0181479 0.0015365 -0.00243891 -0.0277461 -0.0637434 0.0200262 0.0328814 -0.0109117 -0.00882047 -6.75116e-05 0.0175386 0.0123803 -0.0118718 0.00115111 0.016728 -0.0184417 -0.0159612 -0.0130273 -0.00403971 0.00829997 0.0110279 0.0223487 0.0237547 0.033614 0.0193347 -0.0169004
internal_weight=0 239018 816102 330301 207084 485800 305962 89014.1 31934 251271 40739.9 118070 109029 266475 210531 101588 92717.4 248485 15314.2 39487.9 71443.9 61689.8 101646 179838 133008 108943 103062 31902 71159.7 17989.2
internal_count=3183714 769907 2413807 959582 652917 1454225 924676 288890 116990 725329 115504 364027 334824 803855 609825 294115 285428 749312 44097 120821 220443 190152 310869 529549 390502 315710 298502 91386 207116 54543
is_linear=0
shrinkage=0.1


Tree=13
num_leaves=31
num_cat=0
split_feature=441 441 175 213 99 441 156 118 441 441 4 441 441 441 270 4 289 4 80 156 270 53 438 42 438 438 289 232 99 85
split_gain=76206.5 21625.4 13168.7 6355.66 5202.63 4651.28 2598.11 1794.72 1437.74 1122.89 844.69 830.306 759.384 740.78 729.353 695.58 574.663 572.434 552.129 496.737 444.348 438.205 576.05 377.851 375.882 365.381 352.829 338.94 334.869 330.962
threshold=-0.16798822517242271 -0.73837396288528845 0.11900930908290763 -0.32880401934186182 -0.88362729781252158 0.87657950194646161 -0.46189946814713617 -0.73035738820508811 1.1025948484532109 -0.45599638674398763 0.42663187202156266 1.2392515329063449 2.1808122717816416 -0.85245187374983722 -0.64474654441891677 -0.54188635510366034 0.313404592034847 0.049675190473088181 -1.0065767919515138 -0.73010845365054877 0.12034056823766036 -0.15607037383054537 -0.12717774557581782 -0.88675487552617083 -0.12969849859484692 -0.12970417019284255 0.066346111972512264 1.1013901350354875 -0.30334634393469762 1.3861757261773555
decision_type=2 2 2 2 2 2 2 2 2 2 2 2 2 2 2 2 2 2 2 2 2 2 2 2 2 2 2 2 2 2
left_child=1 4 6 7 18 10 11 23 17 26 27 19 -7 25 -9 -11 -12 29 -1 -2 -17 -16 -23 -3 -20 -6 -5 -4 -15 -8
right_child=2 3 5 9 13 12 8 14 -10 15 16 -13 -14 28 21 20 -18 -19 24 -21 -22 22 -24 -25 -26 -27 -28 -29 -30 -31
leaf_value=0.11568649935448105 0.027964432577778059 0.071424927982389502 -0.016471161482919411 0.018753793765943636 0.1027390771064588 -0.046118836092095189 -0.0060780182913295067 0.03728625797778342 -0.033929183580563856 0.020326107258163868 -0.023172831376112368 -0.02146571848117371 -0.061451676274780147 0.053067395379586615 0.030873330691834528 0.0012344964353625607 -0.039005063824093855 -0.017736061799467379 0.11271860358479756 0.007266861456784757 -0.012512458425744267 0.022092105218810165 0.00041903046296594935 0.045771814613796119 0.075970583533099434 0.064748591714941323 0.0026081335980551548 -0.030900017458930819 0.034124795605201645 0.022867238446530866
leaf_weight=18105.197229743004 14874.059828937054 7006.0882836580276 63733.994484037161 53743.5425529778 2841.8322255313396 92941.795866250992 79996.199330806732 41764.289059787989 30142.310279101133 13061.201607912779 34732.068535506725 8425.2308701872826 49506.533723846078 33870.918785095215 33868.242066353559 59054.723491817713 67445.810467779636 55438.829220592976 4195.5845235288143 52605.060186207294 39068.656376898289 51590.20578622818 16087.931482702494 31815.331162214279 8269.9193105995655 23191.111584126949 18090.852834522724 21865.492395848036 12881.746840953827 4155.4360119700432
leaf_count=49171 42861 18942 201564 154878 7621 314824 243867 116515 98269 38361 110749 26396 175143 92190 96290 176304 222318 172663 11270 155474 120469 146884 46074 87251 22139 62450 53353 70985 35815 12624
internal_value=0 0.029534 -0.0247792 0.0181038 0.0699164 -0.0378214 -0.00724565 0.0313289 -0.0141232 0.00494277 -0.0274846 0.00813346 -0.0514476 0.0553762 0.0261623 -0.00135323 -0.0336234 -0.00984639 0.104535 0.0118291 -0.00423897 0.0215872 0.0169401 0.0504014 0.0883391 0.0688957 0.0146877 -0.0201569 0.0478481 -0.00464869
internal_weight=0 468507 575863 365151 103356 330226 245637 182132 169733 183019 187777 75904.4 142448 72785.6 143311 111185 102178 139590 30570.7 67479.1 98123.4 101546 67678.1 38821.4 12465.5 26032.9 71834.4 85599.5 46752.7 84151.6
internal_count=3183714 1335977 1847737 1055321 280656 1095583 752154 511956 527423 543365 605616 224731 489967 198076 405763 335134 333067 429154 82580 198335 296773 289248 192958 106193 33409 70071 208231 272549 128005 256491
is_linear=0
shrinkage=0.1


Tree=14
num_leaves=31
num_cat=0
split_feature=365 441 308 4 442 4 42 442 81 441 62 61 346 308 441 142 275 408 366 442 442 422 214 446 441 369 442 237 438 233
split_gain=23496.4 6784.2 4218.66 2123.33 2107.44 1614.66 1482.78 915.424 873.707 773.703 742.388 711.174 666.844 620.793 564.356 559.621 554.588 546.672 540.824 431.85 431.626 418.235 410.978 376.369 356.873 351.607 350.564 342.706 341.547 338.308
threshold=-0.28045817003736512 -0.81603161182700423 0.61844022162893786 -0.59150958377265039 -0.80775563268941875 -0.19363134145025859 -0.94346758330574543 0.20431718796326689 -0.48439065120348368 -0.53259310862758324 -0.41965553944831119 -0.34017869793048844 2.1811071029964832 2.6199203339302075 0.26516511375632595 -1.8784573279522692 -2.0057876458642085 -0.42344754428181491 -0.21715421038529878 1.7363468118602883 0.36109679227780705 -0.10132401961298264 -1.1678803561238891 -0.34589434627794807 0.13748976387552156 -5.8731757404576608e-05 1.6977554582184926 -0.88197543736694239 -0.12970417019284255 0.78822286042436585
decision_type=2 2 2 2 2 2 2 2 2 2 2 2 2 2 2 2 2 2 2 2 2 2 2 2 2 2 2 2 2 2
left_child=1 6 5 7 12 10 -1 -3 11 23 21 29 -4 15 -7 -13 18 -12 -10 27 25 -2 -14 -5 -19 -17 -9 -11 -8 -6
right_child=2 3 4 9 8 14 28 26 16 19 17 13 22 -15 -16 20 -18 24 -20 -21 -22 -23 -24 -25 -26 -27 -28 -29 -30 -31
leaf_value=-0.080099898362198191 -0.0070887342447469651 -0.038532668951522846 0.031253588481307534 -0.027490012533936681 -0.013227023227608617 0.004869590590685164 -0.071463423045327004 -0.021383046848424413 -0.034827747647856601 -0.022111870309709208 -0.020550042911427494 -0.00020362088267433321 0.07583416360054028 0.043192533775796287 0.014310559292564343 0.023127483938227226 0.01191266057156036 -0.010153254526846723 0.11724038240401893 0.013541826441881802 0.016816638096848902 0.010668582130677364 0.039936563940437125 -0.013202650010551703 0.0061061722159998378 0.045876749869383997 0.005784370889165974 -0.0052223504728598231 -0.039641682573029385 0.02973349613592834
leaf_weight=15827.20183095336 20154.495473206043 45010.378392696381 46364.860172837973 25991.956291615963 7187.8262375891209 144549.23431348801 3788.768442928791 30085.751617133617 3823.2017920613289 13476.66520383954 31157.670050859451 9727.4803245067596 6094.6053915917873 17390.402677714825 112669.73126059771 13327.541533648968 139479.77028685808 36375.605289816856 249.11116033792496 11088.20137861371 26656.9516248703 38794.518247574568 6690.0940564572811 63440.395680487156 21464.591437935829 13858.6545984447 5640.1929877996445 110692.92727831006 30728.265207469463 2460.5304109752178
leaf_count=61175 61120 147866 131799 83352 20921 429823 13284 95906 11354 41147 95162 27963 16667 48682 328238 38307 405685 110638 718 33151 76492 115435 18653 200393 63572 39579 17621 338214 103722 7075
internal_value=0 -0.0207429 0.0108297 -0.0151365 0.0199638 0.00421733 -0.0547557 -0.029046 0.0157036 -0.0101385 -0.00410649 0.0233921 0.0368291 0.0264505 0.00900502 0.0218705 0.0108506 -0.00987165 -0.0255254 -0.00536691 0.0258585 0.00459741 0.0570493 -0.017355 -0.00411935 0.0347243 -0.017094 -0.00705544 -0.0431346 -0.0022712
internal_weight=0 355771 698477 305426 293311 405166 50344.2 80736.3 234161 224690 147947 90609.4 59149.6 80961 257219 63570.6 143552 88997.9 4072.31 135258 53843.1 58949 12784.7 89432.4 57840.2 27186.2 35725.9 124170 34517 9648.36
internal_count=3183714 1135831 2047883 957650 843895 1203988 178181 261393 676776 696257 445927 259019 167119 231023 758061 182341 417757 269372 12072 412512 154378 176555 35320 283745 174210 77886 113527 379361 117006 27996
is_linear=0
shrinkage=0.1


Tree=15
num_leaves=31
num_cat=0
split_feature=441 80 156 43 251 346 442 308 160 4 42 446 194 43 446 65 422 366 442 5 156 62 441 218 442 312 176 366 103 404
split_gain=15273.5 4175.12 3952.53 1530.62 1505.05 1102.49 930.184 804.325 684.992 662.255 633.949 495.678 455.768 454.974 483.653 447.265 440.354 407.122 403.361 442.901 397.206 390.561 382.848 376.459 365.353 572.605 358.945 346.245 329.92 315.966
threshold=-0.57139458654390185 -0.90044497408690261 0.40845544129370032 -1.2748323392669889 -0.37791526702577705 -0.7161483547424049 -0.54020229143258536 -0.16841018536369873 -4.3766213121635405e-05 -0.56655119223793038 3.1830178369068212 -0.35598389347124204 -0.77173081469724913 1.3544817174303907 -0.23330700039647992 -8.1470928896193285e-05 7.1182763249174128 -0.33375522644091909 0.96561864174629275 0.87458793880370977 -1.0060845585009461 -0.83042699696324684 0.15620074924940316 -1.5688557983271096 -1.2473683523180854 -3.9051257900775425e-05 -1.6450839469538081 1.2462118095194625 -6.4669624059944685e-05 -1.9880868521973152
decision_type=2 2 2 2 2 2 2 2 2 2 2 2 2 2 2 2 2 2 2 2 2 2 2 2 2 2 2 2 2 2
left_child=1 20 4 24 6 11 -2 -5 16 15 18 -3 -8 14 -7 -6 26 -17 19 23 -1 -14 -11 -10 25 -4 -9 -12 -24 -25
right_child=2 5 3 7 9 13 12 8 10 22 27 -13 21 -15 -16 17 -18 -19 -20 -21 -22 -23 28 29 -26 -27 -28 -29 -30 -31
leaf_value=-0.080912957557208412 0.001351886533244968 -0.019180849674727177 -0.017826241328230009 -0.0021379755845567783 -0.016615608207474774 -0.0071911387831506473 -0.032281301927058283 -0.010203979164874465 -0.026118387455494881 0.001999991772472278 0.046232103260276193 -0.038966491234374012 -0.026323370327993947 0.005543282599078549 -0.022954331692617447 0.018160684708639081 0.072209843404517693 -0.0081381954199938808 0.031387541557209957 0.010189015529589786 -0.053458483671225368 -0.0083177759615223959 0.0046400159685186368 0.084865961992981742 -0.0044397360696488385 0.045319354232998543 0.013286653008473415 -0.0003107760124009458 0.013640236226095465 0.023451027747595013
leaf_weight=11696.266907185316 68554.57000285387 19207.313759759068 2304.1381143629551 20521.616590857506 24421.103621065617 31478.131781429052 11768.064543515444 6937.329252243042 1518.004902690649 162349.95050659776 14801.587358027697 37156.158694118261 14449.217212706804 10104.652878850698 51001.567334115505 9899.8432631194592 1220.8040114045143 14519.875673949718 27318.878608673811 45025.136429220438 9590.9113366752863 72457.016051083803 86974.332633107901 849.07503521442413 47456.925430804491 3811.6450239121914 104349.42026212811 1791.8647250831127 76599.188986897469 62570.220204174519
leaf_count=50019 207633 63574 6934 60608 74775 98653 37797 20354 4356 486875 41308 128285 45036 31103 163621 29620 3492 43985 77716 128730 35458 223248 256287 2407 141522 11329 301832 4958 223182 179017
internal_value=0 -0.0271179 0.00559719 0.014041 0.000292806 -0.0211975 -0.00759584 0.0169383 0.0184079 0.00381291 0.022744 -0.032224 -0.0138123 -0.0144847 -0.0169384 -0.00704634 0.0124776 0.00252347 0.0205125 0.0178107 -0.0685434 -0.0113114 0.00544021 0.0230953 -0.00147517 0.0215291 0.0118223 0.0412061 0.00885469 0.0242733
internal_weight=0 170235 882470 340477 541993 148948 167229 286904 266382 374764 153875 56363.5 98674.3 92584.4 82479.7 48840.8 112508 24419.7 137281 109962 21287.2 86906.2 325923 64937.3 53572.7 6115.78 111287 16593.5 163574 63419.3
internal_count=3183714 570713 2613001 984563 1628438 485236 513714 824778 764170 1114724 438492 191859 306081 293377 262274 148380 325678 73605 392226 314510 85477 268284 966344 185780 159785 18263 322186 46266 479469 181424
is_linear=0
shrinkage=0.1


Tree=16
num_leaves=31
num_cat=0
split_feature=441 346 232 118 80 441 4 365 4 441 99 441 441 441 441 4 47 137 442 232 47 110 248 441 442 4 9 442 441 441
split_gain=62288.1 17497.4 11438.8 4655.79 4395.62 3181.87 2964.5 1447.63 1422.42 1271.74 1174.44 890.958 814.324 753.904 675.812 612.938 574.029 544.265 530.161 515.924 485.477 413.053 385.289 381.275 352.947 343.156 330.086 326.158 319.69 308.157
threshold=-0.16798822517242271 -0.73220700260008986 0.32844166151423032 -0.33906289629519465 -0.94037735835680081 1.329751370049965 -0.23433140430374452 -0.44904551845325397 -0.79422677699590827 0.55300351098188238 0.30790767731892116 -0.8987162188290686 0.59531414078978162 -0.48126284027975313 0.30802621566683047 -0.66316260881345546 -0.81410729159686623 0.28451898245842622 1.0000000180025095e-35 -0.2979534006754308 -0.73120527848963035 -0.15616518689434972 -0.12967370025075692 2.7224807240538902 2.0196627094831507 -0.39517049683378924 1.0445569924758071 -0.17731515723690661 3.3686797049741801 1.4324767162320158
decision_type=2 2 2 2 2 2 2 2 2 2 2 2 2 2 2 2 2 2 2 2 2 2 2 2 2 2 2 2 2 2
left_child=1 4 6 8 -1 10 12 20 -3 19 25 22 15 21 -12 -2 18 26 -9 -8 27 -10 -6 -7 -13 -4 -18 -5 -14 -11
right_child=2 3 5 7 11 23 9 16 13 29 14 24 28 -15 -16 -17 17 -19 -20 -21 -22 -23 -24 -25 -26 -27 -28 -29 -30 -31
leaf_value=0.10005342596176481 0.023318878405076352 0.052762583268578793 -0.0048436288387815399 0.015248407067491558 0.10363848004518586 -0.047663381410668088 0.00033326014088997611 -0.0023963550979951478 0.075826008272431453 -0.024255764594986705 -0.025602854934653502 0.047710063941706259 -0.008215645567370769 0.017168115766126778 -0.04031805349000777 0.0037035435256686012 -0.0017231007238720276 -0.013898905660592722 0.022967018751411716 -0.015085733969564747 0.012040369626076729 0.030558170940815216 0.064773716127165606 -0.061166966164174053 0.011096300157364515 -0.022363936687076483 0.017699065291761719 0.040330994179429681 -0.059009466066041794 -0.039931095782701743
leaf_weight=24064.728237390518 21149.015858113766 21293.207470566034 15400.748580992222 8800.9436780512333 3234.4834490418434 61230.28474624455 29956.080370754004 15450.4246545434 2071.743544459343 40600.105545371771 49927.12330520153 61755.717440962791 29936.698278188705 65472.370381891727 83251.220787793398 64558.657575547695 51833.020261645317 35908.500841617584 17662.349081277847 78744.827032536268 50203.081605315208 74514.900298982859 12067.550543069839 31752.366450235248 2750.059644728899 40782.267415851355 10527.791645884514 12615.315196186304 1292.60511469841 18146.593353077769
leaf_count=67026 60993 57896 48917 24983 8747 217002 90815 46041 5672 132053 163931 166894 93281 186122 285486 191695 153859 110434 52552 247297 143693 205378 32283 117436 7504 132736 31236 35657 4260 61835
internal_value=0 0.0263643 -0.022867 0.0160928 0.0625913 -0.0371252 -0.00871109 0.0059803 0.0286599 -0.0172432 -0.0296864 0.0512953 0.00350652 0.0250471 -0.0348015 0.00854378 -0.000254552 -0.00409151 0.0111325 -0.0108365 0.0174178 0.0317827 0.0729888 -0.0522747 0.0461491 -0.0175613 0.00155576 0.0300234 -0.010318 -0.0290978
internal_weight=0 470226 566729 366354 103873 282344 284385 203001 163352 167448 189361 79807.8 116937 142059 133178 85707.7 131382 98269.3 33112.8 108701 71619.3 76586.6 15302 92982.7 64505.8 56183 62360.8 21416.3 31229.3 58746.7
internal_count=3183714 1335977 1847737 1053523 282454 965508 882229 598455 455068 532000 631070 215428 350229 397172 449417 252688 394122 295529 98593 338112 204333 211050 41030 334438 174398 181653 185095 60640 97541 193888
is_linear=0
shrinkage=0.1


Tree=17
num_leaves=31
num_cat=0
split_feature=365 441 4 175 213 441 62 442 442 4 270 441 43 237 389 442 365 218 62 9 446 388 370 141 422 289 256 138 308 4
split_gain=19296.5 5250.74 4646.73 1637.69 1552.35 1364.56 987.51 833.695 813.514 678.561 676.954 633.559 612.801 602.596 590.303 586.695 557.071 548.97 594.318 634.767 449.848 445.803 440.259 602.259 340.678 337.752 478.641 351.255 334.942 392.857
threshold=-0.44904551845325397 0.26516511375632595 -0.87255114912072307 -0.16855514283121084 -0.21609598572714667 -0.705276506764421 -0.87973064368745191 -1.230277471992306 0.91727763935607498 -0.24812534449921106 7.060832093144132 -0.8987162188290686 1.4105450902239312 -1.0825298323282577 -1.2800170093304162 0.53654807663023329 1.9109987144144729 -1.7448116217530085 -1.2687925922181449 -0.89155660107430623 -0.1121917071443848 -5.7625113648039314e-05 -1.1560639418307905 -5.1417525077486535e-05 -0.1239190345447099 2.8381707984583291 -1.2441435212250649 -0.91251989907848108 2.4215570487085549 2.3298441787178938
decision_type=2 2 2 2 2 2 2 2 2 2 2 2 2 2 2 2 2 2 2 2 2 2 2 2 2 2 2 2 2 2
left_child=2 3 11 13 14 20 10 16 9 -7 15 -1 17 -2 -3 -6 -8 -5 24 -20 -4 -10 -9 25 -19 26 -24 -27 29 -17
right_child=1 4 5 12 6 8 7 22 21 -11 -12 -13 -14 -15 -16 28 -18 18 19 -21 -22 -23 23 -25 -26 27 -28 -29 -30 -31
leaf_value=-0.076253248256315839 -0.024597529648099165 -0.013346000820964455 -0.040595454784171744 -0.014891993263013954 0.031934084573250143 -0.02560697378110225 0.02617482545295376 0.002343379937104938 0.010197619198836149 -0.0095340869885432583 0.087891536094291359 -0.045329195675008808 -0.009854934294317285 -0.0063381264432834346 0.0075766997071611206 0.013598149308345735 0.071365754892508654 0.010537759110000176 -0.007229255528235042 0.0080338910008096974 -0.024129760354112649 -0.010705586529933852 -0.0050266761566641997 0.010700876949649494 0.031095212298293415 0.069721722207306547 0.022982817694588122 0.019672317698213308 0.039375565645520895 -0.034527750411546772
leaf_weight=15814.064513370395 21101.467544257641 19644.882904440165 29339.168764159083 11706.803841114044 56903.707012623549 62119.457563996315 26822.897976964712 33112.4454818964 16778.5120036304 45509.645687669516 1802.1882581412792 11401.785950377584 26815.379825115204 125972.88915532827 43002.306410580873 23505.875054210424 3036.5804713070393 17976.110643625259 33918.271070569754 138542.21487811208 38189.978212416172 26033.062320768833 6795.6955171823502 129216.41938298941 14615.583218991756 2916.1847590208054 59679.627733886242 2701.0496018230915 4630.3303772509098 1828.1158393025398
leaf_count=65693 65843 59440 100939 34404 160007 201094 76757 95127 51915 141831 4851 40296 80820 387743 126737 66981 8279 53515 100751 411204 128670 80422 19566 373959 41994 8101 171147 7628 12784 5216
internal_value=0 0.00769828 -0.0243385 -0.000625487 0.0155223 -0.019474 0.0180972 0.0150333 -0.0141729 -0.0188108 0.027229 -0.063298 0.00440576 -0.00895789 0.00101577 0.0259705 0.0307705 0.00616996 0.00737242 0.00503205 -0.0312836 -0.0025133 0.0130288 0.0147864 0.0197566 0.0221091 0.0201194 0.0456554 0.0146453 0.0101254
internal_weight=0 806247 245186 390649 415598 217970 352951 264281 150441 107629 88670.2 27215.9 243574 147074 62647.2 86868 29859.5 216759 205052 172460 67529.1 42811.6 234421 201309 32591.7 72092.6 66475.3 5617.23 29964.3 25334
internal_count=3183714 2372854 810860 1176274 1196580 704871 1010403 760564 475262 342925 249839 105989 722688 453586 186177 244988 85036 641868 607464 511955 229609 132337 675528 580401 95509 206442 190713 15729 84981 72197
is_linear=0
shrinkage=0.1


Tree=18
num_leaves=31
num_cat=0
split_feature=441 251 441 4 47 446 118 99 441 194 446 9 99 100 66 137 252 442 384 43 43 309 403 328 195 308 446 23 289 85
split_gain=12504.4 3925.99 3266.07 1648.89 1071.11 1062.84 761.969 720.802 593.804 602.587 574.036 562.464 500.701 499.234 447.284 435.461 426.15 811.92 576.502 400.494 376.896 375.616 361.984 423.697 403.642 343.476 328.063 326.552 324.784 323.84
threshold=-0.63315696987076187 -0.26528247966785307 -0.94221405741811093 0.77349096203450762 -0.70450868200948269 0.092009711762448668 0.26465625943506882 -0.67868421433952453 1.2994831101870215 -0.76230166637638908 -0.22300777582333017 0.35763929511666454 2.2982484839311605 -1.0440379875966859 -1.2426370405011786 5.3735480055974874 -0.58122820959259591 -1.094340850566851 1.7525397032505468 -1.2069908518306418 -0.53039823146408405 -0.69577147960158447 0.81264487630694859 -1.2611112971941199 -1.1652046687466502 -0.73296595848467139 -0.61457826001865412 0.31049741447413776 4.830791262137609 0.88001370672912882
decision_type=2 2 2 2 2 2 2 2 2 2 2 2 2 2 2 2 2 2 2 2 2 2 2 2 2 2 2 2 2 2
left_child=2 5 -1 4 16 11 -6 10 9 -7 -4 20 22 15 -11 21 28 -18 -19 -9 -2 -14 -5 29 -25 -21 -15 -22 -3 -24
right_child=1 3 7 12 6 8 -8 19 -10 14 -12 -13 13 26 -16 -17 17 18 -20 25 27 -23 23 24 -26 -27 -28 -29 -30 -31
leaf_value=-0.069069217205965025 -0.0031868351552800942 0.0040143527882112954 -0.01912618395097003 0.0087527675216076944 0.0044014913247986251 -0.036660259663427008 0.014348552278090282 -0.03578432643104023 0.020152060872125441 -0.041770166815880215 -0.044679031383924109 -0.0095933892390129179 0.046819679077546972 0.0095302472359697354 -0.010724651589797103 -0.041605981413189878 0.020182717295843557 -0.017504964289804314 0.022551979074478534 -0.026503351128847927 0.0070070870896913502 -0.0029178032918693742 0.043777254193997382 -0.0027592372459087047 0.019041505016991513 -0.010044016140339824 0.031374236175112542 0.032848366612924222 -0.04910796015289895 -0.004699975458179414
leaf_weight=17285.917007550597 40118.195071697235 53469.813602864742 15054.244773596525 92300.764523863792 221365.43877080083 11273.647721752524 118093.26271367073 9842.0345972925425 5098.5046580731869 4881.8350100517273 21132.524637639523 43523.574173718691 2245.777800232172 8286.3775954246521 93962.633363336325 1833.6807659268379 7931.7207616269588 45016.431728333235 3904.5364520251751 16944.119593679905 48546.126339703798 4687.7506077885628 9215.8819964528084 10484.111108601093 44715.653958767653 50364.043546378613 40375.340681135654 5437.9439844191074 1176.2247318923473 1620.2924187481403
leaf_count=76263 122468 159538 51623 267114 656821 37432 340331 31933 14936 15351 76780 132774 6580 23833 292134 5611 23567 135290 11315 58417 147978 13713 26199 30371 126762 161159 112912 16243 3652 4614
internal_value=0 0.00448492 -0.0285797 0.00850871 0.00506881 -0.00612546 0.00786194 -0.0224043 -0.0132115 -0.0147562 -0.0340487 -0.000193235 0.0156982 0.023697 -0.012258 0.00173106 -0.00343491 -0.00949599 -0.0143079 -0.0169426 0.00415446 0.0131922 0.0127971 0.0184499 0.0149009 -0.0141875 0.0276545 0.00961014 0.00287093 0.0365286
internal_weight=0 919566 130623 666723 450957 252842 339459 113337 115217 110118 36186.8 137626 215766 57428.9 98844.5 8767.21 111499 56852.7 48921 77150.2 94102.3 6933.53 158337 66035.9 55199.8 67308.2 48661.7 53984.1 54646 10836.2
internal_count=3183714 2727539 456175 1948223 1330514 779316 997152 379912 359853 344917 128403 419463 617709 162649 307485 25904 333362 170172 146605 251509 286689 20293 455060 187946 157133 219576 136745 164221 163190 30813
is_linear=0
shrinkage=0.1


Tree=19
num_leaves=31
num_cat=0
split_feature=441 441 156 232 441 441 441 156 156 4 438 441 289 4 289 167 85 351 15 438 441 9 442 42 251 325 324 441 9 442
split_gain=51129 14796.5 9501.12 4469.34 4125.53 4009.5 1607.03 1354 1215.74 1097.35 881.417 789.504 715.562 599.042 572.927 537.818 487.102 482.859 409.616 685.255 403.033 374.885 384.915 362.673 354.873 323.88 310.917 309.355 309.301 356.916
threshold=-0.13908829002899298 -0.73837396288528845 1.0000000180025095e-35 -0.3244845643014248 0.81974435935538958 -0.97056657851195782 1.2103360957348019 -0.66992359377204969 -0.6018571976222683 -0.41989708705735534 -0.12969849859484692 2.1127398055092592 0.2118661053482411 0.17640294437795395 0.066346111972512264 -0.15614735420683437 -1.4803038222483682 -1.4919703781347737 -0.15612332262516268 -0.12779462528493699 0.20482990832247164 -0.6922605585157654 -0.20449727494594599 -0.90244945063263937 1.6806858171139127 -0.21121325755706169 -0.1280549920976406 3.1654963970411738 0.89134084951519477 0.51255607408535508
decision_type=2 2 2 2 2 2 2 2 2 2 2 2 2 2 2 2 2 2 2 2 2 2 2 2 2 2 2 2 2 2
left_child=1 5 6 7 12 -1 8 23 -2 -5 -7 24 -4 -14 21 -12 -9 -10 25 -20 -19 22 -11 -3 -6 -18 -17 -8 -23 -30
right_child=2 3 4 9 11 10 27 16 17 14 15 -13 13 -15 -16 26 18 20 19 -21 -22 28 -24 -25 -26 -27 -28 -29 29 -31
leaf_value=0.094651375312149427 0.015789014001713148 0.061648390269458467 -0.013512593522392154 0.016606822310643539 -0.035313997666629834 0.075050524575710875 -0.022428229249588313 0.052543041340286617 0.011524151370054234 -0.0013909412587658229 0.055605159811353923 -0.05501841035257115 -0.017423265539834917 -0.03168757577445059 -0.0096407729294703034 0.041545853046896918 0.021892205491969668 -0.0014834699201726879 0.020620000503720134 0.0030220937615805625 -0.012808581085094684 -0.005556117084588196 0.023161316587372801 0.034553709768386669 -0.048212045099618732 0.044904875410447381 0.023632061421905073 -0.053175430745989884 0.017619355072971968 -0.0098361425787858569
leaf_weight=21815.632060408592 34040.102342426777 5436.8219439387321 61252.903528571129 44614.141495138407 65706.746598988771 9431.5114140212536 26080.234485343099 4183.1805915534496 15272.940061837435 10584.440418928862 21784.317297130823 49457.718411952257 45554.775157511234 83233.520717084408 52740.896924763918 36129.088877022266 25193.929491817951 61130.629588842392 65203.667880296707 33493.742214441299 64662.858200579882 43276.896607518196 16094.993871033192 54087.654849261045 31586.042657986283 8076.2301194667816 13239.168247699738 3741.7100600302219 15095.272160798311 6898.7622702121735
leaf_count=63410 98282 14562 196071 128620 231913 25676 86636 11654 46661 30976 58558 189390 148955 284390 162937 97276 70453 183936 182598 94535 203162 127722 46882 146954 115162 22460 35736 13038 44712 20397
internal_value=0 0.0228362 -0.0218055 0.01385 -0.032136 0.0566205 -0.00482782 0.0244478 -0.00117333 0.00289561 0.0463248 -0.0447309 -0.0224102 -0.026642 -0.0013321 0.0425171 0.0189476 -0.00526644 0.0178827 0.014648 -0.00730503 0.00343358 0.0134208 0.0370285 -0.0395013 0.0274785 0.0367419 -0.026286 -0.000648677 0.00900752
internal_weight=0 487380 541720 384981 336792 102400 204928 195675 175107 189305 80584.1 146751 190041 128788 144691 71152.6 136151 141066 131968 98697.4 125793 91950.4 26679.4 59524.5 97292.8 33270.2 49368.3 29821.9 65270.9 21994
internal_count=3183714 1386118 1797596 1105462 1165881 280656 631715 543216 532041 562246 217246 536465 629416 433345 433626 191570 381700 433759 370046 277133 387098 270689 77858 161516 347075 92913 133012 99674 192831 65109
is_linear=0
shrinkage=0.1


Tree=20
num_leaves=31
num_cat=0
split_feature=441 213 175 441 365 4 446 389 62 442 365 9 442 237 43 218 441 366 62 62 441 289 4 4 427 4 442 328 446 365
split_gain=15749.6 5008.57 3526.59 1765.57 1419.33 868.535 783.245 714.817 692.738 643.236 1009.71 595 645.698 575.85 560.657 529.087 515.149 504.711 443.502 438.915 390.952 387.012 381.288 381.244 377.273 374.867 372.195 491.573 572.928 456.818
threshold=-0.33906748346815369 -0.84443331578148884 -0.23084814189918537 0.78321669273953687 -0.60603980983140415 -0.94314122635448039 0.21659146056550801 -1.1552694045830321 0.57895711074277001 -1.0394085899152998 1.266986183366041 -1.1541913940593052 0.15201584057960629 -0.86635922063558357 -0.99264221029715682 -1.6709004695237224 0.092879566203596164 -1.419015258132845 -1.0168032499833721 -1.9163301526165413 1.9751309019538577 0.51919255226770866 0.15729087956429119 -0.28839057755961356 -1.6567203790326104 -0.51190095076238296 0.71688837975315878 -0.75667816793080056 -0.1533374537100364 1.9109987144144729
decision_type=2 2 2 2 2 2 2 2 2 2 2 2 2 2 2 2 2 2 2 2 2 2 2 2 2 2 2 2 2 2
left_child=1 5 7 8 6 -1 23 20 11 10 -5 12 14 -6 24 -13 -9 -11 -15 -19 -2 -17 -10 -3 -4 -20 27 -21 29 -29
right_child=2 4 3 9 13 -7 -8 16 22 17 -12 15 -14 18 -16 21 -18 19 25 26 -22 -23 -24 -25 -26 -27 -28 28 -30 -31
leaf_value=-0.07416604833420086 -0.017556485952375366 -0.036042947004879991 -0.011714069573476128 0.017190342274426597 -0.021332743629698156 -0.041622468475312015 -0.01267738153393831 -0.0059776452493136697 -0.0047490058124688228 -0.0038896473544270671 0.049790674107994141 -0.0078377015267072827 -0.0097646986263281044 0.008476200395820822 -0.0053830888076875846 0.011733913041825637 0.0061756013989170194 0.049847064931365384 -0.018087869381410899 0.011952191430702797 0.021963709530413246 0.022283299167463144 0.0065753844122538431 -0.019518452822477425 0.031908840595924894 -0.0050907224144591777 0.01120039183895608 0.026631042554211205 0.01989622927532084 0.057123007748679691
leaf_weight=13916.784686610103 40402.677417159081 41659.364540323615 2350.0473826527596 22913.582126200199 29592.122626900673 19966.627359181643 40621.032469063997 75740.440501600504 53969.785946071148 11299.729363203049 16230.086089938879 10501.198087960482 25407.876311838627 18424.508872032166 10094.990811020136 101156.79957792163 64647.077895790339 4203.1153208315372 29051.863503545523 38381.964867591858 2668.462427854538 52992.837760090828 66203.424661695957 21000.046803787351 12678.300235360861 93970.593573093414 64799.186905294657 10899.494794458151 43822.848750591278 8945.9701461493969
