{"learner":{"attributes":{"scikit_learn":"{\"_estimator_type\": \"classifier\"}"},"feature_names":[],"feature_types":[],"gradient_booster":{"model":{"gbtree_model_param":{"num_parallel_tree":"1","num_trees":"300"},"iteration_indptr":[0,3,6,9,12,15,18,21,24,27,30,33,36,39,42,45,48,51,54,57,60,63,66,69,72,75,78,81,84,87,90,93,96,99,102,105,108,111,114,117,120,123,126,129,132,135,138,141,144,147,150,153,156,159,162,165,168,171,174,177,180,183,186,189,192,195,198,201,204,207,210,213,216,219,222,225,228,231,234,237,240,243,246,249,252,255,258,261,264,267,270,273,276,279,282,285,288,291,294,297,300],"tree_info":[0,1,2,0,1,2,0,1,2,0,1,2,0,1,2,0,1,2,0,1,2,0,1,2,0,1,2,0,1,2,0,1,2,0,1,2,0,1,2,0,1,2,0,1,2,0,1,2,0,1,2,0,1,2,0,1,2,0,1,2,0,1,2,0,1,2,0,1,2,0,1,2,0,1,2,0,1,2,0,1,2,0,1,2,0,1,2,0,1,2,0,1,2,0,1,2,0,1,2,0,1,2,0,1,2,0,1,2,0,1,2,0,1,2,0,1,2,0,1,2,0,1,2,0,1,2,0,1,2,0,1,2,0,1,2,0,1,2,0,1,2,0,1,2,0,1,2,0,1,2,0,1,2,0,1,2,0,1,2,0,1,2,0,1,2,0,1,2,0,1,2,0,1,2,0,1,2,0,1,2,0,1,2,0,1,2,0,1,2,0,1,2,0,1,2,0,1,2,0,1,2,0,1,2,0,1,2,0,1,2,0,1,2,0,1,2,0,1,2,0,1,2,0,1,2,0,1,2,0,1,2,0,1,2,0,1,2,0,1,2,0,1,2,0,1,2,0,1,2,0,1,2,0,1,2,0,1,2,0,1,2,0,1,2,0,1,2,0,1,2,0,1,2,0,1,2,0,1,2,0,1,2,0,1,2,0,1,2,0,1,2,0,1,2,0,1,2,0,1,2],"trees":[{"base_weights":[-5.015373E-1,-5.9214044E-1,-3.6261523E-1,-6.5821654E-1,-5.339494E-1,-4.380439E-1,-2.4663523E-1,-7.169842E-1,-6.279566E-1,-5.875064E-1,-5.0215703E-1,-4.5916817E-1,-2.8000474E-1,-3.059334E-1,-1.3314721E-1,-7.4055254E-1,-6.8696165E-1,-6.4980644E-1,-6.022998E-1,-6.419077E-1,-5.722819E-1,-5.49506E-1,-4.7566965E-1,-5.1964706E-1,-4.225295E-1,-2.9509082E-1,-3.1033352E-2,-3.3657622E-1,-1.9931518E-1,-2.7943808E-1,-1.1074942E-1,-7.475741E-1,-7.1898335E-1,-7.0282924E-1,-6.749494E-1,-6.683008E-1,-6.3165224E-1,-5.89519E-1,-6.3946605E-1,-5.9855175E-1,-6.545278E-1,-6.105588E-1,-5.592228E-1,-6.169503E-1,-5.3584445E-1,-4.9848723E-1,-4.252539E-1,-5.7408464E-1,-5.016687E-1,-4.4689447E-1,-3.7862307E-1,-3.629507E-1,-2.476307E-1,-3.1113735E-1,3.5869982E-2,-4.378411E-1,-3.2463163E-1,-3.3194226E-1,-1.5899688E-1,-3.4521326E-1,-1.7808135E-1,-1.5959388E-1,-3.521408E-2,-2.2428432E-1,-9.729732E-2,-2.2164956E-1,-2.1134177E-1,-2.109473E-1,-6.6666685E-2,1.2413793E-1,-2.0254289E-1,-1.9254841E-1,-2.054942E-1,-1.9618487E-1,-1.8502432E-1,-1.8211386E-1,-1.6983108E-1,-1.7783782E-1,-1.9695865E-1,-1.9489105E-1,-1.6943295E-1,-2.0082249E-1,-1.863412E-1,-1.710076E-1,-1.8604274E-1,-1.57794E-1,-1.717613E-1,-1.8633172E-1,-4.2784397E-2,-1.6597934E-1,-1.518161E-1,-1.6320679E-1,-1.4401874E-1,-1.399187E-1,-1.1451749E-1,-1.5617193E-1,-1.7827052E-1,-1.5618876E-1,-1.4067645E-1,-1.3992365E-1,-1.20155595E-1,-1.08440354E-1,-1.3225949E-1,-1.1184318E-1,2.8458487E-2,-6.677488E-2,-1.1996018E-1,-1.6177864E-1,1.9414471E-2,3.9767444E-1,3.6056528E-3,-8.2946576E-2,-1.4090183E-1,-1.1890451E-1,-9.2894256E-2,-4.303883E-2,-1.1943786E-1,-9.1212936E-2,-3.596697E-2,-1.2876296E-1,-7.6658174E-2,1.9989893E-2,-6.4358465E-2,-5.9480973E-2,-1.5053564E-2,1.8147138E-1,-1.27191115E-2],"categories":[],"categories_nodes":[],"categories_segments":[],"categories_sizes":[],"default_left":[0,0,0,0,0,0,0,0,0,0,0,0,0,0,0,0,0,0,0,0,0,0,0,0,0,0,0,0,0,0,0,0,0,0,0,0,0,0,0,0,0,0,0,0,0,0,0,0,0,0,0,0,0,0,0,0,0,0,0,0,0,0,0,0,0,0,0,0,0,0,0,0,0,0,0,0,0,0,0,0,0,0,0,0,0,0,0,0,0,0,0,0,0,0,0,0,0,0,0,0,0,0,0,0,0,0,0,0,0,0,0,0,0,0,0,0,0,0,0,0,0,0,0,0,0,0,0],"id":0,"left_children":[1,3,5,7,9,11,13,15,17,19,21,23,25,27,29,31,33,35,37,39,41,43,45,47,49,51,53,55,57,59,61,63,65,67,69,71,73,75,77,79,81,83,85,87,89,91,93,95,97,99,101,103,105,107,109,111,113,115,117,119,121,123,125,-1,-1,-1,-1,-1,-1,-1,-1,-1,-1,-1,-1,-1,-1,-1,-1,-1,-1,-1,-1,-1,-1,-1,-1,-1,-1,-1,-1,-1,-1,-1,-1,-1,-1,-1,-1,-1,-1,-1,-1,-1,-1,-1,-1,-1,-1,-1,-1,-1,-1,-1,-1,-1,-1,-1,-1,-1,-1,-1,-1,-1,-1,-1,-1],"loss_changes":[7.625828E3,1.4096562E3,2.0921797E3,3.0491406E2,3.3172656E2,4.8366992E2,6.3423584E2,4.0785156E1,6.3160156E1,5.9785156E1,1.5320508E2,2.8303125E2,6.4177246E1,2.0218018E2,1.0595911E2,4.4101562E0,4.419922E0,2.0128906E1,2.4396484E1,8.293457E0,2.8029297E1,4.011133E1,9.006641E1,4.690625E1,8.499512E1,5.1802856E1,1.8328362E1,5.801758E1,7.3859314E1,2.856778E1,1.0350037E2,1.7773438E-1,1.7993164E0,1.5859375E0,3.364746E0,1.2941406E1,9.8671875E0,1.5587891E1,1.0229004E1,5.827759E0,5.6875E0,5.251465E0,1.843457E1,1.4470459E1,1.8663086E1,4.5060547E1,4.3623535E1,1.2591797E1,2.2267578E1,4.615039E1,3.018457E1,2.9958557E1,3.607733E1,1.620188E1,2.4281906E1,2.5912048E1,4.6100586E1,4.0128204E1,6.010089E1,1.950122E1,1.5106354E1,7.2086365E1,5.0687305E1,0E0,0E0,0E0,0E0,0E0,0E0,0E0,0E0,0E0,0E0,0E0,0E0,0E0,0E0,0E0,0E0,0E0,0E0,0E0,0E0,0E0,0E0,0E0,0E0,0E0,0E0,0E0,0E0,0E0,0E0,0E0,0E0,0E0,0E0,0E0,0E0,0E0,0E0,0E0,0E0,0E0,0E0,0E0,0E0,0E0,0E0,0E0,0E0,0E0,0E0,0E0,0E0,0E0,0E0,0E0,0E0,0E0,0E0,0E0,0E0,0E0,0E0,0E0,0E0],"parents":[2147483647,0,0,1,1,2,2,3,3,4,4,5,5,6,6,7,7,8,8,9,9,10,10,11,11,12,12,13,13,14,14,15,15,16,16,17,17,18,18,19,19,20,20,21,21,22,22,23,23,24,24,25,25,26,26,27,27,28,28,29,29,30,30,31,31,32,32,33,33,34,34,35,35,36,36,37,37,38,38,39,39,40,40,41,41,42,42,43,43,44,44,45,45,46,46,47,47,48,48,49,49,50,50,51,51,52,52,53,53,54,54,55,55,56,56,57,57,58,58,59,59,60,60,61,61,62,62],"right_children":[2,4,6,8,10,12,14,16,18,20,22,24,26,28,30,32,34,36,38,40,42,44,46,48,50,52,54,56,58,60,62,64,66,68,70,72,74,76,78,80,82,84,86,88,90,92,94,96,98,100,102,104,106,108,110,112,114,116,118,120,122,124,126,-1,-1,-1,-1,-1,-1,-1,-1,-1,-1,-1,-1,-1,-1,-1,-1,-1,-1,-1,-1,-1,-1,-1,-1,-1,-1,-1,-1,-1,-1,-1,-1,-1,-1,-1,-1,-1,-1,-1,-1,-1,-1,-1,-1,-1,-1,-1,-1,-1,-1,-1,-1,-1,-1,-1,-1,-1,-1,-1,-1,-1,-1,-1,-1],"split_conditions":[-6.4829096E-2,-5.4579735E-1,4.1467994E-1,-8.2817435E-1,-3.4283948E-1,1.430858E0,1.1563325E0,-8.645976E-1,-6.1325604E-1,-7.048329E-1,-4.5654878E-1,-3.7223816E-1,4.1303563E0,1.7479461E0,-1.3395882E0,-9.6346956E-1,-8.837312E-1,-6.3252586E-1,8.653714E-1,-6.1678433E-1,-5.718866E-1,-1.36306E0,1.04245596E-1,-6.8884456E-1,2.3083583E-1,-2.1144298E-1,-2.0146644E0,-1.5756159E0,-1.1095742E0,-1.4176255E0,2.2752972E0,1.0576049E0,-1.2968434E-1,-6.4880216E-1,-4.18808E0,-4.1042122E-1,-7.115813E-1,-4.5654878E-1,-5.2410447E-5,-1.1660335E-4,-6.7314756E-1,-7.8457296E-1,-5.49472E-1,-5.265188E-1,-1.842747E-1,-7.259543E-1,3.4533642E-2,-9.0113354E-1,4.4597363E-1,5.8115894E-1,9.434465E-1,1.9210339E0,9.935282E-1,5.3147984E0,-1.9856943E0,-9.622533E-1,7.4706614E-2,-7.058192E-1,3.0501086E-1,6.971402E-1,-1.2842854E0,2.141914E0,-1.9845066E0,-2.2428432E-1,-9.729732E-2,-2.2164956E-1,-2.1134177E-1,-2.109473E-1,-6.6666685E-2,1.2413793E-1,-2.0254289E-1,-1.9254841E-1,-2.054942E-1,-1.9618487E-1,-1.8502432E-1,-1.8211386E-1,-1.6983108E-1,-1.7783782E-1,-1.9695865E-1,-1.9489105E-1,-1.6943295E-1,-2.0082249E-1,-1.863412E-1,-1.710076E-1,-1.8604274E-1,-1.57794E-1,-1.717613E-1,-1.8633172E-1,-4.2784397E-2,-1.6597934E-1,-1.518161E-1,-1.6320679E-1,-1.4401874E-1,-1.399187E-1,-1.1451749E-1,-1.5617193E-1,-1.7827052E-1,-1.5618876E-1,-1.4067645E-1,-1.3992365E-1,-1.20155595E-1,-1.08440354E-1,-1.3225949E-1,-1.1184318E-1,2.8458487E-2,-6.677488E-2,-1.1996018E-1,-1.6177864E-1,1.9414471E-2,3.9767444E-1,3.6056528E-3,-8.2946576E-2,-1.4090183E-1,-1.1890451E-1,-9.2894256E-2,-4.303883E-2,-1.1943786E-1,-9.1212936E-2,-3.596697E-2,-1.2876296E-1,-7.6658174E-2,1.9989893E-2,-6.4358465E-2,-5.9480973E-2,-1.5053564E-2,1.8147138E-1,-1.27191115E-2],"split_indices":[441,308,156,441,99,441,441,80,441,99,441,118,403,137,43,441,365,118,427,423,441,47,308,137,4,137,427,47,62,66,441,315,419,327,424,442,308,441,350,8,4,442,442,43,308,47,100,442,441,441,9,442,9,403,385,442,308,309,365,4,366,137,423,0,0,0,0,0,0,0,0,0,0,0,0,0,0,0,0,0,0,0,0,0,0,0,0,0,0,0,0,0,0,0,0,0,0,0,0,0,0,0,0,0,0,0,0,0,0,0,0,0,0,0,0,0,0,0,0,0,0,0,0,0,0,0,0],"split_type":[0,0,0,0,0,0,0,0,0,0,0,0,0,0,0,0,0,0,0,0,0,0,0,0,0,0,0,0,0,0,0,0,0,0,0,0,0,0,0,0,0,0,0,0,0,0,0,0,0,0,0,0,0,0,0,0,0,0,0,0,0,0,0,0,0,0,0,0,0,0,0,0,0,0,0,0,0,0,0,0,0,0,0,0,0,0,0,0,0,0,0,0,0,0,0,0,0,0,0,0,0,0,0,0,0,0,0,0,0,0,0,0,0,0,0,0,0,0,0,0,0,0,0,0,0,0,0],"sum_hessian":[6.058755E5,3.667093E5,2.391662E5,1.7171555E5,1.9499377E5,1.4491598E5,9.425022E4,5.835733E4,1.1335822E5,7.262799E4,1.2236577E5,1.2782799E5,1.7087998E4,6.190355E4,3.2346664E4,3.2679553E4,2.5677775E4,6.1207996E4,5.215022E4,1.5871999E4,5.6755996E4,4.3889332E4,7.847644E4,4.821955E4,7.960844E4,1.6111555E4,9.764444E2,4.808222E4,1.3821332E4,4.293333E3,2.8053332E4,2.4628443E4,8.051111E3,1.1038666E4,1.463911E4,3.030222E4,3.0905775E4,3.881822E4,1.3331999E4,3.589333E3,1.2282666E4,1.4426222E4,4.2329773E4,7.385333E3,3.6503996E4,5.401911E4,2.4457332E4,1.1963555E4,3.6255996E4,5.119155E4,2.8416887E4,6.6279995E3,9.483555E3,1.8755554E2,7.8888885E2,5.069333E3,4.3012887E4,3.2204443E3,1.0600889E4,2.6022222E3,1.691111E3,1.7035998E4,1.1017333E4,2.4625332E4,3.111111E0,3.3791108E3,4.6719995E3,1.1030666E4,7.9999995E0,2.222222E0,1.4636888E4,1.1727999E4,1.857422E4,1.2364888E4,1.8540889E4,2.218622E4,1.6631998E4,3.5786665E3,9.753333E3,1.4213333E3,2.1679998E3,8.48311E3,3.7995554E3,2.7702222E3,1.1655999E4,1.2117333E4,3.0212443E4,7.3208887E3,6.444444E1,2.3023555E4,1.3480443E4,1.5552888E4,3.846622E4,1.2568443E4,1.1888888E4,3.2799998E3,8.683555E3,2.2951998E4,1.3303999E4,3.602222E4,1.5169332E4,2.228222E4,6.1346665E3,6.488444E3,1.3955554E2,8.1457773E3,1.3377777E3,1.16444435E2,7.111111E1,1.3333332E1,7.755555E2,8.3688885E2,4.2324443E3,7.429333E3,3.5583555E4,8.377777E2,2.3826665E3,2.2497776E3,8.35111E3,1.3417777E3,1.2604443E3,2.191111E2,1.4719999E3,1.2586222E4,4.4497773E3,1.2133333E2,1.0895999E4],"tree_param":{"num_deleted":"0","num_feature":"456","num_nodes":"127","size_leaf_vector":"1"}},{"base_weights":[1.0015758E0,1.1877717E0,7.0658237E-1,1.3224224E0,1.0750582E0,8.687953E-1,4.8041227E-1,1.4368155E0,1.2644887E0,1.1285626E0,9.619112E-1,9.196664E-1,6.1923E-1,6.000324E-1,2.0997831E-1,1.4836962E0,1.3825243E0,1.3127348E0,1.221979E0,1.203513E0,1.074831E0,1.0793258E0,9.1740394E-1,1.0437119E0,8.398131E-1,7.686935E-1,5.125999E-1,6.860952E-1,5.0398046E-1,3.3191434E-1,6.496963E-2,1.4956305E0,1.4469743E0,1.417567E0,1.3609508E0,1.3738102E0,1.2961088E0,1.2911206E0,1.1923766E0,1.2699534E0,1.173042E0,1.1479006E0,1.0208265E0,1.1866703E0,1.0392065E0,1.0261514E0,8.6709064E-1,1.1193445E0,9.939499E-1,8.997637E-1,7.601855E-1,8.071399E-1,3.3366433E-1,5.659601E-1,2.5483233E-1,8.226862E-1,6.4995426E-1,5.971669E-1,3.997021E-1,4.5673838E-1,2.7039003E-1,1.3344744E-1,-1.1438708E-1,1.2857142E-1,4.4870213E-1,4.4587305E-1,4.2577246E-1,4.4391444E-1,4.2072442E-1,4.2303792E-1,4.0565154E-1,4.313102E-1,4.0766725E-1,3.9981505E-1,3.8156107E-1,4.090162E-1,3.8175735E-1,3.6621574E-1,3.4828776E-1,3.990077E-1,3.7503138E-1,3.795017E-1,3.4417102E-1,3.597085E-1,3.34391E-1,3.2087138E-1,2.9748723E-1,3.3453995E-1,3.7168851E-1,3.3041623E-1,3.012074E-1,3.3719578E-1,2.9678404E-1,2.6969287E-1,2.315015E-1,3.4642223E-1,3.111965E-1,3.099454E-1,2.8444666E-1,2.79741E-1,2.4776252E-1,2.8239217E-1,2.2124097E-1,2.7955842E-1,2.1819417E-1,1.9545661E-1,5.670166E-2,2.1267413E-1,1.5270635E-1,9.8688066E-2,1.4791391E-2,2.8016782E-1,2.357857E-1,2.3778455E-1,1.8140373E-1,2.4909662E-1,1.7004424E-1,1.4103246E-1,9.586658E-2,2.3546363E-1,1.2932058E-1,9.66929E-2,4.5863852E-2,2.092683E-1,3.6462713E-2,-5.330188E-3,-6.267906E-2],"categories":[],"categories_nodes":[],"categories_segments":[],"categories_sizes":[],"default_left":[0,0,0,0,0,0,0,0,0,0,0,0,0,0,0,0,0,0,0,0,0,0,0,0,0,0,0,0,0,0,0,0,0,0,0,0,0,0,0,0,0,0,0,0,0,0,0,0,0,0,0,0,0,0,0,0,0,0,0,0,0,0,0,0,0,0,0,0,0,0,0,0,0,0,0,0,0,0,0,0,0,0,0,0,0,0,0,0,0,0,0,0,0,0,0,0,0,0,0,0,0,0,0,0,0,0,0,0,0,0,0,0,0,0,0,0,0,0,0,0,0,0,0,0,0,0,0],"id":1,"left_children":[1,3,5,7,9,11,13,15,17,19,21,23,25,27,29,31,33,35,37,39,41,43,45,47,49,51,53,55,57,59,61,63,65,67,69,71,73,75,77,79,81,83,85,87,89,91,93,95,97,99,101,103,105,107,109,111,113,115,117,119,121,123,125,-1,-1,-1,-1,-1,-1,-1,-1,-1,-1,-1,-1,-1,-1,-1,-1,-1,-1,-1,-1,-1,-1,-1,-1,-1,-1,-1,-1,-1,-1,-1,-1,-1,-1,-1,-1,-1,-1,-1,-1,-1,-1,-1,-1,-1,-1,-1,-1,-1,-1,-1,-1,-1,-1,-1,-1,-1,-1,-1,-1,-1,-1,-1,-1],"loss_changes":[3.327775E4,5.6358438E3,8.600867E3,1.1197812E3,1.2229375E3,1.7327109E3,3.1675664E3,1.4273438E2,2.2882812E2,5.5153125E2,3.3828125E2,1.1224609E3,3.6807812E2,5.608711E2,5.309918E2,1.121875E1,1.8015625E1,5.1648438E1,1.2074219E2,1.1453906E2,3.1435938E2,7.55918E1,2.5672266E2,1.6602734E2,3.286914E2,1.607041E2,1.8549487E2,1.762168E2,3.1156348E2,1.2515906E2,1.6851413E2,4.1796875E-1,6.0751953E0,7.3671875E0,5.1503906E0,8.761719E0,3.5015625E1,2.231836E1,3.5839844E1,1.9808594E1,9.182031E1,5.6445312E1,6.439844E1,1.6747559E1,2.7319336E1,5.259375E1,9.726367E1,4.9947266E1,4.7121094E1,9.433789E1,1.2126172E2,8.735693E1,3.589012E1,9.064819E1,3.5277283E1,2.9854004E1,1.8242578E2,1.1943213E2,8.531299E1,4.5017334E1,6.663513E1,6.659645E1,3.4628098E1,0E0,0E0,0E0,0E0,0E0,0E0,0E0,0E0,0E0,0E0,0E0,0E0,0E0,0E0,0E0,0E0,0E0,0E0,0E0,0E0,0E0,0E0,0E0,0E0,0E0,0E0,0E0,0E0,0E0,0E0,0E0,0E0,0E0,0E0,0E0,0E0,0E0,0E0,0E0,0E0,0E0,0E0,0E0,0E0,0E0,0E0,0E0,0E0,0E0,0E0,0E0,0E0,0E0,0E0,0E0,0E0,0E0,0E0,0E0,0E0,0E0,0E0,0E0,0E0],"parents":[2147483647,0,0,1,1,2,2,3,3,4,4,5,5,6,6,7,7,8,8,9,9,10,10,11,11,12,12,13,13,14,14,15,15,16,16,17,17,18,18,19,19,20,20,21,21,22,22,23,23,24,24,25,25,26,26,27,27,28,28,29,29,30,30,31,31,32,32,33,33,34,34,35,35,36,36,37,37,38,38,39,39,40,40,41,41,42,42,43,43,44,44,45,45,46,46,47,47,48,48,49,49,50,50,51,51,52,52,53,53,54,54,55,55,56,56,57,57,58,58,59,59,60,60,61,61,62,62],"right_children":[2,4,6,8,10,12,14,16,18,20,22,24,26,28,30,32,34,36,38,40,42,44,46,48,50,52,54,56,58,60,62,64,66,68,70,72,74,76,78,80,82,84,86,88,90,92,94,96,98,100,102,104,106,108,110,112,114,116,118,120,122,124,126,-1,-1,-1,-1,-1,-1,-1,-1,-1,-1,-1,-1,-1,-1,-1,-1,-1,-1,-1,-1,-1,-1,-1,-1,-1,-1,-1,-1,-1,-1,-1,-1,-1,-1,-1,-1,-1,-1,-1,-1,-1,-1,-1,-1,-1,-1,-1,-1,-1,-1,-1,-1,-1,-1,-1,-1,-1,-1,-1,-1,-1,-1,-1,-1],"split_conditions":[-4.8818607E-2,-5.4036736E-1,4.001607E-1,-8.2817435E-1,-1.5210498E-2,1.1187267E0,1.3296914E0,-8.912663E-1,-6.288095E-1,-3.779812E-1,-4.5654878E-1,-3.4882477E-1,-2.1835198E-1,5.101165E-1,2.2752972E0,-9.7968674E-1,-9.1341233E-1,-7.9225194E-1,-7.103702E-1,-5.978674E-1,-4.5654878E-1,-6.592611E-1,-1.7008135E-1,-6.0195035E-1,1.542113E-1,3.1163583E0,2.602024E0,-1.0390961E-1,1.1538311E0,4.145824E-1,4.1311975E0,-1.1069928E0,-1.2969884E-1,-1.2968333E-1,-1.5616812E-1,-9.470844E-1,-7.511967E-1,-8.8175863E-1,-4.4549838E-1,-7.49761E-1,-7.048329E-1,-6.288095E-1,-3.252747E-1,-7.046589E-5,-2.3150232E-1,-6.1187387E-1,5.2675194E-1,4.4597363E-1,-3.4275645E-1,4.934518E-1,-3.7265053E-1,-4.446331E-1,-1.8322697E0,-1.2656122E-1,4.1311975E0,-5.346386E-1,1.4444062E-1,-1.6516944E0,1.7504296E0,-3.605778E-1,2.2736132E0,-2.6536188E0,5.3010297E0,1.2857142E-1,4.4870213E-1,4.4587305E-1,4.2577246E-1,4.4391444E-1,4.2072442E-1,4.2303792E-1,4.0565154E-1,4.313102E-1,4.0766725E-1,3.9981505E-1,3.8156107E-1,4.090162E-1,3.8175735E-1,3.6621574E-1,3.4828776E-1,3.990077E-1,3.7503138E-1,3.795017E-1,3.4417102E-1,3.597085E-1,3.34391E-1,3.2087138E-1,2.9748723E-1,3.3453995E-1,3.7168851E-1,3.3041623E-1,3.012074E-1,3.3719578E-1,2.9678404E-1,2.6969287E-1,2.315015E-1,3.4642223E-1,3.111965E-1,3.099454E-1,2.8444666E-1,2.79741E-1,2.4776252E-1,2.8239217E-1,2.2124097E-1,2.7955842E-1,2.1819417E-1,1.9545661E-1,5.670166E-2,2.1267413E-1,1.5270635E-1,9.8688066E-2,1.4791391E-2,2.8016782E-1,2.357857E-1,2.3778455E-1,1.8140373E-1,2.4909662E-1,1.7004424E-1,1.4103246E-1,9.586658E-2,2.3546363E-1,1.2932058E-1,9.66929E-2,4.5863852E-2,2.092683E-1,3.6462713E-2,-5.330188E-3,-6.267906E-2],"split_indices":[441,270,194,441,270,441,441,80,441,4,441,156,175,441,441,441,441,4,99,441,441,441,61,156,4,441,441,4,156,4,441,367,438,286,205,80,308,42,441,4,99,441,232,407,42,4,308,441,4,441,251,4,370,4,441,4,327,161,251,118,289,180,441,0,0,0,0,0,0,0,0,0,0,0,0,0,0,0,0,0,0,0,0,0,0,0,0,0,0,0,0,0,0,0,0,0,0,0,0,0,0,0,0,0,0,0,0,0,0,0,0,0,0,0,0,0,0,0,0,0,0,0,0,0,0,0,0],"split_type":[0,0,0,0,0,0,0,0,0,0,0,0,0,0,0,0,0,0,0,0,0,0,0,0,0,0,0,0,0,0,0,0,0,0,0,0,0,0,0,0,0,0,0,0,0,0,0,0,0,0,0,0,0,0,0,0,0,0,0,0,0,0,0,0,0,0,0,0,0,0,0,0,0,0,0,0,0,0,0,0,0,0,0,0,0,0,0,0,0,0,0,0,0,0,0,0,0,0,0,0,0,0,0,0,0,0,0,0,0,0,0,0,0,0,0,0,0,0,0,0,0,0,0,0,0,0,0],"sum_hessian":[6.058755E5,3.7143066E5,2.3444488E5,1.6924044E5,2.021902E5,1.3652444E5,9.792044E4,5.6887996E4,1.1235244E5,1.3726977E5,6.492044E4,1.1340533E5,2.311911E4,6.788977E4,3.0030664E4,3.0513332E4,2.6374666E4,5.261155E4,5.9740887E4,5.730844E4,7.996133E4,1.783822E4,4.708222E4,4.440844E4,6.899688E4,9.623555E3,1.3495555E4,3.5803555E4,3.208622E4,1.6312443E4,1.3718222E4,2.299911E4,7.5142217E3,1.0025333E4,1.6349332E4,1.1239999E4,4.1371555E4,1.7896889E4,4.1843996E4,1.800622E4,3.930222E4,3.3973777E4,4.5987555E4,4.845333E3,1.2992888E4,1.4886666E4,3.2195553E4,1.7614666E4,2.6793775E4,3.9355996E4,2.9640887E4,8.841333E3,7.8222217E2,1.1179999E4,2.3155554E3,7.486666E3,2.8316887E4,1.6941777E4,1.5144443E4,5.383555E3,1.0928889E4,9.927999E3,3.790222E3,1.3333333E0,2.2997777E4,3.0884443E3,4.4257773E3,1.946222E3,8.079111E3,2.4524443E3,1.3896888E4,2.1097776E3,9.130222E3,1.645911E4,2.4912443E4,3.6479998E3,1.4248888E4,2.1978666E4,1.9865332E4,4.455555E3,1.3550666E4,8.601333E3,3.0700887E4,1.3377333E4,2.0596443E4,1.7215555E4,2.8771998E4,2.0555554E3,2.7897776E3,4.6839995E3,8.308889E3,4.0666665E3,1.0819999E4,2.4125332E4,8.0702217E3,1.2295555E4,5.319111E3,1.4424443E4,1.2369333E4,2.7272443E4,1.2083555E4,3.2986665E3,2.634222E4,3.446222E3,5.395111E3,2.4355554E2,5.386666E2,3.1813333E3,7.998666E3,1.7013333E3,6.1422217E2,1.8528888E3,5.6337773E3,6.8177773E3,2.149911E4,1.9484443E3,1.4993332E4,8.059555E3,7.0848887E3,3.8844443E2,4.995111E3,7.578666E3,3.350222E3,2.0399998E2,9.723999E3,1.875111E3,1.915111E3],"tree_param":{"num_deleted":"0","num_feature":"456","num_nodes":"127","size_leaf_vector":"1"}},{"base_weights":[-5.000387E-1,-5.849878E-1,-3.2309452E-1,-6.5565354E-1,-5.2412516E-1,-4.1670173E-1,-2.1692178E-1,-7.0224077E-1,-6.187246E-1,-5.7565016E-1,-4.7164133E-1,-4.8510394E-1,-3.592012E-1,-2.6650676E-1,-2.2806428E-2,-7.4137807E-1,-6.7916286E-1,-6.483213E-1,-5.974204E-1,-6.22992E-1,-5.5207413E-1,-5.0773025E-1,-4.3823498E-1,-5.042819E-1,-3.812242E-1,-3.9659223E-1,-2.4038868E-1,-3.1388232E-1,-2.0240235E-1,1.9337957E-1,-6.496373E-2,-7.4796623E-1,-7.225199E-1,-7.0090014E-1,-6.6617525E-1,-6.7557824E-1,-6.3664323E-1,-6.2329024E-1,-5.690336E-1,-6.273506E-1,-5.187954E-1,-5.753353E-1,-5.2664584E-1,-5.2520156E-1,-4.689287E-1,-4.5364472E-1,-3.7048456E-1,-5.6398416E-1,-4.7529447E-1,-4.0241677E-1,-1.761337E-1,-4.3821353E-1,-3.6864233E-1,-2.600558E-1,4.66301E-2,-3.9065954E-1,-2.9180422E-1,-1.0204185E-1,-2.3112476E-1,9.925641E-2,6.386169E-1,-1.1253609E-1,9.802749E-2,-2.2444172E-1,-1.3655175E-1,-2.2266611E-1,-2.1260126E-1,-2.1947418E-1,-2.0722929E-1,-2.0097288E-1,-1.7821239E-1,-2.027611E-1,2.8800002E-1,-1.9513418E-1,-1.8372245E-1,-1.9465356E-1,-1.8277845E-1,-1.7306763E-1,-1.5205717E-1,-1.9468755E-1,-1.8170291E-1,-1.7049593E-1,-1.3027507E-1,-1.8672721E-1,-1.7048398E-1,-1.6024433E-1,-1.2553492E-1,-1.6366637E-1,-1.5068555E-1,-1.5643075E-1,-1.312976E-1,-1.4312297E-1,-1.2588207E-1,-8.574891E-2,-1.1897952E-1,-1.8030843E-1,-1.5814844E-1,-1.5255596E-1,-1.2997803E-1,-1.446741E-1,-1.0481127E-1,2.060241E-1,-6.3424334E-2,-1.2063978E-1,-1.4142844E-1,-1.5262938E-1,-1.0785223E-1,-1.1207307E-1,-6.972267E-2,9.4541706E-2,-3.3488385E-2,-1.402586E-1,-1.10044055E-1,-6.7279465E-2,-9.766141E-2,-5.31586E-2,3.2821572E-3,-1.0585384E-1,-6.273271E-2,6.1608206E-2,-8.845008E-3,2.608316E-1,1.21621616E-1,-1.0144109E-1,-2.9943451E-2,8.1992194E-2,-1.2291365E-2],"categories":[],"categories_nodes":[],"categories_segments":[],"categories_sizes":[],"default_left":[0,0,0,0,0,0,0,0,0,0,0,0,0,0,0,0,0,0,0,0,0,0,0,0,0,0,0,0,0,0,0,0,0,0,0,0,0,0,0,0,0,0,0,0,0,0,0,0,0,0,0,0,0,0,0,0,0,0,0,0,0,0,0,0,0,0,0,0,0,0,0,0,0,0,0,0,0,0,0,0,0,0,0,0,0,0,0,0,0,0,0,0,0,0,0,0,0,0,0,0,0,0,0,0,0,0,0,0,0,0,0,0,0,0,0,0,0,0,0,0,0,0,0,0,0,0,0],"id":2,"left_children":[1,3,5,7,9,11,13,15,17,19,21,23,25,27,29,31,33,35,37,39,41,43,45,47,49,51,53,55,57,59,61,63,65,67,69,71,73,75,77,79,81,83,85,87,89,91,93,95,97,99,101,103,105,107,109,111,113,115,117,119,121,123,125,-1,-1,-1,-1,-1,-1,-1,-1,-1,-1,-1,-1,-1,-1,-1,-1,-1,-1,-1,-1,-1,-1,-1,-1,-1,-1,-1,-1,-1,-1,-1,-1,-1,-1,-1,-1,-1,-1,-1,-1,-1,-1,-1,-1,-1,-1,-1,-1,-1,-1,-1,-1,-1,-1,-1,-1,-1,-1,-1,-1,-1,-1,-1,-1],"loss_changes":[9.106875E3,1.76025E3,1.9531074E3,3.254453E2,5.944844E2,4.106172E2,8.8633594E2,7.513672E1,6.623828E1,1.23515625E2,1.3113672E2,9.48291E1,2.5200488E2,2.226958E2,1.7078221E2,3.3183594E0,1.4412109E1,1.3644531E1,4.4773438E1,1.6426758E1,4.3523438E1,3.525586E1,5.8914062E1,6.94082E1,3.2255127E1,5.0049316E1,7.6704834E1,7.137891E1,8.983801E1,1.2808401E2,1.2159612E2,8.2128906E-1,1.6757812E0,5.6171875E0,8.4921875E0,6.976074E0,9.961914E0,1.1128906E1,1.403125E1,1.6185547E1,5.978424E0,1.249707E1,2.8516602E1,1.6566406E1,2.6483643E1,3.6566406E1,2.3080078E1,1.7625E1,3.763867E1,2.8373657E1,2.14046E1,2.058496E1,3.287744E1,3.9820007E1,3.7094395E1,1.7089233E1,7.456738E1,5.8915466E1,6.4875E1,3.450322E1,2.8362991E1,3.481151E1,8.633708E1,0E0,0E0,0E0,0E0,0E0,0E0,0E0,0E0,0E0,0E0,0E0,0E0,0E0,0E0,0E0,0E0,0E0,0E0,0E0,0E0,0E0,0E0,0E0,0E0,0E0,0E0,0E0,0E0,0E0,0E0,0E0,0E0,0E0,0E0,0E0,0E0,0E0,0E0,0E0,0E0,0E0,0E0,0E0,0E0,0E0,0E0,0E0,0E0,0E0,0E0,0E0,0E0,0E0,0E0,0E0,0E0,0E0,0E0,0E0,0E0,0E0,0E0,0E0,0E0],"parents":[2147483647,0,0,1,1,2,2,3,3,4,4,5,5,6,6,7,7,8,8,9,9,10,10,11,11,12,12,13,13,14,14,15,15,16,16,17,17,18,18,19,19,20,20,21,21,22,22,23,23,24,24,25,25,26,26,27,27,28,28,29,29,30,30,31,31,32,32,33,33,34,34,35,35,36,36,37,37,38,38,39,39,40,40,41,41,42,42,43,43,44,44,45,45,46,46,47,47,48,48,49,49,50,50,51,51,52,52,53,53,54,54,55,55,56,56,57,57,58,58,59,59,60,60,61,61,62,62],"right_children":[2,4,6,8,10,12,14,16,18,20,22,24,26,28,30,32,34,36,38,40,42,44,46,48,50,52,54,56,58,60,62,64,66,68,70,72,74,76,78,80,82,84,86,88,90,92,94,96,98,100,102,104,106,108,110,112,114,116,118,120,122,124,126,-1,-1,-1,-1,-1,-1,-1,-1,-1,-1,-1,-1,-1,-1,-1,-1,-1,-1,-1,-1,-1,-1,-1,-1,-1,-1,-1,-1,-1,-1,-1,-1,-1,-1,-1,-1,-1,-1,-1,-1,-1,-1,-1,-1,-1,-1,-1,-1,-1,-1,-1,-1,-1,-1,-1,-1,-1,-1,-1,-1,-1,-1,-1,-1],"split_conditions":[9.434512E-2,-5.3061265E-1,4.1500628E-1,-6.9985336E-1,-2.2497159E-1,-2.3155355E-1,1.9282254E0,-9.220636E-1,-7.0087284E-1,-6.2751013E-1,-2.4505721E-1,1.2381377E0,1.0823987E0,7.899609E-1,-9.7496873E-1,-9.9551153E-1,-8.3534056E-1,-8.2817435E-1,-3.3112514E-1,1.8050848E0,-2.7701032E-1,8.4635176E-2,5.266187E-1,-1.1548612E0,3.1163583E0,-2.3914086E-2,3.5186155E0,-6.672172E-3,-7.8457296E-1,3.5172098E0,4.13379E0,1.4332472E0,-1.2969546E-1,-1.296353E-1,1.6758986E0,2.4221394E0,-2.7658457E-1,-2.8178763E-1,4.299708E-1,-7.268926E-1,-1.9823612E-1,-8.632466E-1,1.6758986E0,1.13604374E-1,-2.6385143E-1,3.3042455E-1,-5.263744E-1,-4.9867693E-1,4.4597363E-1,-1.4173396E0,-2.383575E0,-1.753803E-1,-3.8980174E-1,-2.3164777E-1,-9.374054E-1,-1.7804788E0,-2.9142526E-1,-8.188352E-1,6.494822E-2,-5.049749E-5,-1.3365034E0,-3.0687764E-1,-8.483626E-1,-2.2444172E-1,-1.3655175E-1,-2.2266611E-1,-2.1260126E-1,-2.1947418E-1,-2.0722929E-1,-2.0097288E-1,-1.7821239E-1,-2.027611E-1,2.8800002E-1,-1.9513418E-1,-1.8372245E-1,-1.9465356E-1,-1.8277845E-1,-1.7306763E-1,-1.5205717E-1,-1.9468755E-1,-1.8170291E-1,-1.7049593E-1,-1.3027507E-1,-1.8672721E-1,-1.7048398E-1,-1.6024433E-1,-1.2553492E-1,-1.6366637E-1,-1.5068555E-1,-1.5643075E-1,-1.312976E-1,-1.4312297E-1,-1.2588207E-1,-8.574891E-2,-1.1897952E-1,-1.8030843E-1,-1.5814844E-1,-1.5255596E-1,-1.2997803E-1,-1.446741E-1,-1.0481127E-1,2.060241E-1,-6.3424334E-2,-1.2063978E-1,-1.4142844E-1,-1.5262938E-1,-1.0785223E-1,-1.1207307E-1,-6.972267E-2,9.4541706E-2,-3.3488385E-2,-1.402586E-1,-1.10044055E-1,-6.7279465E-2,-9.766141E-2,-5.31586E-2,3.2821572E-3,-1.0585384E-1,-6.273271E-2,6.1608206E-2,-8.845008E-3,2.608316E-1,1.21621616E-1,-1.0144109E-1,-2.9943451E-2,8.1992194E-2,-1.2291365E-2],"split_indices":[422,441,213,213,175,175,441,42,441,137,441,441,441,441,442,61,441,441,175,442,441,308,289,389,441,4,441,61,442,365,289,163,438,1,442,194,118,446,251,80,441,237,442,4,4,4,446,194,441,351,214,62,270,4,423,161,446,385,118,141,218,99,180,0,0,0,0,0,0,0,0,0,0,0,0,0,0,0,0,0,0,0,0,0,0,0,0,0,0,0,0,0,0,0,0,0,0,0,0,0,0,0,0,0,0,0,0,0,0,0,0,0,0,0,0,0,0,0,0,0,0,0,0,0,0,0,0],"split_type":[0,0,0,0,0,0,0,0,0,0,0,0,0,0,0,0,0,0,0,0,0,0,0,0,0,0,0,0,0,0,0,0,0,0,0,0,0,0,0,0,0,0,0,0,0,0,0,0,0,0,0,0,0,0,0,0,0,0,0,0,0,0,0,0,0,0,0,0,0,0,0,0,0,0,0,0,0,0,0,0,0,0,0,0,0,0,0,0,0,0,0,0,0,0,0,0,0,0,0,0,0,0,0,0,0,0,0,0,0,0,0,0,0,0,0,0,0,0,0,0,0,0,0,0,0,0,0],"sum_hessian":[6.058755E5,4.0934888E5,1.9652666E5,1.894151E5,2.1993377E5,1.0444222E5,9.208444E4,8.374711E4,1.0566799E5,1.1097555E5,1.0895822E5,4.7695996E4,5.674622E4,7.334799E4,1.8736443E4,3.1053332E4,5.2693773E4,4.421422E4,6.1453773E4,3.688444E4,7.409111E4,5.2369332E4,5.6588887E4,4.0259555E4,7.436444E3,4.3160887E4,1.3585333E4,4.217511E4,3.1172887E4,3.0568887E3,1.5679555E4,2.2984887E4,8.068444E3,1.9688443E4,3.3005332E4,1.3244443E4,3.0969775E4,3.2141332E4,2.9312443E4,3.5398664E4,1.4857777E3,3.868311E4,3.5407996E4,3.6101332E4,1.6267999E4,4.609822E4,1.0490666E4,1.3152443E4,2.710711E4,6.739111E3,6.973333E2,1.7333777E4,2.582711E4,1.2714222E4,8.711111E2,9.415555E3,3.2759553E4,6.937333E3,2.4235555E4,2.5244443E3,5.324444E2,1.2137333E4,3.542222E3,2.2969777E4,1.5111111E1,3.3088887E3,4.759555E3,4.871555E3,1.4816888E4,3.1372887E4,1.6324443E3,1.3242666E4,1.7777777E0,1.9714666E4,1.125511E4,1.137511E4,2.076622E4,2.6015998E4,3.2964443E3,1.7711998E4,1.7686666E4,9.3333325E2,5.524444E2,5.029333E3,3.3653777E4,3.310844E4,2.2995554E3,1.9107998E4,1.6993332E4,6.0662217E3,1.0201777E4,2.729511E4,1.880311E4,2.4759998E3,8.014666E3,6.5488887E3,6.603555E3,1.5133777E4,1.1973333E4,2.6871108E3,4.0519998E3,2.6666664E1,6.706666E2,8.314666E3,9.01911E3,1.5773333E3,2.4249775E4,2.4875554E3,1.0226666E4,3.2266666E2,5.484444E2,2.2248887E3,7.190666E3,1.0914666E4,2.1844887E4,4.1657773E3,2.7715554E3,3.7097776E3,2.0525777E4,1.3835554E3,1.1408888E3,2.662222E2,2.662222E2,6.466666E2,1.1490666E4,1.5662222E3,1.9759999E3],"tree_param":{"num_deleted":"0","num_feature":"456","num_nodes":"127","size_leaf_vector":"1"}},{"base_weights":[-4.2103025E-1,-5.069577E-1,-2.9621926E-1,-5.719907E-1,-4.499031E-1,-3.6885437E-1,-2.0271088E-1,-6.328255E-1,-5.4149395E-1,-5.0714797E-1,-4.1994599E-1,-3.8733494E-1,-2.2568586E-1,-2.6445735E-1,-1.2213165E-1,-6.585836E-1,-6.014524E-1,-5.6375074E-1,-5.169693E-1,-5.540833E-1,-4.9150923E-1,-4.5660937E-1,-3.9383316E-1,-4.4927123E-1,-3.5993972E-1,-2.3792522E-1,1.1602976E-1,-2.9004303E-1,-1.8272047E-1,-1.5074818E-1,-3.620645E-2,-6.661049E-1,-6.357189E-1,-6.187236E-1,-5.889804E-1,-5.843979E-1,-5.451214E-1,-5.0508606E-1,-5.5888134E-1,-5.127105E-1,-5.7181484E-1,-4.5476836E-1,-5.060026E-1,-5.286506E-1,-4.4464755E-1,-4.187767E-1,-3.4918177E-1,-4.322134E-1,-5.074469E-1,-4.356887E-1,-3.4837648E-1,-3.2827336E-1,-1.976465E-1,3.8982493E-1,-1.6976472E-2,-3.810027E-1,-2.7613804E-1,-2.0693108E-1,-1.9900433E-3,-1.7874302E-1,-6.143323E-2,-2.105073E-1,4.2290404E-3,-1.9984473E-1,-7.464856E-2,-2.996067E-2,-1.9087881E-1,-1.8570372E-1,8.685458E-3,-1.383922E-1,-1.7749175E-1,-1.6655649E-1,-1.8084356E-1,-1.7086136E-1,-1.5926509E-1,-1.5597633E-1,-1.4372966E-1,-1.531896E-1,-1.7442033E-1,-1.6998328E-1,-1.4426953E-1,-1.7589372E-1,-1.618574E-1,-1.2005397E-1,-1.4394957E-1,-1.6383754E-1,-1.4921668E-1,-1.6021171E-1,3.7872102E-3,-1.4753595E-1,-1.3007963E-1,-1.4614439E-1,-1.2178392E-1,-1.22425236E-1,-9.262475E-2,-1.3830873E-1,-1.1946866E-1,-1.6176786E-1,-1.3585985E-1,-1.211239E-1,-1.4952113E-1,-1.0992012E-1,-9.2429675E-2,-5.62392E-2,-1.0651953E-1,-6.6113636E-2,-1.5764637E-2,2.0576519E-1,-7.888195E-3,1.4040796E-1,-2.6956199E-2,-7.0284076E-2,-1.2302835E-1,-7.8014106E-2,-1.07883066E-1,-8.816256E-2,-4.901543E-2,-4.0253565E-2,6.856607E-2,-6.4900786E-2,-4.0889703E-2,-7.1957536E-2,-4.1799936E-3,-1.6793028E-3,-9.4910435E-2,-3.0496554E-2,3.3367436E-2],"categories":[],"categories_nodes":[],"categories_segments":[],"categories_sizes":[],"default_left":[0,0,0,0,0,0,0,0,0,0,0,0,0,0,0,0,0,0,0,0,0,0,0,0,0,0,0,0,0,0,0,0,0,0,0,0,0,0,0,0,0,0,0,0,0,0,0,0,0,0,0,0,0,0,0,0,0,0,0,0,0,0,0,0,0,0,0,0,0,0,0,0,0,0,0,0,0,0,0,0,0,0,0,0,0,0,0,0,0,0,0,0,0,0,0,0,0,0,0,0,0,0,0,0,0,0,0,0,0,0,0,0,0,0,0,0,0,0,0,0,0,0,0,0,0,0,0],"id":3,"left_children":[1,3,5,7,9,11,13,15,17,19,21,23,25,27,29,31,33,35,37,39,41,43,45,47,49,51,53,55,57,59,61,63,65,67,69,71,73,75,77,79,81,83,85,87,89,91,93,95,97,99,101,103,105,107,109,111,113,115,117,119,121,123,125,-1,-1,-1,-1,-1,-1,-1,-1,-1,-1,-1,-1,-1,-1,-1,-1,-1,-1,-1,-1,-1,-1,-1,-1,-1,-1,-1,-1,-1,-1,-1,-1,-1,-1,-1,-1,-1,-1,-1,-1,-1,-1,-1,-1,-1,-1,-1,-1,-1,-1,-1,-1,-1,-1,-1,-1,-1,-1,-1,-1,-1,-1,-1,-1],"loss_changes":[5.8846875E3,1.2055547E3,1.5195625E3,2.8141016E2,2.9666016E2,3.3308594E2,4.8665552E2,4.058008E1,5.4929688E1,4.3375977E1,1.08625E2,1.8907031E2,6.0247864E1,1.1576196E2,1.0434656E2,4.3632812E0,4.5615234E0,2.0076172E1,2.3694336E1,1.0604004E1,2.3526367E1,4.049707E1,7.3788086E1,3.371631E1,6.7581055E1,5.052234E1,1.8162336E1,5.3237793E1,5.778E1,7.958984E1,7.473735E1,2.1972656E-1,1.9501953E0,1.8085938E0,4.242676E0,1.318457E1,9.392578E0,1.4214844E1,1.1248047E1,7.385376E0,4.547119E0,1.708789E1,1.0782227E1,1.9622559E1,2.090332E1,3.7157715E1,5.6550537E1,2.5719238E1,1.3194824E1,2.0306396E1,4.859424E1,1.6098145E1,3.1709686E1,2.01049E1,1.1936264E1,2.3763428E1,4.9047607E1,4.4041656E1,4.760229E1,3.864453E1,6.43981E1,4.331234E1,9.75353E1,0E0,0E0,0E0,0E0,0E0,0E0,0E0,0E0,0E0,0E0,0E0,0E0,0E0,0E0,0E0,0E0,0E0,0E0,0E0,0E0,0E0,0E0,0E0,0E0,0E0,0E0,0E0,0E0,0E0,0E0,0E0,0E0,0E0,0E0,0E0,0E0,0E0,0E0,0E0,0E0,0E0,0E0,0E0,0E0,0E0,0E0,0E0,0E0,0E0,0E0,0E0,0E0,0E0,0E0,0E0,0E0,0E0,0E0,0E0,0E0,0E0,0E0,0E0,0E0],"parents":[2147483647,0,0,1,1,2,2,3,3,4,4,5,5,6,6,7,7,8,8,9,9,10,10,11,11,12,12,13,13,14,14,15,15,16,16,17,17,18,18,19,19,20,20,21,21,22,22,23,23,24,24,25,25,26,26,27,27,28,28,29,29,30,30,31,31,32,32,33,33,34,34,35,35,36,36,37,37,38,38,39,39,40,40,41,41,42,42,43,43,44,44,45,45,46,46,47,47,48,48,49,49,50,50,51,51,52,52,53,53,54,54,55,55,56,56,57,57,58,58,59,59,60,60,61,61,62,62],"right_children":[2,4,6,8,10,12,14,16,18,20,22,24,26,28,30,32,34,36,38,40,42,44,46,48,50,52,54,56,58,60,62,64,66,68,70,72,74,76,78,80,82,84,86,88,90,92,94,96,98,100,102,104,106,108,110,112,114,116,118,120,122,124,126,-1,-1,-1,-1,-1,-1,-1,-1,-1,-1,-1,-1,-1,-1,-1,-1,-1,-1,-1,-1,-1,-1,-1,-1,-1,-1,-1,-1,-1,-1,-1,-1,-1,-1,-1,-1,-1,-1,-1,-1,-1,-1,-1,-1,-1,-1,-1,-1,-1,-1,-1,-1,-1,-1,-1,-1,-1,-1,-1,-1,-1,-1,-1,-1],"split_conditions":[-6.4829096E-2,-5.458796E-1,3.0409724E-1,-8.2817435E-1,-3.7223816E-1,1.4866767E0,8.6603826E-1,-8.645976E-1,-6.288095E-1,-7.048329E-1,-4.1242337E-1,-4.3915278E-1,5.3147984E0,1.5393639E0,2.2701309E0,-9.6346956E-1,-8.837312E-1,-6.3252586E-1,9.592585E-1,-4.8131308E-1,-5.49472E-1,-1.4470536E0,3.4439713E-1,1.456691E0,-9.552874E-1,-1.3896337E0,-1.3399134E0,-1.417579E0,3.512857E0,2.4269557E0,-1.6125605E0,1.0576049E0,-2.056668E0,2.3778758E0,-1.2867384E0,-4.1042122E-1,-7.115813E-1,-4.5654878E-1,-5.2100466E-5,-1.20369994E-4,-6.7314756E-1,-2.794035E-3,-7.1337265E-1,-5.9406257E-1,-6.694569E-1,-1.0051236E0,-6.499394E-1,-5.816652E-5,5.627874E-1,-2.8652619E-3,1.2351085E-1,-1.6057111E0,3.1163583E0,-1.1312157E-4,-4.449611E-1,-9.622533E-1,1.4289867E0,-9.3928266E-1,3.402298E-4,-4.85845E-5,-1.3895422E0,-1.175456E0,1.4311503E-1,-1.9984473E-1,-7.464856E-2,-2.996067E-2,-1.9087881E-1,-1.8570372E-1,8.685458E-3,-1.383922E-1,-1.7749175E-1,-1.6655649E-1,-1.8084356E-1,-1.7086136E-1,-1.5926509E-1,-1.5597633E-1,-1.4372966E-1,-1.531896E-1,-1.7442033E-1,-1.6998328E-1,-1.4426953E-1,-1.7589372E-1,-1.618574E-1,-1.2005397E-1,-1.4394957E-1,-1.6383754E-1,-1.4921668E-1,-1.6021171E-1,3.7872102E-3,-1.4753595E-1,-1.3007963E-1,-1.4614439E-1,-1.2178392E-1,-1.22425236E-1,-9.262475E-2,-1.3830873E-1,-1.1946866E-1,-1.6176786E-1,-1.3585985E-1,-1.211239E-1,-1.4952113E-1,-1.0992012E-1,-9.2429675E-2,-5.62392E-2,-1.0651953E-1,-6.6113636E-2,-1.5764637E-2,2.0576519E-1,-7.888195E-3,1.4040796E-1,-2.6956199E-2,-7.0284076E-2,-1.2302835E-1,-7.8014106E-2,-1.07883066E-1,-8.816256E-2,-4.901543E-2,-4.0253565E-2,6.856607E-2,-6.4900786E-2,-4.0889703E-2,-7.1957536E-2,-4.1799936E-3,-1.6793028E-3,-9.4910435E-2,-3.0496554E-2,3.3367436E-2],"split_indices":[441,327,118,441,118,441,441,80,441,99,441,156,403,137,61,441,365,118,427,442,442,66,156,408,47,446,252,47,4,441,47,315,215,172,275,442,308,441,350,8,4,7,28,62,441,66,62,122,441,444,4,423,441,8,213,442,9,66,179,141,218,275,446,0,0,0,0,0,0,0,0,0,0,0,0,0,0,0,0,0,0,0,0,0,0,0,0,0,0,0,0,0,0,0,0,0,0,0,0,0,0,0,0,0,0,0,0,0,0,0,0,0,0,0,0,0,0,0,0,0,0,0,0,0,0,0,0],"split_type":[0,0,0,0,0,0,0,0,0,0,0,0,0,0,0,0,0,0,0,0,0,0,0,0,0,0,0,0,0,0,0,0,0,0,0,0,0,0,0,0,0,0,0,0,0,0,0,0,0,0,0,0,0,0,0,0,0,0,0,0,0,0,0,0,0,0,0,0,0,0,0,0,0,0,0,0,0,0,0,0,0,0,0,0,0,0,0,0,0,0,0,0,0,0,0,0,0,0,0,0,0,0,0,0,0,0,0,0,0,0,0,0,0,0,0,0,0,0,0,0,0,0,0,0,0,0,0],"sum_hessian":[5.4871744E5,3.249791E5,2.2373831E5,1.5186666E5,1.7311245E5,1.2592208E5,9.7816234E4,5.0703625E4,1.0116303E5,5.946503E4,1.13647414E5,1.1152451E5,1.4397569E4,5.5378414E4,4.2437816E4,2.7832467E4,2.2871156E4,5.3021984E4,4.8141043E4,1.4853141E4,4.461189E4,4.7266703E4,6.638071E4,3.419639E4,7.732812E4,1.3900012E4,4.97558E2,4.217427E4,1.3204145E4,3.18348E4,1.0603015E4,2.0922043E4,6.9104224E3,9.57007E3,1.3301087E4,2.513462E4,2.7887367E4,3.7516953E4,1.0624093E4,4.4649834E3,1.0388157E4,1.2629169E4,3.1982723E4,6.72451E3,4.0542195E4,4.2583816E4,2.3796895E4,2.6449488E4,7.7469033E3,1.0236124E4,6.709199E4,4.2838564E3,9.616155E3,1.6204836E2,3.3550964E2,5.588786E3,3.6585484E4,1.164415E4,1.559994E3,2.4236975E4,7.597827E3,1.9957871E3,8.607228E3,2.091923E4,2.8123233E0,7.1924915E0,6.90323E3,9.565848E3,4.2219934E0,2.7490436E2,1.3026183E4,9.730507E3,1.5404112E4,1.0257584E4,1.7629783E4,2.3870986E4,1.3645965E4,3.388271E3,7.235822E3,1.6509347E3,2.8140488E3,7.1574595E3,3.2306973E3,3.9792688E3,8.6499E3,5.6416157E3,2.6341107E4,6.6582397E3,6.626981E1,7.689989E3,3.2852203E4,6.7226436E3,3.5861176E4,9.682425E3,1.4114471E4,1.4306416E4,1.2143071E4,4.890541E3,2.8563623E3,6.786848E3,3.4492761E3,4.63449E4,2.0747092E4,6.8607043E2,3.5977861E3,8.313216E3,1.302939E3,9.430456E1,6.7743805E1,4.3120274E1,2.9238937E2,9.2626855E2,4.6625176E3,3.0676125E4,5.909359E3,3.8838848E3,7.7602656E3,9.9175946E2,5.6823456E2,1.2850823E4,1.138615E4,1.5965636E3,6.0012637E3,6.8020337E2,1.3155837E3,4.32611E3,4.281118E3],"tree_param":{"num_deleted":"0","num_feature":"456","num_nodes":"127","size_leaf_vector":"1"}},{"base_weights":[6.9023085E-1,7.9077363E-1,4.6178797E-1,8.858506E-1,7.11163E-1,6.0005134E-1,3.3944526E-1,9.641195E-1,8.4780973E-1,7.595644E-1,6.332257E-1,6.2860966E-1,4.1217282E-1,4.0973416E-1,1.3541578E-1,1.0011202E0,9.309018E-1,8.908229E-1,8.2376647E-1,8.2141805E-1,7.272293E-1,7.073067E-1,5.844948E-1,7.20338E-1,5.865158E-1,4.5301187E-1,1.8372242E-1,4.6581933E-1,3.263469E-1,1.9512725E-1,-2.1958617E-2,1.0076464E0,9.785986E-1,9.7929484E-1,9.2105025E-1,9.0769935E-1,8.5587984E-1,8.546927E-1,7.938887E-1,8.680618E-1,7.9916257E-1,7.632603E-1,6.870258E-1,7.953268E-1,6.847247E-1,6.158703E-1,5.3098345E-1,7.587207E-1,6.830375E-1,7.154199E-1,5.6932217E-1,6.052844E-1,4.1141394E-1,2.713151E-1,2.9133968E-2,5.0571877E-1,3.9469528E-1,3.7608594E-1,2.5413677E-1,-9.279135E-3,2.1698715E-1,2.8682666E-2,-1.7231385E-1,3.0232874E-1,1.630078E-1,3.0176094E-1,2.8806642E-1,2.9400855E-1,9.9648595E-2,2.8783002E-1,2.7380803E-1,2.8371093E-1,2.6885483E-1,2.7402535E-1,2.5337815E-1,2.6505348E-1,2.517388E-1,2.3960917E-1,1.9063297E-1,2.7481866E-1,2.5556746E-1,2.4874204E-1,2.3292737E-1,2.4689934E-1,2.2467065E-1,2.2947387E-1,2.0098872E-1,2.0923977E-1,2.5434297E-1,2.3621815E-1,2.0158996E-1,2.1076882E-1,1.7790696E-1,1.7544721E-1,1.4278091E-1,2.5258806E-1,2.2236367E-1,2.1790814E-1,1.877139E-1,2.2575264E-1,1.6736372E-1,1.8167192E-1,1.5614992E-1,1.5154685E-1,2.3856594E-1,1.0534144E-1,1.5412302E-1,1.5114056E-1,5.40027E-2,2.812839E-2,-7.170077E-2,1.927775E-1,1.4684792E-1,1.3444723E-1,1.0042001E-1,1.6016698E-1,1.06836386E-1,9.393591E-2,5.9291404E-2,-2.2512054E-2,7.638748E-2,8.168788E-2,3.6577374E-2,1.0920382E-1,2.1983266E-3,1.6986205E-1,-5.4967966E-2],"categories":[],"categories_nodes":[],"categories_segments":[],"categories_sizes":[],"default_left":[0,0,0,0,0,0,0,0,0,0,0,0,0,0,0,0,0,0,0,0,0,0,0,0,0,0,0,0,0,0,0,0,0,0,0,0,0,0,0,0,0,0,0,0,0,0,0,0,0,0,0,0,0,0,0,0,0,0,0,0,0,0,0,0,0,0,0,0,0,0,0,0,0,0,0,0,0,0,0,0,0,0,0,0,0,0,0,0,0,0,0,0,0,0,0,0,0,0,0,0,0,0,0,0,0,0,0,0,0,0,0,0,0,0,0,0,0,0,0,0,0,0,0,0,0,0,0],"id":4,"left_children":[1,3,5,7,9,11,13,15,17,19,21,23,25,27,29,31,33,35,37,39,41,43,45,47,49,51,53,55,57,59,61,63,65,67,69,71,73,75,77,79,81,83,85,87,89,91,93,95,97,99,101,103,105,107,109,111,113,115,117,119,121,123,125,-1,-1,-1,-1,-1,-1,-1,-1,-1,-1,-1,-1,-1,-1,-1,-1,-1,-1,-1,-1,-1,-1,-1,-1,-1,-1,-1,-1,-1,-1,-1,-1,-1,-1,-1,-1,-1,-1,-1,-1,-1,-1,-1,-1,-1,-1,-1,-1,-1,-1,-1,-1,-1,-1,-1,-1,-1,-1,-1,-1,-1,-1,-1,-1],"loss_changes":[1.5353469E4,3.5128438E3,3.4556328E3,6.290156E2,9.525703E2,5.1433203E2,1.5544043E3,8.409375E1,1.4648438E2,3.1110938E2,3.4902344E2,3.2102734E2,1.1801001E2,3.7688477E2,2.6100806E2,3.8203125E0,1.6484375E1,2.9316406E1,8.370703E1,5.4839844E1,1.4775E2,7.5791016E1,9.771094E1,3.6966797E1,1.26078125E2,6.7764404E1,2.600795E1,1.3657617E2,1.1635303E2,8.997302E1,5.8182507E1,8.1640625E-1,2.7353516E0,2.5952148E0,8.845703E0,1.4205078E1,1.003125E1,1.9382812E1,3.489453E1,1.2623047E1,2.4052734E1,4.567383E1,6.379297E1,3.9648438E1,3.951367E1,7.2481445E1,6.3710938E1,1.8169434E1,3.2546875E1,3.8801025E1,8.881055E1,4.3373108E1,5.1857056E1,2.593998E1,1.2083663E1,6.824951E1,5.539087E1,6.028711E1,4.401642E1,3.3795773E1,9.560138E1,4.0932606E1,1.5619572E1,0E0,0E0,0E0,0E0,0E0,0E0,0E0,0E0,0E0,0E0,0E0,0E0,0E0,0E0,0E0,0E0,0E0,0E0,0E0,0E0,0E0,0E0,0E0,0E0,0E0,0E0,0E0,0E0,0E0,0E0,0E0,0E0,0E0,0E0,0E0,0E0,0E0,0E0,0E0,0E0,0E0,0E0,0E0,0E0,0E0,0E0,0E0,0E0,0E0,0E0,0E0,0E0,0E0,0E0,0E0,0E0,0E0,0E0,0E0,0E0,0E0,0E0,0E0,0E0],"parents":[2147483647,0,0,1,1,2,2,3,3,4,4,5,5,6,6,7,7,8,8,9,9,10,10,11,11,12,12,13,13,14,14,15,15,16,16,17,17,18,18,19,19,20,20,21,21,22,22,23,23,24,24,25,25,26,26,27,27,28,28,29,29,30,30,31,31,32,32,33,33,34,34,35,35,36,36,37,37,38,38,39,39,40,40,41,41,42,42,43,43,44,44,45,45,46,46,47,47,48,48,49,49,50,50,51,51,52,52,53,53,54,54,55,55,56,56,57,57,58,58,59,59,60,60,61,61,62,62],"right_children":[2,4,6,8,10,12,14,16,18,20,22,24,26,28,30,32,34,36,38,40,42,44,46,48,50,52,54,56,58,60,62,64,66,68,70,72,74,76,78,80,82,84,86,88,90,92,94,96,98,100,102,104,106,108,110,112,114,116,118,120,122,124,126,-1,-1,-1,-1,-1,-1,-1,-1,-1,-1,-1,-1,-1,-1,-1,-1,-1,-1,-1,-1,-1,-1,-1,-1,-1,-1,-1,-1,-1,-1,-1,-1,-1,-1,-1,-1,-1,-1,-1,-1,-1,-1,-1,-1,-1,-1,-1,-1,-1,-1,-1,-1,-1,-1,-1,-1,-1,-1,-1,-1,-1,-1,-1,-1],"split_conditions":[1.24409884E-1,-5.200022E-1,1.5454258E-1,-8.2122403E-1,3.7234582E-2,1.4866767E0,1.5444101E0,-9.49036E-1,-6.838215E-1,-5.2422786E-1,-3.2555252E-1,-4.6642584E-1,3.1163583E0,1.0448093E0,3.1163583E0,-9.983396E-1,-1.2969884E-1,-5.616278E-1,-6.081757E-1,-7.4384093E-1,-2.8890705E-1,-1.389402E0,5.7920915E-1,4.4597363E-1,-1.61267E0,-1.9473288E0,1.0388384E-2,7.2123504E-1,8.1437624E-1,-1.2670721E0,5.3010297E0,3.6042545E0,-1.2966433E-1,7.015568E0,-1.5616812E-1,-8.730683E-1,-8.8176876E-1,-7.2831124E-1,2.0856094E0,-8.645976E-1,-4.0679756E-1,-5.09051E-1,-5.245442E-1,-1.6249888E-1,-6.799693E-1,-9.552493E-1,1.1417705E-1,-1.6124724E0,-4.7708112E-1,-9.3916696E-1,5.447577E-1,-2.8163623E-3,1.5859672E0,-2.0918279E0,5.3010297E0,-1.447207E0,5.0837255E-1,2.4341634E-1,1.8337433E0,9.5938706E-1,2.273549E0,-2.2904444E0,-2.38345E0,3.0232874E-1,1.630078E-1,3.0176094E-1,2.8806642E-1,2.9400855E-1,9.9648595E-2,2.8783002E-1,2.7380803E-1,2.8371093E-1,2.6885483E-1,2.7402535E-1,2.5337815E-1,2.6505348E-1,2.517388E-1,2.3960917E-1,1.9063297E-1,2.7481866E-1,2.5556746E-1,2.4874204E-1,2.3292737E-1,2.4689934E-1,2.2467065E-1,2.2947387E-1,2.0098872E-1,2.0923977E-1,2.5434297E-1,2.3621815E-1,2.0158996E-1,2.1076882E-1,1.7790696E-1,1.7544721E-1,1.4278091E-1,2.5258806E-1,2.2236367E-1,2.1790814E-1,1.877139E-1,2.2575264E-1,1.6736372E-1,1.8167192E-1,1.5614992E-1,1.5154685E-1,2.3856594E-1,1.0534144E-1,1.5412302E-1,1.5114056E-1,5.40027E-2,2.812839E-2,-7.170077E-2,1.927775E-1,1.4684792E-1,1.3444723E-1,1.0042001E-1,1.6016698E-1,1.06836386E-1,9.393591E-2,5.9291404E-2,-2.2512054E-2,7.638748E-2,8.168788E-2,3.6577374E-2,1.0920382E-1,2.1983266E-3,1.6986205E-1,-5.4967966E-2],"split_indices":[441,327,156,441,156,441,441,327,156,4,441,156,441,175,441,441,438,441,441,42,441,47,4,441,370,370,4,441,441,442,441,13,134,70,205,99,80,346,442,80,441,156,175,442,441,9,308,351,4,446,441,216,332,370,441,9,4,308,232,66,308,351,328,0,0,0,0,0,0,0,0,0,0,0,0,0,0,0,0,0,0,0,0,0,0,0,0,0,0,0,0,0,0,0,0,0,0,0,0,0,0,0,0,0,0,0,0,0,0,0,0,0,0,0,0,0,0,0,0,0,0,0,0,0,0,0,0],"split_type":[0,0,0,0,0,0,0,0,0,0,0,0,0,0,0,0,0,0,0,0,0,0,0,0,0,0,0,0,0,0,0,0,0,0,0,0,0,0,0,0,0,0,0,0,0,0,0,0,0,0,0,0,0,0,0,0,0,0,0,0,0,0,0,0,0,0,0,0,0,0,0,0,0,0,0,0,0,0,0,0,0,0,0,0,0,0,0,0,0,0,0,0,0,0,0,0,0,0,0,0,0,0,0,0,0,0,0,0,0,0,0,0,0,0,0,0,0,0,0,0,0,0,0,0,0,0,0],"sum_hessian":[6.684794E5,4.6418062E5,2.0429873E5,2.115371E5,2.5264353E5,9.5907125E4,1.083916E5,6.917845E4,1.4235864E5,1.5584828E5,9.679525E4,8.325038E4,1.265675E4,8.061755E4,2.7774057E4,3.2711938E4,3.6466516E4,5.103019E4,9.132845E4,5.3494566E4,1.0235372E5,3.8402266E4,5.8392984E4,2.6181414E4,5.7068965E4,1.0736458E4,1.9202911E3,4.8196586E4,3.242096E4,2.0134371E4,7.639685E3,2.5328621E4,7.3833154E3,6.1513477E3,3.0315168E4,3.439394E4,1.6636252E4,4.4863305E4,4.646515E4,1.7267258E4,3.622731E4,5.3968402E4,4.8385312E4,7.833726E3,3.056854E4,3.6803453E4,2.1589531E4,1.2893982E4,1.3287432E4,6.7114336E3,5.035753E4,2.3007683E3,8.43569E3,1.2252733E3,6.9501776E2,3.0871863E4,1.7324723E4,1.919503E4,1.3225932E4,1.9452651E3,1.8189105E4,5.715464E3,1.9242213E3,2.5321125E4,7.4978046E0,2.950759E3,4.432556E3,6.143868E3,7.4794564E0,5.399826E3,2.4915342E4,7.979921E3,2.6414021E4,2.714974E3,1.3921277E4,1.5712546E4,2.9150758E4,4.509264E4,1.3725082E3,4.33714E3,1.2930118E4,1.5610767E4,2.0616541E4,1.04470205E4,4.3521383E4,8.68734E3,3.9697973E4,2.739634E3,5.0940923E3,3.3720383E3,2.71965E4,7.670046E3,2.9133406E4,1.0909508E4,1.0680023E4,2.2325984E3,1.0661384E4,7.5613066E3,5.726125E3,5.4294385E3,1.2819949E3,2.8892967E4,2.1464564E4,1.5089531E3,7.9181506E2,5.3114697E3,3.1242205E3,3.4424002E2,8.810333E2,5.6055975E2,1.3445801E2,3.2677712E3,2.7604094E4,9.155338E3,8.1693853E3,2.1528457E3,1.7042184E4,6.468489E3,6.7574424E3,1.5577998E3,3.874653E2,1.14979375E4,6.691168E3,3.4122705E2,5.374237E3,2.7278112E1,1.8969432E3],"tree_param":{"num_deleted":"0","num_feature":"456","num_nodes":"127","size_leaf_vector":"1"}},{"base_weights":[-4.1976017E-1,-5.116691E-1,-2.7988183E-1,-5.734917E-1,-4.52573E-1,-3.5536075E-1,-1.7483638E-1,-6.3185394E-1,-5.446549E-1,-4.9212667E-1,-4.0567073E-1,-4.2057225E-1,-3.0757716E-1,-2.1724497E-1,-2.0381585E-2,-6.6274744E-1,-6.0749435E-1,-5.815246E-1,-5.2765495E-1,-5.3160036E-1,-4.6729437E-1,-4.2938557E-1,-3.5963586E-1,-4.396565E-1,-3.473958E-1,-3.3347318E-1,-2.0732497E-1,-1.292663E-1,-2.419503E-1,1.5993826E-1,-7.273788E-2,-6.6778064E-1,-6.4783573E-1,-6.4237297E-1,-5.9857774E-1,-5.96549E-1,-5.491845E-1,-5.507905E-1,-4.99747E-1,-5.707398E-1,-5.164218E-1,-4.7946763E-1,-4.202796E-1,-4.7297406E-1,-4.097233E-1,-3.9788738E-1,-3.275369E-1,-4.9597952E-1,-4.1567644E-1,-4.1847444E-1,-3.0268314E-1,-3.63366E-1,-3.0528435E-1,-2.1794896E-1,5.8136904E-3,-1.9234195E-1,-5.037209E-2,-3.2591438E-1,-2.1527773E-1,7.2787695E-2,3.3490083E-1,-1.4886425E-1,4.7714314E-3,-2.0038526E-1,2.9527867E-2,-1.9961584E-1,-1.8995202E-1,-1.6763592E-1,-1.9359212E-1,-1.8372616E-1,-1.717428E-1,-1.85828E-1,-1.7571992E-1,-1.4160757E-1,-1.6811231E-1,-1.7198806E-1,-1.6145635E-1,-1.5553223E-1,-1.431303E-1,-1.7136003E-1,2.5860456E-1,-1.5953805E-1,-1.4688584E-1,-1.6381098E-1,-1.419319E-1,-1.3786522E-1,-1.15652725E-1,-1.4354776E-1,-1.03258975E-1,-1.4366072E-1,-1.1916021E-1,-1.5845011E-1,-1.162812E-1,-9.411919E-2,-1.3020837E-1,-1.388838E-1,-1.6369185E-1,-1.3500188E-1,-1.1732959E-1,-1.4314693E-2,-1.2924515E-1,-1.08678915E-1,-7.9349615E-2,-1.0469631E-1,-1.2145263E-1,-1.0059224E-1,-7.7372365E-2,-9.859646E-2,-5.8397956E-2,3.191259E-1,-3.864894E-3,-1.20635405E-1,-5.3638987E-2,7.705787E-3,-4.7367703E-2,-1.291371E-1,-8.588799E-2,-7.945382E-2,-5.2511264E-2,6.174714E-2,-5.712147E-3,6.01412E-2,1.5798073E-1,-8.965591E-2,-3.5222996E-2,3.699907E-2,-1.8990565E-2],"categories":[],"categories_nodes":[],"categories_segments":[],"categories_sizes":[],"default_left":[0,0,0,0,0,0,0,0,0,0,0,0,0,0,0,0,0,0,0,0,0,0,0,0,0,0,0,0,0,0,0,0,0,0,0,0,0,0,0,0,0,0,0,0,0,0,0,0,0,0,0,0,0,0,0,0,0,0,0,0,0,0,0,0,0,0,0,0,0,0,0,0,0,0,0,0,0,0,0,0,0,0,0,0,0,0,0,0,0,0,0,0,0,0,0,0,0,0,0,0,0,0,0,0,0,0,0,0,0,0,0,0,0,0,0,0,0,0,0,0,0,0,0,0,0,0,0],"id":5,"left_children":[1,3,5,7,9,11,13,15,17,19,21,23,25,27,29,31,33,35,37,39,41,43,45,47,49,51,53,55,57,59,61,63,65,67,69,71,73,75,77,79,81,83,85,87,89,91,93,95,97,99,101,103,105,107,109,111,113,115,117,119,121,123,125,-1,-1,-1,-1,-1,-1,-1,-1,-1,-1,-1,-1,-1,-1,-1,-1,-1,-1,-1,-1,-1,-1,-1,-1,-1,-1,-1,-1,-1,-1,-1,-1,-1,-1,-1,-1,-1,-1,-1,-1,-1,-1,-1,-1,-1,-1,-1,-1,-1,-1,-1,-1,-1,-1,-1,-1,-1,-1,-1,-1,-1,-1,-1,-1],"loss_changes":[7.055703E3,1.2098047E3,1.7254453E3,2.720703E2,3.1395703E2,3.9446777E2,5.960259E2,3.9875E1,6.759961E1,8.979883E1,8.443164E1,7.462988E1,1.8967383E2,1.551416E2,1.850828E2,1.3388672E0,8.924805E0,1.6280273E1,4.761133E1,2.0774414E1,3.207617E1,4.3628906E1,3.2222168E1,5.7152344E1,3.509131E1,4.8831055E1,3.3980774E1,7.789145E1,1.247583E2,6.724068E1,8.964583E1,2.3603516E0,1.1186523E0,1.1306152E0,8.269531E0,5.4101562E0,9.107666E0,1.1188477E1,1.3987305E1,7.0217285E0,1.0272949E1,1.8708984E1,1.5672363E1,1.1126465E1,3.0327637E1,1.5895874E1,2.0936157E1,2.0542725E1,2.4961914E1,1.9549072E1,1.5387878E1,1.6666016E1,4.2441406E1,3.6788452E1,1.4125598E1,2.4646088E1,5.6892277E1,5.55282E1,8.433447E1,3.5992474E1,3.768608E1,3.6125824E1,6.077193E1,0E0,0E0,0E0,0E0,0E0,0E0,0E0,0E0,0E0,0E0,0E0,0E0,0E0,0E0,0E0,0E0,0E0,0E0,0E0,0E0,0E0,0E0,0E0,0E0,0E0,0E0,0E0,0E0,0E0,0E0,0E0,0E0,0E0,0E0,0E0,0E0,0E0,0E0,0E0,0E0,0E0,0E0,0E0,0E0,0E0,0E0,0E0,0E0,0E0,0E0,0E0,0E0,0E0,0E0,0E0,0E0,0E0,0E0,0E0,0E0,0E0,0E0,0E0,0E0],"parents":[2147483647,0,0,1,1,2,2,3,3,4,4,5,5,6,6,7,7,8,8,9,9,10,10,11,11,12,12,13,13,14,14,15,15,16,16,17,17,18,18,19,19,20,20,21,21,22,22,23,23,24,24,25,25,26,26,27,27,28,28,29,29,30,30,31,31,32,32,33,33,34,34,35,35,36,36,37,37,38,38,39,39,40,40,41,41,42,42,43,43,44,44,45,45,46,46,47,47,48,48,49,49,50,50,51,51,52,52,53,53,54,54,55,55,56,56,57,57,58,58,59,59,60,60,61,61,62,62],"right_children":[2,4,6,8,10,12,14,16,18,20,22,24,26,28,30,32,34,36,38,40,42,44,46,48,50,52,54,56,58,60,62,64,66,68,70,72,74,76,78,80,82,84,86,88,90,92,94,96,98,100,102,104,106,108,110,112,114,116,118,120,122,124,126,-1,-1,-1,-1,-1,-1,-1,-1,-1,-1,-1,-1,-1,-1,-1,-1,-1,-1,-1,-1,-1,-1,-1,-1,-1,-1,-1,-1,-1,-1,-1,-1,-1,-1,-1,-1,-1,-1,-1,-1,-1,-1,-1,-1,-1,-1,-1,-1,-1,-1,-1,-1,-1,-1,-1,-1,-1,-1,-1,-1,-1,-1,-1,-1],"split_conditions":[-4.039755E-2,-4.6112284E-1,5.0939125E-1,-8.007633E-1,-3.7877733E-1,-2.5764856E-1,1.9282254E0,-9.4820297E-1,-7.381721E-1,-6.184595E-1,1.8649997E-1,8.1437624E-1,9.81276E-1,-7.1717584E-1,-8.073609E-1,-9.957029E-1,-1.2969379E-1,5.942339E-1,-4.9940887E-1,-7.6933676E-1,7.471084E-2,-3.068184E-1,2.7972696E-2,-1.1153778E0,-1.417484E0,2.679569E-1,3.5186155E0,1.0817083E0,1.5440011E-1,3.1154397E0,1.5400198E0,6.786395E-1,-1.2968393E-1,-1.4567122E-1,2.100733E-1,-8.648681E-1,-6.522073E-5,-2.8178763E-1,-4.2284253E-1,2.4221337E0,-6.6191014E-3,-1.1154116E0,-1.8412863E-1,1.7146673E0,-1.1963813E0,-1.8318104E0,3.868364E-3,-2.651682E-3,-5.08873E-1,-1.7996938E0,-5.243539E-1,8.260181E-1,4.6030813E-1,-1.7338039E0,-2.0750766E0,-5.190057E-1,4.124767E-1,-1.1964872E0,5.8115894E-1,-1.2670721E0,-1.0268571E0,-9.3916696E-1,1.3354439E-1,-2.0038526E-1,2.9527867E-2,-1.9961584E-1,-1.8995202E-1,-1.6763592E-1,-1.9359212E-1,-1.8372616E-1,-1.717428E-1,-1.85828E-1,-1.7571992E-1,-1.4160757E-1,-1.6811231E-1,-1.7198806E-1,-1.6145635E-1,-1.5553223E-1,-1.431303E-1,-1.7136003E-1,2.5860456E-1,-1.5953805E-1,-1.4688584E-1,-1.6381098E-1,-1.419319E-1,-1.3786522E-1,-1.15652725E-1,-1.4354776E-1,-1.03258975E-1,-1.4366072E-1,-1.1916021E-1,-1.5845011E-1,-1.162812E-1,-9.411919E-2,-1.3020837E-1,-1.388838E-1,-1.6369185E-1,-1.3500188E-1,-1.1732959E-1,-1.4314693E-2,-1.2924515E-1,-1.08678915E-1,-7.9349615E-2,-1.0469631E-1,-1.2145263E-1,-1.0059224E-1,-7.7372365E-2,-9.859646E-2,-5.8397956E-2,3.191259E-1,-3.864894E-3,-1.20635405E-1,-5.3638987E-2,7.705787E-3,-4.7367703E-2,-1.291371E-1,-8.588799E-2,-7.945382E-2,-5.2511264E-2,6.174714E-2,-5.712147E-3,6.01412E-2,1.5798073E-1,-8.965591E-2,-3.5222996E-2,3.699907E-2,-1.8990565E-2],"split_indices":[441,175,251,441,441,156,441,232,118,441,251,441,441,442,442,4,438,442,441,422,289,4,4,389,389,441,441,289,118,384,175,291,324,372,446,118,388,446,4,175,137,218,4,442,9,256,445,139,61,442,99,43,4,370,442,4,161,294,441,442,309,446,446,0,0,0,0,0,0,0,0,0,0,0,0,0,0,0,0,0,0,0,0,0,0,0,0,0,0,0,0,0,0,0,0,0,0,0,0,0,0,0,0,0,0,0,0,0,0,0,0,0,0,0,0,0,0,0,0,0,0,0,0,0,0,0,0],"split_type":[0,0,0,0,0,0,0,0,0,0,0,0,0,0,0,0,0,0,0,0,0,0,0,0,0,0,0,0,0,0,0,0,0,0,0,0,0,0,0,0,0,0,0,0,0,0,0,0,0,0,0,0,0,0,0,0,0,0,0,0,0,0,0,0,0,0,0,0,0,0,0,0,0,0,0,0,0,0,0,0,0,0,0,0,0,0,0,0,0,0,0,0,0,0,0,0,0,0,0,0,0,0,0,0,0,0,0,0,0,0,0,0,0,0,0,0,0,0,0,0,0,0,0,0,0,0,0],"sum_hessian":[5.488331E5,3.312067E5,2.1762644E5,1.61865E5,1.6934167E5,1.266334E5,9.099303E4,5.352199E4,1.08343016E5,9.186257E4,7.747911E4,5.354769E4,7.30857E4,7.139086E4,1.960217E4,2.35848E4,2.993719E4,3.417998E4,7.416304E4,3.5465625E4,5.6396945E4,5.1130766E4,2.634834E4,4.2467312E4,1.1080379E4,5.8080637E4,1.5005069E4,1.565341E4,5.5737453E4,4.4103765E3,1.5191793E4,1.7600312E4,5.9844873E3,6.0806934E3,2.3856496E4,2.3325932E4,1.0854049E4,4.0538246E4,3.362479E4,9.900239E3,2.5565387E4,4.479043E4,1.1606517E4,1.5887465E4,3.52433E4,1.2016816E4,1.4331523E4,1.2675673E4,2.979164E4,4.2754473E3,6.8049316E3,2.8182566E4,2.9898068E4,1.4292624E4,7.1244476E2,8.697973E3,6.9554375E3,1.3434623E4,4.230283E4,2.9449058E3,1.4654706E3,7.6638057E3,7.527988E3,1.7596533E4,3.7793927E0,2.7037793E3,3.2807083E3,2.126981E2,5.8679956E3,1.5574375E4,8.282121E3,7.46973E3,1.5856201E4,1.3801827E3,9.473866E3,1.4536981E4,2.6001266E4,1.8407764E4,1.5217025E4,9.897661E3,2.5781798E0,1.623529E4,9.330097E3,3.899422E3,4.0891008E4,5.444771E3,6.161746E3,1.5232017E4,6.5544836E2,5.3983125E3,2.9844988E4,8.754513E2,1.1141364E4,1.2690219E4,1.6413053E3,7.6183267E3,5.0573467E3,1.2422648E4,1.7368992E4,1.3790262E2,4.137545E3,2.6545303E3,4.150402E3,2.0934672E4,7.247895E3,1.8296967E4,1.1601104E4,2.4818618E3,1.1810763E4,1.1401523E1,7.010432E2,5.258268E2,8.172146E3,4.0741863E3,2.8812512E3,3.68958E3,9.745043E3,1.8951988E4,2.3350842E4,1.2021089E3,1.7427969E3,8.6261206E2,6.0285846E2,1.3270942E3,6.3367114E3,2.7455073E3,4.7824805E3],"tree_param":{"num_deleted":"0","num_feature":"456","num_nodes":"127","size_leaf_vector":"1"}},{"base_weights":[-3.5439214E-1,-4.4978794E-1,-2.5229692E-1,-5.214222E-1,-3.999401E-1,-3.1144485E-1,-1.6331857E-1,-5.866836E-1,-4.9015415E-1,-4.4946963E-1,-3.694527E-1,-3.3386546E-1,-2.1224177E-1,-2.1861498E-1,-9.76053E-2,-6.083863E-1,-5.4886866E-1,-5.068164E-1,-4.603744E-1,-4.9534565E-1,-4.313433E-1,-4.174588E-1,-3.4910417E-1,-3.8636562E-1,-3.04102E-1,-2.4075773E-1,-1.2843454E-1,-2.6559612E-1,-1.7952433E-1,-2.3920171E-1,-8.281282E-2,-6.1541265E-1,-5.8623797E-1,-5.4923314E-1,2.0444636E-1,-4.7933996E-1,-5.254309E-1,-4.440305E-1,-5.0275743E-1,-4.4636548E-1,-5.13463E-1,-3.9238366E-1,-4.4974482E-1,-3.7627348E-1,-4.595267E-1,-3.6996818E-1,-2.9844823E-1,-4.604763E-1,-3.7363333E-1,-3.7053576E-1,-2.8878245E-1,-2.9318926E-1,-1.9998789E-1,-3.0005527E-1,-9.418785E-2,-3.5625532E-1,-2.5148317E-1,-1.9071576E-1,5.3333495E-2,-2.8930095E-1,-1.142152E-1,-1.14788875E-1,-2.1954548E-2,-1.8464187E-1,-9.991466E-4,-1.8244374E-1,-1.6979358E-1,-1.619241E-1,-1.737693E-1,3.2532287E-1,-9.273969E-2,-1.509781E-1,-1.3069586E-1,-1.69195E-1,-1.536018E-1,-1.503821E-1,-1.2863694E-1,-1.3553135E-1,-1.5819532E-1,-1.2552895E-1,-1.5379365E-1,-1.7035511E-1,-1.5070479E-1,-9.928637E-2,-1.2449739E-1,-1.6432674E-1,-1.3360623E-1,-1.1377112E-1,9.994154E-2,-1.2367605E-1,-1.4386685E-1,-1.2288901E-1,-1.0675896E-1,-1.0739841E-1,-8.055426E-2,-1.3061643E-1,-1.5990344E-1,-8.519518E-2,-1.1510572E-1,-1.0209651E-1,-1.2509724E-1,-8.363311E-2,-1.0862226E-1,-1.0168968E-1,-7.257242E-2,-9.23672E-2,-5.580232E-2,-1.8677404E-2,-1.0432561E-1,5.2377926E-3,-3.743152E-2,-1.2585564E-1,-9.549351E-2,-1.1938491E-1,-7.232405E-2,-6.8229154E-2,-4.4719417E-2,8.524621E-2,-3.1384546E-2,5.4811146E-3,-9.307287E-2,-4.300388E-2,1.0942583E-1,-4.2606343E-2,-9.417564E-3,-1.17418565E-1,-3.7433256E-3],"categories":[],"categories_nodes":[],"categories_segments":[],"categories_sizes":[],"default_left":[0,0,0,0,0,0,0,0,0,0,0,0,0,0,0,0,0,0,0,0,0,0,0,0,0,0,0,0,0,0,0,0,0,0,0,0,0,0,0,0,0,0,0,0,0,0,0,0,0,0,0,0,0,0,0,0,0,0,0,0,0,0,0,0,0,0,0,0,0,0,0,0,0,0,0,0,0,0,0,0,0,0,0,0,0,0,0,0,0,0,0,0,0,0,0,0,0,0,0,0,0,0,0,0,0,0,0,0,0,0,0,0,0,0,0,0,0,0,0,0,0,0,0,0,0,0,0],"id":6,"left_children":[1,3,5,7,9,11,13,15,17,19,21,23,25,27,29,31,33,35,37,39,41,43,45,47,49,51,53,55,57,59,61,63,65,67,69,71,73,75,77,79,81,83,85,87,89,91,93,95,97,99,101,103,105,107,109,111,113,115,117,119,121,123,125,-1,-1,-1,-1,-1,-1,-1,-1,-1,-1,-1,-1,-1,-1,-1,-1,-1,-1,-1,-1,-1,-1,-1,-1,-1,-1,-1,-1,-1,-1,-1,-1,-1,-1,-1,-1,-1,-1,-1,-1,-1,-1,-1,-1,-1,-1,-1,-1,-1,-1,-1,-1,-1,-1,-1,-1,-1,-1,-1,-1,-1,-1,-1,-1],"loss_changes":[4.798754E3,9.0934375E2,1.2525537E3,2.1298633E2,2.2664844E2,3.17917E2,3.4532666E2,2.7445312E1,3.483203E1,4.737207E1,9.068164E1,1.8209766E2,6.2960693E1,9.473511E1,9.0949554E1,2.9848633E0,3.5041504E0,2.2918945E1,1.7346191E1,1.41467285E1,2.923584E1,4.7774414E1,6.891162E1,3.9635254E1,7.563867E1,4.1978394E1,3.931402E1,2.9897705E1,7.343121E1,2.568721E1,7.652356E1,5.9814453E-1,1.9631348E0,3.2009277E0,3.3642774E0,1.8912598E1,1.3684082E1,1.5762451E1,8.592041E0,7.898987E0,6.8586426E0,1.8151245E1,1.1744141E1,2.9537354E1,1.276123E1,2.5728516E1,3.3871704E1,1.1015747E1,3.234082E1,1.94281E1,4.425244E1,2.010675E1,1.6635895E1,1.2603004E1,1.9061466E1,7.4389343E0,3.0809937E1,4.1074097E1,4.7160515E1,1.8888153E1,1.6474602E1,5.8542786E1,4.74223E1,0E0,0E0,0E0,0E0,0E0,0E0,0E0,0E0,0E0,0E0,0E0,0E0,0E0,0E0,0E0,0E0,0E0,0E0,0E0,0E0,0E0,0E0,0E0,0E0,0E0,0E0,0E0,0E0,0E0,0E0,0E0,0E0,0E0,0E0,0E0,0E0,0E0,0E0,0E0,0E0,0E0,0E0,0E0,0E0,0E0,0E0,0E0,0E0,0E0,0E0,0E0,0E0,0E0,0E0,0E0,0E0,0E0,0E0,0E0,0E0,0E0,0E0,0E0,0E0],"parents":[2147483647,0,0,1,1,2,2,3,3,4,4,5,5,6,6,7,7,8,8,9,9,10,10,11,11,12,12,13,13,14,14,15,15,16,16,17,17,18,18,19,19,20,20,21,21,22,22,23,23,24,24,25,25,26,26,27,27,28,28,29,29,30,30,31,31,32,32,33,33,34,34,35,35,36,36,37,37,38,38,39,39,40,40,41,41,42,42,43,43,44,44,45,45,46,46,47,47,48,48,49,49,50,50,51,51,52,52,53,53,54,54,55,55,56,56,57,57,58,58,59,59,60,60,61,61,62,62],"right_children":[2,4,6,8,10,12,14,16,18,20,22,24,26,28,30,32,34,36,38,40,42,44,46,48,50,52,54,56,58,60,62,64,66,68,70,72,74,76,78,80,82,84,86,88,90,92,94,96,98,100,102,104,106,108,110,112,114,116,118,120,122,124,126,-1,-1,-1,-1,-1,-1,-1,-1,-1,-1,-1,-1,-1,-1,-1,-1,-1,-1,-1,-1,-1,-1,-1,-1,-1,-1,-1,-1,-1,-1,-1,-1,-1,-1,-1,-1,-1,-1,-1,-1,-1,-1,-1,-1,-1,-1,-1,-1,-1,-1,-1,-1,-1,-1,-1,-1,-1,-1,-1,-1,-1,-1,-1,-1],"split_conditions":[-1.7742644E-1,-6.1827713E-1,3.856562E-1,-8.6665064E-1,-3.7814075E-1,1.0138158E0,7.668733E-1,-8.645976E-1,-6.288095E-1,-6.9403344E-1,-7.259543E-1,-3.8930765E-1,2.146175E0,3.1812432E-1,-1.4690782E0,-9.7968674E-1,2.377865E0,-2.0544654E-1,8.5083246E-1,-5.6039053E-1,-4.692862E-1,1.9032156E-1,2.6708198E-1,-7.5594705E-1,-4.0647814E-1,-2.1829851E-1,-2.0917506E0,-2.6358974E-1,3.512857E0,-1.2629939E0,2.0324762E0,1.0548836E0,-1.296748E-1,-1.12339735E-1,-5.2637875E-1,-6.4254506E-5,-7.615762E-1,-9.413874E-4,2.927723E-1,-2.7072856E-3,-8.818119E-1,-2.8478755E-3,-1.3108438E0,4.1298656E0,-5.8276683E-1,-5.718866E-1,-1.702898E-1,1.5514277E0,-1.3595723E0,3.5012227E-1,1.1414236E0,-5.816652E-5,-1.0403484E0,-1.2739726E-3,-7.0087445E-1,-8.188037E-1,-1.0770646E0,2.9277945E-1,-4.1023806E-1,-1.519403E0,1.5178527E0,2.141914E0,-2.1788309E0,-1.8464187E-1,-9.991466E-4,-1.8244374E-1,-1.6979358E-1,-1.619241E-1,-1.737693E-1,3.2532287E-1,-9.273969E-2,-1.509781E-1,-1.3069586E-1,-1.69195E-1,-1.536018E-1,-1.503821E-1,-1.2863694E-1,-1.3553135E-1,-1.5819532E-1,-1.2552895E-1,-1.5379365E-1,-1.7035511E-1,-1.5070479E-1,-9.928637E-2,-1.2449739E-1,-1.6432674E-1,-1.3360623E-1,-1.1377112E-1,9.994154E-2,-1.2367605E-1,-1.4386685E-1,-1.2288901E-1,-1.0675896E-1,-1.0739841E-1,-8.055426E-2,-1.3061643E-1,-1.5990344E-1,-8.519518E-2,-1.1510572E-1,-1.0209651E-1,-1.2509724E-1,-8.363311E-2,-1.0862226E-1,-1.0168968E-1,-7.257242E-2,-9.23672E-2,-5.580232E-2,-1.8677404E-2,-1.0432561E-1,5.2377926E-3,-3.743152E-2,-1.2585564E-1,-9.549351E-2,-1.1938491E-1,-7.232405E-2,-6.8229154E-2,-4.4719417E-2,8.524621E-2,-3.1384546E-2,5.4811146E-3,-9.307287E-2,-4.300388E-2,1.0942583E-1,-4.2606343E-2,-9.417564E-3,-1.17418565E-1,-3.7433256E-3],"split_indices":[441,327,137,441,118,441,441,80,441,99,47,4,441,346,43,441,210,446,427,442,442,442,137,137,251,137,427,308,4,66,441,296,381,298,237,388,42,331,328,64,61,7,66,42,252,441,308,389,442,9,9,122,47,8,161,442,351,100,5,423,332,137,85,0,0,0,0,0,0,0,0,0,0,0,0,0,0,0,0,0,0,0,0,0,0,0,0,0,0,0,0,0,0,0,0,0,0,0,0,0,0,0,0,0,0,0,0,0,0,0,0,0,0,0,0,0,0,0,0,0,0,0,0,0,0,0,0],"split_type":[0,0,0,0,0,0,0,0,0,0,0,0,0,0,0,0,0,0,0,0,0,0,0,0,0,0,0,0,0,0,0,0,0,0,0,0,0,0,0,0,0,0,0,0,0,0,0,0,0,0,0,0,0,0,0,0,0,0,0,0,0,0,0,0,0,0,0,0,0,0,0,0,0,0,0,0,0,0,0,0,0,0,0,0,0,0,0,0,0,0,0,0,0,0,0,0,0,0,0,0,0,0,0,0,0,0,0,0,0,0,0,0,0,0,0,0,0,0,0,0,0,0,0,0,0,0,0],"sum_hessian":[4.927231E5,2.5471698E5,2.3800612E5,1.0451436E5,1.5020262E5,1.42967E5,9.5039125E4,3.3848785E4,7.066558E4,5.722375E4,9.297887E4,1.16609945E5,2.6357055E4,5.1608918E4,4.3430203E4,2.1496467E4,1.235232E4,4.5302242E4,2.5363334E4,1.6199082E4,4.1024668E4,2.7673098E4,6.530577E4,4.2185855E4,7.442409E4,1.966428E4,6.692776E3,2.3436246E4,2.8172672E4,4.1065337E3,3.932367E4,1.629894E4,5.1975264E3,1.2346617E4,5.7024755E0,1.8306803E4,2.699544E4,1.8312914E4,7.0504214E3,4.3809204E3,1.1818162E4,1.3167925E4,2.7856742E4,1.3988253E4,1.3684846E4,4.6250125E4,1.9055645E4,6.179839E3,3.6006016E4,1.3941794E4,6.0482297E4,8.599199E3,1.106508E4,1.112073E3,5.580703E3,3.1536257E3,2.0282621E4,2.6880922E4,1.2917496E3,2.930547E3,1.1759867E3,2.5778361E4,1.3545311E4,1.6297333E4,1.6073521E0,2.4832307E3,2.7142954E3,9.394731E3,2.951886E3,1.6919758E0,4.0104995E0,1.1822831E4,6.4839707E3,6.9619106E3,2.0033527E4,3.8438254E3,1.4469088E4,2.298408E3,4.752013E3,3.0870896E3,1.2938307E3,1.9967225E3,9.821439E3,3.546653E3,9.621271E3,1.1891315E3,2.6667611E4,1.3930523E4,5.7729515E1,4.079076E3,9.60577E3,1.212571E4,3.4124414E4,6.3710425E3,1.2684603E4,4.596884E3,1.582955E3,3.6332424E3,3.2372773E4,8.452602E3,5.4891924E3,5.322156E4,7.2607383E3,4.540498E3,4.0587007E3,1.2667709E3,9.79831E3,1.8617627E2,9.2589667E2,1.2001084E3,4.3805947E3,1.1785583E3,1.9750674E3,1.3425996E3,1.8940021E4,1.4284713E4,1.259621E4,5.244858E2,7.6726385E2,1.868236E2,2.7437234E3,1.1092239E3,6.676283E1,1.9432285E4,6.3460757E3,3.3776282E2,1.3207548E4],"tree_param":{"num_deleted":"0","num_feature":"456","num_nodes":"127","size_leaf_vector":"1"}},{"base_weights":[5.2062464E-1,6.1117375E-1,3.5668355E-1,6.991507E-1,5.4951394E-1,4.1939244E-1,2.2115502E-1,7.6405895E-1,6.6164476E-1,6.0171014E-1,5.095327E-1,4.7324148E-1,3.297036E-1,3.5592526E-1,1.4865993E-1,8.006598E-1,7.336147E-1,7.002275E-1,6.3747984E-1,6.252105E-1,5.5381095E-1,5.529438E-1,4.5977956E-1,5.5190164E-1,4.428763E-1,3.8066727E-1,2.7644753E-1,4.7373477E-1,3.1097677E-1,2.00126E-1,2.5636135E-2,8.0771244E-1,7.824035E-1,7.218392E-1,7.7519596E-1,7.505115E-1,6.902962E-1,6.665175E-1,6.1687464E-1,6.691607E-1,6.039823E-1,5.618772E-1,3.5402918E-1,5.899049E-1,5.228847E-1,5.3773E-1,4.37695E-1,5.6828314E-1,4.8947257E-1,3.3911547E-1,4.575209E-1,4.8185202E-1,3.6671215E-1,3.2922104E-1,2.252398E-1,5.8509547E-1,4.284872E-1,3.5226724E-1,1.841704E-1,1.4450135E-2,2.2300516E-1,4.842241E-2,-1.6857061E-1,2.423277E-1,1.939448E-2,2.410268E-1,2.2933036E-1,2.1745308E-1,1.7993423E-1,2.4445866E-1,2.2607048E-1,2.4398959E-1,2.2219001E-1,2.2333322E-1,2.05364E-1,2.1188962E-1,1.9768576E-1,1.980244E-1,1.8113911E-1,2.1443062E-1,1.9662862E-1,2.0170404E-1,1.7899567E-1,1.8302199E-1,1.6087452E-1,9.085549E-2,1.5323806E-1,1.8558936E-1,1.6975214E-1,1.7571317E-1,1.5047432E-1,1.6446541E-1,8.000755E-2,1.3994654E-1,1.1196624E-1,1.8742603E-1,1.6640235E-1,9.253701E-2,1.5309602E-1,7.950974E-2,1.2151096E-1,1.4388809E-1,1.15038574E-1,1.3187402E-1,1.908384E-1,1.3863373E-1,1.0548137E-1,1.3994063E-1,9.2571996E-2,7.7135175E-2,4.9291994E-2,1.985893E-1,1.4647014E-1,1.350439E-1,5.792686E-2,1.3278714E-1,9.409097E-2,8.78112E-2,4.328373E-2,-1.7234087E-2,8.461032E-2,8.36175E-2,5.492333E-2,2.5560595E-2,-1.4505309E-2,-8.8015996E-2,-2.8788367E-2],"categories":[],"categories_nodes":[],"categories_segments":[],"categories_sizes":[],"default_left":[0,0,0,0,0,0,0,0,0,0,0,0,0,0,0,0,0,0,0,0,0,0,0,0,0,0,0,0,0,0,0,0,0,0,0,0,0,0,0,0,0,0,0,0,0,0,0,0,0,0,0,0,0,0,0,0,0,0,0,0,0,0,0,0,0,0,0,0,0,0,0,0,0,0,0,0,0,0,0,0,0,0,0,0,0,0,0,0,0,0,0,0,0,0,0,0,0,0,0,0,0,0,0,0,0,0,0,0,0,0,0,0,0,0,0,0,0,0,0,0,0,0,0,0,0,0,0],"id":7,"left_children":[1,3,5,7,9,11,13,15,17,19,21,23,25,27,29,31,33,35,37,39,41,43,45,47,49,51,53,55,57,59,61,63,65,67,69,71,73,75,77,79,81,83,85,87,89,91,93,95,97,99,101,103,105,107,109,111,113,115,117,119,121,123,125,-1,-1,-1,-1,-1,-1,-1,-1,-1,-1,-1,-1,-1,-1,-1,-1,-1,-1,-1,-1,-1,-1,-1,-1,-1,-1,-1,-1,-1,-1,-1,-1,-1,-1,-1,-1,-1,-1,-1,-1,-1,-1,-1,-1,-1,-1,-1,-1,-1,-1,-1,-1,-1,-1,-1,-1,-1,-1,-1,-1,-1,-1,-1,-1],"loss_changes":[9.945844E3,2.3409531E3,2.0259863E3,4.3245312E2,5.292656E2,7.8699023E2,7.367554E2,7.198047E1,1.0464844E2,1.2355078E2,3.101211E2,2.4299414E2,1.6585449E2,1.395271E2,3.104829E2,3.1738281E0,1.6853516E1,2.115625E1,4.106836E1,6.8478516E1,5.819336E1,8.495117E1,1.150459E2,2.8722656E1,1.1149707E2,4.393994E1,8.0740234E1,3.644458E1,9.9916016E1,1.4687146E2,6.401958E1,6.845703E-1,2.5092773E0,9.733398E0,6.10791E0,3.8300781E0,1.0777344E1,8.19043E0,2.2520508E1,1.4584961E1,2.4552734E1,4.269043E1,1.1148773E1,2.3436523E1,5.6359375E1,4.1867188E1,9.6708984E1,1.6912598E1,2.2114624E1,4.4293213E1,1.0522754E2,2.4394836E1,3.941577E1,4.1584473E1,2.9444519E1,1.5322571E1,2.633429E1,5.0137817E1,2.027446E1,7.300652E1,6.842932E1,4.6085682E1,1.3739952E1,0E0,0E0,0E0,0E0,0E0,0E0,0E0,0E0,0E0,0E0,0E0,0E0,0E0,0E0,0E0,0E0,0E0,0E0,0E0,0E0,0E0,0E0,0E0,0E0,0E0,0E0,0E0,0E0,0E0,0E0,0E0,0E0,0E0,0E0,0E0,0E0,0E0,0E0,0E0,0E0,0E0,0E0,0E0,0E0,0E0,0E0,0E0,0E0,0E0,0E0,0E0,0E0,0E0,0E0,0E0,0E0,0E0,0E0,0E0,0E0,0E0,0E0,0E0,0E0],"parents":[2147483647,0,0,1,1,2,2,3,3,4,4,5,5,6,6,7,7,8,8,9,9,10,10,11,11,12,12,13,13,14,14,15,15,16,16,17,17,18,18,19,19,20,20,21,21,22,22,23,23,24,24,25,25,26,26,27,27,28,28,29,29,30,30,31,31,32,32,33,33,34,34,35,35,36,36,37,37,38,38,39,39,40,40,41,41,42,42,43,43,44,44,45,45,46,46,47,47,48,48,49,49,50,50,51,51,52,52,53,53,54,54,55,55,56,56,57,57,58,58,59,59,60,60,61,61,62,62],"right_children":[2,4,6,8,10,12,14,16,18,20,22,24,26,28,30,32,34,36,38,40,42,44,46,48,50,52,54,56,58,60,62,64,66,68,70,72,74,76,78,80,82,84,86,88,90,92,94,96,98,100,102,104,106,108,110,112,114,116,118,120,122,124,126,-1,-1,-1,-1,-1,-1,-1,-1,-1,-1,-1,-1,-1,-1,-1,-1,-1,-1,-1,-1,-1,-1,-1,-1,-1,-1,-1,-1,-1,-1,-1,-1,-1,-1,-1,-1,-1,-1,-1,-1,-1,-1,-1,-1,-1,-1,-1,-1,-1,-1,-1,-1,-1,-1,-1,-1,-1,-1,-1,-1,-1,-1,-1,-1],"split_conditions":[1.969284E-2,-5.770779E-1,8.6603826E-1,-8.209589E-1,-3.4874353E-1,3.3042455E-1,1.4393632E-1,-9.626359E-1,-6.016695E-1,-1.4161342E-1,-1.912146E-1,-4.7708112E-1,2.4366508E-1,-4.1726485E-1,2.273549E0,-1.0174891E0,4.9009595E-2,-8.815132E-1,-5.974248E-1,-6.9403344E-1,1.8576057E0,-3.785365E-1,-4.6160558E-1,7.2043633E-1,-9.8759663E-1,-1.6517574E0,8.64034E-1,-1.8867823E0,2.0324762E0,-1.2670721E0,5.3010297E0,2.729714E0,-1.2968172E-1,2.0856094E0,-5.9086066E-2,-1.3106788E0,-1.0050254E0,-1.2962002E-1,-8.195431E-1,-8.6453605E-1,-1.1155268E0,-6.628782E-1,-1.4214814E-1,-5.402635E-1,-8.780519E-1,1.3296914E0,3.0510557E-1,-7.158726E-1,-9.622533E-1,-2.8033184E-3,8.1351274E-1,1.0236863E-2,5.5846114E-2,-1.6295454E-1,1.327654E0,-1.7814052E0,2.8189397E0,-1.336049E0,-1.7339729E0,9.9371004E-1,7.4143386E-1,2.8139226E0,-5.941145E-1,2.423277E-1,1.939448E-2,2.410268E-1,2.2933036E-1,2.1745308E-1,1.7993423E-1,2.4445866E-1,2.2607048E-1,2.4398959E-1,2.2219001E-1,2.2333322E-1,2.05364E-1,2.1188962E-1,1.9768576E-1,1.980244E-1,1.8113911E-1,2.1443062E-1,1.9662862E-1,2.0170404E-1,1.7899567E-1,1.8302199E-1,1.6087452E-1,9.085549E-2,1.5323806E-1,1.8558936E-1,1.6975214E-1,1.7571317E-1,1.5047432E-1,1.6446541E-1,8.000755E-2,1.3994654E-1,1.1196624E-1,1.8742603E-1,1.6640235E-1,9.253701E-2,1.5309602E-1,7.950974E-2,1.2151096E-1,1.4388809E-1,1.15038574E-1,1.3187402E-1,1.908384E-1,1.3863373E-1,1.0548137E-1,1.3994063E-1,9.2571996E-2,7.7135175E-2,4.9291994E-2,1.985893E-1,1.4647014E-1,1.350439E-1,5.792686E-2,1.3278714E-1,9.409097E-2,8.78112E-2,4.328373E-2,-1.7234087E-2,8.461032E-2,8.36175E-2,5.492333E-2,2.5560595E-2,-1.4505309E-2,-8.8015996E-2,-2.8788367E-2],"split_indices":[308,441,441,346,4,4,99,289,4,441,441,4,441,137,308,137,52,4,270,99,442,270,270,289,442,9,156,294,441,442,441,123,286,442,205,218,28,39,47,61,28,4,125,251,9,441,441,80,442,140,289,256,175,194,289,427,441,294,408,47,4,61,442,0,0,0,0,0,0,0,0,0,0,0,0,0,0,0,0,0,0,0,0,0,0,0,0,0,0,0,0,0,0,0,0,0,0,0,0,0,0,0,0,0,0,0,0,0,0,0,0,0,0,0,0,0,0,0,0,0,0,0,0,0,0,0,0],"split_type":[0,0,0,0,0,0,0,0,0,0,0,0,0,0,0,0,0,0,0,0,0,0,0,0,0,0,0,0,0,0,0,0,0,0,0,0,0,0,0,0,0,0,0,0,0,0,0,0,0,0,0,0,0,0,0,0,0,0,0,0,0,0,0,0,0,0,0,0,0,0,0,0,0,0,0,0,0,0,0,0,0,0,0,0,0,0,0,0,0,0,0,0,0,0,0,0,0,0,0,0,0,0,0,0,0,0,0,0,0,0,0,0,0,0,0,0,0,0,0,0,0,0,0,0,0,0,0],"sum_hessian":[6.700052E5,4.3161162E5,2.3839358E5,1.7784705E5,2.5376458E5,1.6298056E5,7.5413E4,6.5123656E4,1.1272339E5,1.1006232E5,1.4370227E5,1.0183482E5,6.1145746E4,2.6375799E4,4.9037203E4,2.9560281E4,3.5563375E4,4.340046E4,6.932293E4,7.382841E4,3.6233914E4,7.673688E4,6.6965375E4,2.8357719E4,7.34771E4,3.1242197E4,2.9903549E4,7.2815073E3,1.9094293E4,3.4573156E4,1.4464044E4,2.1291717E4,8.268564E3,2.7729092E4,7.834285E3,7.1457305E3,3.625473E4,2.8760795E4,4.0562137E4,2.4035473E4,4.9792934E4,3.4826E4,1.4079156E3,3.440877E4,4.2328113E4,1.4778694E4,5.2186684E4,2.2456879E4,5.900842E3,9.09076E3,6.4386344E4,3.7825356E3,2.7459662E4,1.4723953E4,1.5179596E4,2.1003396E3,5.1811675E3,1.4402726E4,4.6915674E3,3.792966E3,3.0780191E4,1.2945857E4,1.5181868E3,2.1290295E4,1.4211752E0,3.7907058E3,4.4778584E3,2.7058143E4,6.709489E2,2.7514038E3,5.0828813E3,9.6034674E2,6.185384E3,3.4677268E3,3.2787004E4,4.5806113E3,2.4180184E4,9.41309E3,3.1149047E4,5.550293E3,1.848518E4,4.8130776E3,4.4979855E4,1.2082167E4,2.2743832E4,1.0636171E3,3.4429855E2,1.5673856E4,1.8734914E4,1.0711808E4,3.1616307E4,1.4227143E4,5.515517E2,3.607139E4,1.6115291E4,4.3521885E3,1.810469E4,6.1104254E2,5.2897993E3,4.2827573E3,4.808003E3,4.958125E4,1.4805094E4,2.97204E3,8.104956E2,3.7499807E3,2.3709682E4,1.9226056E3,1.2801348E4,9.96378E3,5.215815E3,1.1677704E3,9.325692E2,4.743777E3,4.373908E2,4.3103735E3,1.0092352E4,1.2592224E3,3.432345E3,2.9902913E3,8.026746E2,1.2846526E4,1.7933666E4,9.380745E3,3.5651123E3,5.572425E2,9.609443E2],"tree_param":{"num_deleted":"0","num_feature":"456","num_nodes":"127","size_leaf_vector":"1"}},{"base_weights":[-3.534319E-1,-4.5067164E-1,-2.3432681E-1,-5.246619E-1,-4.0126207E-1,-2.843771E-1,-1.23950936E-1,-5.884601E-1,-4.9619296E-1,-4.5607868E-1,-3.6959606E-1,-3.7046477E-1,-2.4912146E-1,-2.4236153E-1,-7.9799324E-2,-6.087574E-1,-5.5342954E-1,-5.283844E-1,-4.7384962E-1,-4.6211717E-1,-3.3091438E-1,-4.0024662E-1,-3.2780936E-1,-4.1895428E-1,-3.472071E-1,-2.86667E-1,-2.0728259E-1,-3.2270834E-1,-2.0471418E-1,-1.1245372E-1,2.5890017E-2,-6.1624426E-1,-5.914904E-1,-5.5845547E-1,-4.4485152E-1,-5.335169E-1,-4.3679002E-1,-4.9118212E-1,-4.3944967E-1,-5.072387E-1,-4.4505528E-1,-3.7865308E-1,-2.2914979E-1,-4.2825705E-1,-3.7411314E-1,-3.3951086E-1,-2.4081594E-1,-3.829419E-1,-4.5980188E-1,-3.6749586E-1,-2.8576502E-1,-3.4141085E-1,-2.6825407E-1,-2.416248E-1,-1.5143628E-1,-3.733463E-1,-2.2007763E-1,-2.5744238E-1,-1.5278126E-1,2.6760282E-2,-1.2900299E-1,2.1804558E-1,-1.4579994E-2,-1.8493319E-1,8.395922E-2,-1.8387356E-1,-1.7316511E-1,-1.8003786E-1,-1.6409141E-1,-1.3990492E-1,-2.6081296E-2,-1.7317829E-1,-1.578741E-1,-1.1416749E-1,-1.4577521E-1,-1.5325595E-1,-1.4175652E-1,-1.4843331E-1,-1.2857851E-1,-1.568636E-1,-1.4117816E-1,-1.4196546E-1,-1.2892732E-1,-1.3525951E-1,-1.0263501E-1,1.5465934E-2,-7.610368E-2,-1.2991811E-1,-9.922921E-2,-1.1988122E-1,-1.05615385E-1,-1.1953921E-1,-9.777351E-2,-3.4165494E-2,-7.8716196E-2,-1.3598299E-1,-1.0765731E-1,-1.5694419E-1,-1.3067225E-1,-1.0534953E-1,-1.2674193E-1,-1.0412602E-1,-7.39869E-2,-1.3770716E-1,-9.94592E-2,-5.1209666E-2,-8.356001E-2,-6.71755E-2,-9.30462E-2,-1.3207037E-2,-5.6354612E-2,-1.1713838E-1,-4.3178E-2,-1.1519562E-1,-4.9390826E-2,-8.213387E-2,-3.535413E-2,-5.6146827E-2,-1.4556034E-2,-1.7665599E-2,5.39942E-2,-4.4673365E-2,-1.8765336E-2,-1.1888759E-2,9.46675E-2,-3.375853E-2,1.7325025E-2],"categories":[],"categories_nodes":[],"categories_segments":[],"categories_sizes":[],"default_left":[0,0,0,0,0,0,0,0,0,0,0,0,0,0,0,0,0,0,0,0,0,0,0,0,0,0,0,0,0,0,0,0,0,0,0,0,0,0,0,0,0,0,0,0,0,0,0,0,0,0,0,0,0,0,0,0,0,0,0,0,0,0,0,0,0,0,0,0,0,0,0,0,0,0,0,0,0,0,0,0,0,0,0,0,0,0,0,0,0,0,0,0,0,0,0,0,0,0,0,0,0,0,0,0,0,0,0,0,0,0,0,0,0,0,0,0,0,0,0,0,0,0,0,0,0,0,0],"id":8,"left_children":[1,3,5,7,9,11,13,15,17,19,21,23,25,27,29,31,33,35,37,39,41,43,45,47,49,51,53,55,57,59,61,63,65,67,69,71,73,75,77,79,81,83,85,87,89,91,93,95,97,99,101,103,105,107,109,111,113,115,117,119,121,123,125,-1,-1,-1,-1,-1,-1,-1,-1,-1,-1,-1,-1,-1,-1,-1,-1,-1,-1,-1,-1,-1,-1,-1,-1,-1,-1,-1,-1,-1,-1,-1,-1,-1,-1,-1,-1,-1,-1,-1,-1,-1,-1,-1,-1,-1,-1,-1,-1,-1,-1,-1,-1,-1,-1,-1,-1,-1,-1,-1,-1,-1,-1,-1,-1],"loss_changes":[5.708457E3,9.918125E2,1.223835E3,1.9703906E2,2.8226172E2,4.6252246E2,3.6133545E2,2.349414E1,5.3789062E1,4.487207E1,1.3196484E2,4.97959E1,1.6981494E2,5.6716675E1,1.7376434E2,2.3774414E0,6.4680176E0,1.4233398E1,2.6232422E1,4.3523438E1,1.325E1,4.3387695E1,4.4347656E1,2.0933105E1,3.7210938E1,5.735547E1,9.8062256E1,3.103595E1,3.497119E1,8.862033E1,9.2425896E1,2.8164062E0,1.6152344E0,5.298584E0,4.18676E0,8.961914E0,4.341156E0,1.058252E1,8.718994E0,8.686279E0,1.756543E1,4.771881E0,6.0662727E0,1.3300781E1,1.7171875E1,3.0710938E1,1.4148376E1,1.27664795E1,1.0083496E1,2.0052734E1,1.7761292E1,1.6512451E1,4.272412E1,3.8360596E1,7.617944E1,1.5681335E1,1.7935944E1,1.4432739E1,2.3084946E1,5.3649254E1,4.547003E1,5.196599E1,6.956429E1,0E0,0E0,0E0,0E0,0E0,0E0,0E0,0E0,0E0,0E0,0E0,0E0,0E0,0E0,0E0,0E0,0E0,0E0,0E0,0E0,0E0,0E0,0E0,0E0,0E0,0E0,0E0,0E0,0E0,0E0,0E0,0E0,0E0,0E0,0E0,0E0,0E0,0E0,0E0,0E0,0E0,0E0,0E0,0E0,0E0,0E0,0E0,0E0,0E0,0E0,0E0,0E0,0E0,0E0,0E0,0E0,0E0,0E0,0E0,0E0,0E0,0E0,0E0,0E0],"parents":[2147483647,0,0,1,1,2,2,3,3,4,4,5,5,6,6,7,7,8,8,9,9,10,10,11,11,12,12,13,13,14,14,15,15,16,16,17,17,18,18,19,19,20,20,21,21,22,22,23,23,24,24,25,25,26,26,27,27,28,28,29,29,30,30,31,31,32,32,33,33,34,34,35,35,36,36,37,37,38,38,39,39,40,40,41,41,42,42,43,43,44,44,45,45,46,46,47,47,48,48,49,49,50,50,51,51,52,52,53,53,54,54,55,55,56,56,57,57,58,58,59,59,60,60,61,61,62,62],"right_children":[2,4,6,8,10,12,14,16,18,20,22,24,26,28,30,32,34,36,38,40,42,44,46,48,50,52,54,56,58,60,62,64,66,68,70,72,74,76,78,80,82,84,86,88,90,92,94,96,98,100,102,104,106,108,110,112,114,116,118,120,122,124,126,-1,-1,-1,-1,-1,-1,-1,-1,-1,-1,-1,-1,-1,-1,-1,-1,-1,-1,-1,-1,-1,-1,-1,-1,-1,-1,-1,-1,-1,-1,-1,-1,-1,-1,-1,-1,-1,-1,-1,-1,-1,-1,-1,-1,-1,-1,-1,-1,-1,-1,-1,-1,-1,-1,-1,-1,-1,-1,-1,-1,-1,-1,-1,-1],"split_conditions":[-1.1136677E-1,-6.184595E-1,8.9394313E-1,-8.1909525E-1,-4.3903807E-1,-1.9110405E-1,1.9435626E-2,-9.030017E-1,-7.339692E-1,1.8050848E0,-2.8890705E-1,-9.8843485E-1,2.208382E-1,-1.5086094E0,2.6017404E0,-9.957029E-1,1.7146673E0,1.6398456E0,-2.3164777E-1,-7.43972E-1,-1.4161342E-1,-3.8985565E-1,2.9248807E-1,-2.652905E-3,4.3080574E-1,-2.6385143E-1,7.877706E-1,1.8367668E0,-1.9107977E-1,-1.2670721E0,-9.254235E-1,6.3457875E0,-1.2969144E-1,-1.2967332E-1,1.6756812E0,-9.2414343E-1,-5.828164E-5,-1.6850738E-2,-1.4176505E0,6.75905E-1,-5.0469977E-1,-7.217385E-1,-5.481053E-1,1.7146673E0,-6.899502E-3,-5.2497214E-1,-1.7996938E0,-1.5756546E0,-6.3740504E-1,1.4284555E0,-4.7170082E-1,-1.8871772E0,-1.3593601E0,9.327241E-1,-4.9407703E-1,-9.3922716E-1,-5.346859E-1,2.602024E0,1.9282254E0,1.155937E0,2.1442995E0,1.2822093E0,1.4828072E0,-1.8493319E-1,8.395922E-2,-1.8387356E-1,-1.7316511E-1,-1.8003786E-1,-1.6409141E-1,-1.3990492E-1,-2.6081296E-2,-1.7317829E-1,-1.578741E-1,-1.1416749E-1,-1.4577521E-1,-1.5325595E-1,-1.4175652E-1,-1.4843331E-1,-1.2857851E-1,-1.568636E-1,-1.4117816E-1,-1.4196546E-1,-1.2892732E-1,-1.3525951E-1,-1.0263501E-1,1.5465934E-2,-7.610368E-2,-1.2991811E-1,-9.922921E-2,-1.1988122E-1,-1.05615385E-1,-1.1953921E-1,-9.777351E-2,-3.4165494E-2,-7.8716196E-2,-1.3598299E-1,-1.0765731E-1,-1.5694419E-1,-1.3067225E-1,-1.0534953E-1,-1.2674193E-1,-1.0412602E-1,-7.39869E-2,-1.3770716E-1,-9.94592E-2,-5.1209666E-2,-8.356001E-2,-6.71755E-2,-9.30462E-2,-1.3207037E-2,-5.6354612E-2,-1.1713838E-1,-4.3178E-2,-1.1519562E-1,-4.9390826E-2,-8.213387E-2,-3.535413E-2,-5.6146827E-2,-1.4556034E-2,-1.7665599E-2,5.39942E-2,-4.4673365E-2,-1.8765336E-2,-1.1888759E-2,9.46675E-2,-3.375853E-2,1.7325025E-2],"split_indices":[365,441,441,4,23,156,156,441,327,442,441,332,441,351,422,4,442,442,4,99,441,289,441,120,441,4,118,441,4,442,442,2,362,286,24,365,369,446,9,442,365,175,351,442,4,270,442,199,23,332,42,256,62,43,446,408,99,441,441,384,308,308,175,0,0,0,0,0,0,0,0,0,0,0,0,0,0,0,0,0,0,0,0,0,0,0,0,0,0,0,0,0,0,0,0,0,0,0,0,0,0,0,0,0,0,0,0,0,0,0,0,0,0,0,0,0,0,0,0,0,0,0,0,0,0,0,0],"split_type":[0,0,0,0,0,0,0,0,0,0,0,0,0,0,0,0,0,0,0,0,0,0,0,0,0,0,0,0,0,0,0,0,0,0,0,0,0,0,0,0,0,0,0,0,0,0,0,0,0,0,0,0,0,0,0,0,0,0,0,0,0,0,0,0,0,0,0,0,0,0,0,0,0,0,0,0,0,0,0,0,0,0,0,0,0,0,0,0,0,0,0,0,0,0,0,0,0,0,0,0,0,0,0,0,0,0,0,0,0,0,0,0,0,0,0,0,0,0,0,0,0,0,0,0,0,0,0],"sum_hessian":[4.9289222E5,2.7135216E5,2.2154008E5,1.0864623E5,1.6270592E5,1.5242217E5,6.91179E4,3.3516613E4,7.512961E4,5.9570598E4,1.0313532E5,4.428268E4,1.081395E5,1.877108E4,5.0346816E4,2.1210502E4,1.2306113E4,3.0771906E4,4.4357703E4,5.6826344E4,2.744254E3,5.9490477E4,4.3644844E4,1.4349218E4,2.9933463E4,5.6990926E4,5.1148574E4,5.986705E3,1.2784374E4,3.8463E4,1.1883815E4,1.4771128E4,6.439374E3,1.175772E4,5.483929E2,2.9134523E4,1.6373826E3,2.9487232E4,1.4870472E4,1.558413E4,4.1242215E4,1.8661193E3,8.781345E2,2.870665E4,3.0783826E4,3.846766E4,5.177183E3,7.63147E3,6.7177476E3,2.2499064E4,7.4343984E3,1.4339705E4,4.265122E4,3.1670025E4,1.9478549E4,4.00701E3,1.9796951E3,6.3416514E3,6.442723E3,4.0864858E3,3.4376516E4,2.0666711E3,9.817145E3,1.4768148E4,2.9793708E0,2.558148E3,3.8812263E3,2.5291958E3,9.228524E3,5.170341E2,3.135877E1,4.14074E3,2.4993783E4,7.6756476E2,8.6981775E2,1.4342039E4,1.5145194E4,2.4315957E3,1.2438876E4,1.0913143E4,4.670987E3,1.4506234E4,2.6735979E4,6.231542E2,1.2429651E3,7.0480354E1,8.076542E2,2.7355451E4,1.3511979E3,1.4274063E4,1.6509764E4,7.2050557E3,3.1262605E4,7.529469E2,4.4242363E3,1.942076E3,5.689394E3,1.8528154E3,4.864932E3,1.7352074E4,5.1469897E3,2.893478E3,4.5409204E3,1.1077446E3,1.323196E4,4.0674016E3,3.8583816E4,2.5170715E4,6.49931E3,4.931968E3,1.454658E4,3.7281821E3,2.7882785E2,4.9887927E2,1.4808158E3,5.6763706E3,6.6528076E2,4.8446504E3,1.5980728E3,2.6216675E3,1.4648181E3,2.645089E4,7.9256226E3,5.675443E2,1.499127E3,4.169843E3,5.647302E3],"tree_param":{"num_deleted":"0","num_feature":"456","num_nodes":"127","size_leaf_vector":"1"}},{"base_weights":[-2.9615852E-1,-3.963972E-1,-2.0802277E-1,-4.7258624E-1,-3.447927E-1,-2.520149E-1,-1.19652055E-1,-5.503593E-1,-4.3903452E-1,-3.8808137E-1,-3.2076195E-1,-2.871542E-1,-1.9559304E-1,-1.8398933E-1,-6.760762E-2,-5.8138055E-1,-5.1965237E-1,-4.765544E-1,-4.1721144E-1,-3.9703867E-1,-2.617334E-1,-3.475315E-1,-2.8027812E-1,-3.6713573E-1,-2.7029344E-1,-2.1758525E-1,-9.207846E-2,-1.935671E-1,8.777813E-3,-1.0742081E-1,-2.9799381E-2,-5.8153564E-1,-7.878785E-2,-5.647861E-1,-5.064666E-1,-4.3978146E-1,-5.030739E-1,-4.4851553E-1,-3.9456823E-1,-3.7069827E-1,-4.3018854E-1,-2.7145207E-1,3.398518E-1,-3.18043E-1,-3.6981726E-1,-2.9353553E-1,-2.1618688E-1,-2.3939294E-1,-3.761892E-1,-3.4214684E-1,-2.6029184E-1,-2.8978285E-1,-1.9943349E-1,-2.1523942E-1,-5.9076343E-2,-2.4221621E-1,-1.641878E-1,-9.271214E-2,1.7192726E-1,1.23931855E-1,-1.1775672E-1,-4.674322E-2,1.7013891E-1,-1.744844E-1,3.2553695E-2,1.981406E-1,-1.3362542E-1,-1.6973385E-1,1.7108424E-3,-1.3622361E-1,-1.5634058E-1,-1.2516795E-1,-1.4212328E-1,-1.5755194E-1,-1.4533584E-1,-1.2416796E-1,-1.3910086E-1,-1.359895E-1,-1.1480289E-1,-1.1286483E-1,-5.479741E-2,-1.434243E-1,-1.2266463E-1,-6.7623585E-2,-1.14798255E-1,-7.620816E-2,1.981381E-1,-1.0171256E-1,-7.330068E-2,-1.2520494E-1,-1.0278874E-1,-8.294407E-2,-1.0326484E-1,-6.800237E-2,1.62769E-2,-8.9881614E-2,-2.14594E-3,-1.1574459E-1,-8.245428E-2,-6.281168E-2,-1.1261635E-1,-8.617292E-2,-6.5505E-2,-3.220775E-2,-9.050295E-2,-7.3792346E-2,-5.3469446E-2,-7.5947315E-2,6.5823376E-2,-2.480665E-2,1.788422E-2,-7.775696E-2,-3.7062168E-2,2.5630607E-3,-5.3184237E-2,-6.185685E-2,-4.241835E-3,-9.361473E-2,7.509161E-2,2.3116282E-1,2.0706484E-2,-3.16135E-2,-6.509559E-2,-4.7170047E-2,-7.1527683E-3,3.1830558E-1,4.3256264E-2],"categories":[],"categories_nodes":[],"categories_segments":[],"categories_sizes":[],"default_left":[0,0,0,0,0,0,0,0,0,0,0,0,0,0,0,0,0,0,0,0,0,0,0,0,0,0,0,0,0,0,0,0,0,0,0,0,0,0,0,0,0,0,0,0,0,0,0,0,0,0,0,0,0,0,0,0,0,0,0,0,0,0,0,0,0,0,0,0,0,0,0,0,0,0,0,0,0,0,0,0,0,0,0,0,0,0,0,0,0,0,0,0,0,0,0,0,0,0,0,0,0,0,0,0,0,0,0,0,0,0,0,0,0,0,0,0,0,0,0,0,0,0,0,0,0,0,0],"id":9,"left_children":[1,3,5,7,9,11,13,15,17,19,21,23,25,27,29,31,33,35,37,39,41,43,45,47,49,51,53,55,57,59,61,63,65,67,69,71,73,75,77,79,81,83,85,87,89,91,93,95,97,99,101,103,105,107,109,111,113,115,117,119,121,123,125,-1,-1,-1,-1,-1,-1,-1,-1,-1,-1,-1,-1,-1,-1,-1,-1,-1,-1,-1,-1,-1,-1,-1,-1,-1,-1,-1,-1,-1,-1,-1,-1,-1,-1,-1,-1,-1,-1,-1,-1,-1,-1,-1,-1,-1,-1,-1,-1,-1,-1,-1,-1,-1,-1,-1,-1,-1,-1,-1,-1,-1,-1,-1,-1],"loss_changes":[3.9092617E3,8.1383594E2,9.1538184E2,2.1790625E2,1.2828125E2,3.1162695E2,2.6204102E2,2.3694824E1,4.7625977E1,4.9757812E1,8.592871E1,1.3053711E2,1.3733594E2,6.4616455E1,6.512364E1,9.296875E-1,7.2539062E0,2.071875E1,2.6005371E1,3.5762695E1,1.7161835E1,3.128125E1,2.6787354E1,1.9412598E1,5.7410156E1,6.515723E1,4.296718E1,4.7613525E1,2.746114E1,5.040718E1,7.51922E1,7.4658203E-1,1.654516E0,1.6217651E0,7.30542E0,6.7004395E0,4.876709E0,7.9384766E0,1.4802002E1,2.3723633E1,1.838501E1,1.4627365E1,9.090071E0,3.1759521E1,3.5016846E1,2.2535889E1,1.5385696E1,1.5642723E1,1.5253662E1,4.3055054E1,7.933301E1,2.1654541E1,3.919812E1,3.6879425E1,2.3381153E1,2.5251038E1,4.7020508E1,9.113954E0,2.4204058E1,3.1962824E1,2.4755554E1,5.1766457E1,3.99374E1,0E0,0E0,0E0,0E0,0E0,0E0,0E0,0E0,0E0,0E0,0E0,0E0,0E0,0E0,0E0,0E0,0E0,0E0,0E0,0E0,0E0,0E0,0E0,0E0,0E0,0E0,0E0,0E0,0E0,0E0,0E0,0E0,0E0,0E0,0E0,0E0,0E0,0E0,0E0,0E0,0E0,0E0,0E0,0E0,0E0,0E0,0E0,0E0,0E0,0E0,0E0,0E0,0E0,0E0,0E0,0E0,0E0,0E0,0E0,0E0,0E0,0E0,0E0,0E0],"parents":[2147483647,0,0,1,1,2,2,3,3,4,4,5,5,6,6,7,7,8,8,9,9,10,10,11,11,12,12,13,13,14,14,15,15,16,16,17,17,18,18,19,19,20,20,21,21,22,22,23,23,24,24,25,25,26,26,27,27,28,28,29,29,30,30,31,31,32,32,33,33,34,34,35,35,36,36,37,37,38,38,39,39,40,40,41,41,42,42,43,43,44,44,45,45,46,46,47,47,48,48,49,49,50,50,51,51,52,52,53,53,54,54,55,55,56,56,57,57,58,58,59,59,60,60,61,61,62,62],"right_children":[2,4,6,8,10,12,14,16,18,20,22,24,26,28,30,32,34,36,38,40,42,44,46,48,50,52,54,56,58,60,62,64,66,68,70,72,74,76,78,80,82,84,86,88,90,92,94,96,98,100,102,104,106,108,110,112,114,116,118,120,122,124,126,-1,-1,-1,-1,-1,-1,-1,-1,-1,-1,-1,-1,-1,-1,-1,-1,-1,-1,-1,-1,-1,-1,-1,-1,-1,-1,-1,-1,-1,-1,-1,-1,-1,-1,-1,-1,-1,-1,-1,-1,-1,-1,-1,-1,-1,-1,-1,-1,-1,-1,-1,-1,-1,-1,-1,-1,-1,-1,-1,-1,-1,-1,-1,-1],"split_conditions":[-2.3105167E-1,-6.288095E-1,5.6109273E-1,-8.748212E-1,-5.71264E-1,3.8688773E-1,4.934518E-1,-9.962942E-1,-6.5784574E-1,3.8688773E-1,-2.5157732E-1,-5.811475E-1,1.836887E0,3.1100268E0,-4.468173E-5,7.848558E-1,-1.2969686E-1,-1.6727598E-1,-7.1163595E-1,1.4311503E-1,2.4102986E0,-2.2743262E-1,4.7755998E-1,-1.2496727E0,-1.2395303E0,-4.7708112E-1,-1.4937253E0,-1.5588823E-1,2.7883754E-4,-1.9473288E0,4.132742E0,2.7297492E0,6.3105386E-1,-6.798508E-1,-6.3991046E-1,-2.8423502E-3,-7.859709E-1,-6.052259E-1,-1.0536019E0,1.3799268E0,-7.6215917E-1,1.2039083E0,-7.390611E-1,-5.444882E-5,-5.2676E-1,1.0103627E0,2.0856094E0,4.6109307E-1,1.9213709E0,-6.9442505E-1,6.492683E-2,-1.4221314E0,-9.718468E-1,5.3010297E0,9.3289423E-1,1.0999527E0,-2.1136525E-1,-3.7469602E-1,-1.7804916E0,-2.1948154E0,1.2511364E0,-1.0960217E0,-7.8456277E-1,-1.744844E-1,3.2553695E-2,1.981406E-1,-1.3362542E-1,-1.6973385E-1,1.7108424E-3,-1.3622361E-1,-1.5634058E-1,-1.2516795E-1,-1.4212328E-1,-1.5755194E-1,-1.4533584E-1,-1.2416796E-1,-1.3910086E-1,-1.359895E-1,-1.1480289E-1,-1.1286483E-1,-5.479741E-2,-1.434243E-1,-1.2266463E-1,-6.7623585E-2,-1.14798255E-1,-7.620816E-2,1.981381E-1,-1.0171256E-1,-7.330068E-2,-1.2520494E-1,-1.0278874E-1,-8.294407E-2,-1.0326484E-1,-6.800237E-2,1.62769E-2,-8.9881614E-2,-2.14594E-3,-1.1574459E-1,-8.245428E-2,-6.281168E-2,-1.1261635E-1,-8.617292E-2,-6.5505E-2,-3.220775E-2,-9.050295E-2,-7.3792346E-2,-5.3469446E-2,-7.5947315E-2,6.5823376E-2,-2.480665E-2,1.788422E-2,-7.775696E-2,-3.7062168E-2,2.5630607E-3,-5.3184237E-2,-6.185685E-2,-4.241835E-3,-9.361473E-2,7.509161E-2,2.3116282E-1,2.0706484E-2,-3.16135E-2,-6.509559E-2,-4.7170047E-2,-7.1527683E-3,3.1830558E-1,4.3256264E-2],"split_indices":[308,441,4,308,232,441,441,156,80,441,441,4,327,23,160,68,400,446,346,446,442,442,441,442,47,4,176,34,160,370,232,142,374,403,446,368,4,442,43,366,194,332,251,388,81,427,442,251,43,442,99,442,313,441,442,62,41,271,66,366,271,66,195,0,0,0,0,0,0,0,0,0,0,0,0,0,0,0,0,0,0,0,0,0,0,0,0,0,0,0,0,0,0,0,0,0,0,0,0,0,0,0,0,0,0,0,0,0,0,0,0,0,0,0,0,0,0,0,0,0,0,0,0,0,0,0,0],"split_type":[0,0,0,0,0,0,0,0,0,0,0,0,0,0,0,0,0,0,0,0,0,0,0,0,0,0,0,0,0,0,0,0,0,0,0,0,0,0,0,0,0,0,0,0,0,0,0,0,0,0,0,0,0,0,0,0,0,0,0,0,0,0,0,0,0,0,0,0,0,0,0,0,0,0,0,0,0,0,0,0,0,0,0,0,0,0,0,0,0,0,0,0,0,0,0,0,0,0,0,0,0,0,0,0,0,0,0,0,0,0,0,0,0,0,0,0,0,0,0,0,0,0,0,0,0,0,0],"sum_hessian":[4.4250197E5,2.0703416E5,2.354678E5,8.359947E4,1.2343469E5,1.5720647E5,7.8261336E4,2.5191057E4,5.8408414E4,4.40566E4,7.9378086E4,9.687132E4,6.033514E4,3.4996348E4,4.3264992E4,1.252247E4,1.2668587E4,2.1471734E4,3.693668E4,4.1138023E4,2.9185776E3,4.7777844E4,3.160024E4,1.686218E4,8.000914E4,4.976187E4,1.0573272E4,3.3339832E4,1.6565161E3,2.1072834E4,2.2192156E4,1.2518451E4,4.0190473E0,2.8548394E3,9.813748E3,9.004011E3,1.2467724E4,1.5495474E4,2.1441205E4,2.2930191E4,1.820783E4,2.8727175E3,4.5860146E1,2.0572113E4,2.720573E4,2.6181057E4,5.4191836E3,1.1177916E3,1.5744388E4,9.772009E3,7.023713E4,9.994472E3,3.97674E4,2.233295E3,8.339978E3,1.2550404E4,2.0789428E4,1.02150366E3,6.350124E2,9.007182E2,2.0172115E4,2.045911E4,1.7330481E3,1.2517174E4,1.277441E0,1.0667148E0,2.9523327E0,2.8498848E3,4.9544125E0,2.1537505E3,7.6599976E3,5.418696E3,3.5853152E3,5.6889644E3,6.7787593E3,4.726075E3,1.0769398E4,3.604211E3,1.7836994E4,2.2275541E4,6.546512E2,5.599621E3,1.2608209E4,2.0337694E3,8.3894806E2,1.6150831E1,2.9709312E1,1.6007937E4,4.5641772E3,9.893959E3,1.7311771E4,1.9593727E4,6.58733E3,5.217031E3,2.0215283E2,8.874213E2,2.3037033E2,1.4376049E4,1.3683391E3,1.958092E3,7.813917E3,4.2756555E4,2.748058E4,6.123472E2,9.382125E3,1.2442972E4,2.7324426E4,2.0544824E3,1.7881253E2,6.9563687E3,1.3836094E3,1.0978949E4,1.5714554E3,1.4648265E3,1.9324602E4,4.172593E2,6.042444E2,8.808928E1,5.469231E2,6.948192E1,8.3123627E2,1.7936648E4,2.2354668E3,3.5114292E3,1.694768E4,4.7925823E1,1.6851222E3],"tree_param":{"num_deleted":"0","num_feature":"456","num_nodes":"127","size_leaf_vector":"1"}},{"base_weights":[4.0718067E-1,5.1244503E-1,2.9740694E-1,5.997154E-1,4.6316794E-1,3.6904275E-1,2.0795435E-1,6.769707E-1,5.665119E-1,5.063716E-1,4.272572E-1,4.21629E-1,3.256018E-1,2.411893E-1,5.5271782E-2,6.924052E-1,6.3275534E-1,5.8694977E-1,5.34542E-1,5.5891764E-1,4.8934722E-1,4.877707E-1,4.0322626E-1,4.4880626E-1,3.728693E-1,3.5447004E-1,2.57853E-1,2.8771654E-1,1.8264101E-1,8.998811E-2,-5.1780153E-2,7.002034E-1,6.74403E-1,6.1657095E-1,6.7158014E-1,6.2375826E-1,5.7335645E-1,5.646636E-1,5.1147527E-1,6.0465E-1,5.472196E-1,5.145645E-1,4.571686E-1,5.4917425E-1,4.6931618E-1,4.376647E-1,3.7560946E-1,4.981578E-1,4.2439678E-1,3.917895E-1,2.724224E-1,4.092205E-1,3.3288792E-1,2.3669662E-1,3.740993E-1,3.8151714E-1,2.6947156E-1,2.4561913E-1,1.467484E-1,-9.6687935E-2,1.0560594E-1,-1.6296628E-1,-1.1868611E-2,2.1010876E-1,-6.2109955E-2,2.0873556E-1,1.963134E-1,1.6718143E-1,1.8891825E-1,2.0492376E-1,1.6956908E-1,1.8219437E-1,2.0110612E-1,1.8431619E-1,1.6971901E-1,1.848596E-1,1.654652E-1,1.641162E-1,1.479654E-1,1.9578393E-1,1.7459536E-1,1.8036333E-1,1.6132408E-1,1.749998E-1,1.5199931E-1,1.4670308E-1,1.3196695E-1,1.8270028E-1,1.5305032E-1,1.5819421E-1,1.3658787E-1,1.4631964E-1,1.243405E-1,1.1880048E-1,9.873573E-2,1.471289E-1,1.8247154E-1,1.2481862E-1,1.544752E-1,1.02432564E-1,1.2958157E-1,9.1684096E-2,2.878161E-2,1.6210116E-1,1.1882978E-1,1.21030204E-1,9.456569E-2,9.1904014E-2,6.2018823E-2,1.6758583E-1,8.907519E-2,1.5071458E-1,1.0779871E-1,8.72024E-2,6.2492248E-2,1.3948809E-1,7.121937E-2,5.102823E-2,2.4290973E-2,-1.6015042E-2,-1.2818804E-1,1.1439789E-1,2.9075915E-2,5.8370467E-2,-5.8175568E-2,8.899656E-2,-8.523694E-3],"categories":[],"categories_nodes":[],"categories_segments":[],"categories_sizes":[],"default_left":[0,0,0,0,0,0,0,0,0,0,0,0,0,0,0,0,0,0,0,0,0,0,0,0,0,0,0,0,0,0,0,0,0,0,0,0,0,0,0,0,0,0,0,0,0,0,0,0,0,0,0,0,0,0,0,0,0,0,0,0,0,0,0,0,0,0,0,0,0,0,0,0,0,0,0,0,0,0,0,0,0,0,0,0,0,0,0,0,0,0,0,0,0,0,0,0,0,0,0,0,0,0,0,0,0,0,0,0,0,0,0,0,0,0,0,0,0,0,0,0,0,0,0,0,0,0,0],"id":10,"left_children":[1,3,5,7,9,11,13,15,17,19,21,23,25,27,29,31,33,35,37,39,41,43,45,47,49,51,53,55,57,59,61,63,65,67,69,71,73,75,77,79,81,83,85,87,89,91,93,95,97,99,101,103,105,107,109,111,113,115,117,119,121,123,125,-1,-1,-1,-1,-1,-1,-1,-1,-1,-1,-1,-1,-1,-1,-1,-1,-1,-1,-1,-1,-1,-1,-1,-1,-1,-1,-1,-1,-1,-1,-1,-1,-1,-1,-1,-1,-1,-1,-1,-1,-1,-1,-1,-1,-1,-1,-1,-1,-1,-1,-1,-1,-1,-1,-1,-1,-1,-1,-1,-1,-1,-1,-1,-1],"loss_changes":[7.4322344E3,1.4117344E3,2.0175469E3,3.035625E2,3.253672E2,3.9927148E2,7.105044E2,2.3864258E1,5.383789E1,8.49375E1,1.6646484E2,1.0463965E2,1.8717676E2,3.1318945E2,9.303313E1,3.2324219E0,5.383301E0,2.4933594E1,2.2175781E1,1.2133789E1,5.8148438E1,3.665039E1,7.78584E1,6.0960938E1,5.3700195E1,7.9197266E1,7.028088E1,1.0954736E2,1.1506555E2,5.5118958E1,2.7202295E1,2.7978516E0,2.9711914E0,4.7390137E0,2.9199219E0,1.0029297E1,1.1208984E1,9.128418E0,1.1630859E1,4.7697754E0,9.171875E0,2.1615234E1,1.7182617E1,1.7240479E1,2.0134766E1,4.2192383E1,4.3038574E1,1.3993164E1,2.5423828E1,4.800659E1,2.6276886E1,3.2436035E1,5.9904297E1,5.0468384E1,6.2553284E1,2.7791748E1,6.950488E1,3.3220703E1,4.9798157E1,2.0877235E1,4.1739212E1,1.7956886E1,2.303903E1,0E0,0E0,0E0,0E0,0E0,0E0,0E0,0E0,0E0,0E0,0E0,0E0,0E0,0E0,0E0,0E0,0E0,0E0,0E0,0E0,0E0,0E0,0E0,0E0,0E0,0E0,0E0,0E0,0E0,0E0,0E0,0E0,0E0,0E0,0E0,0E0,0E0,0E0,0E0,0E0,0E0,0E0,0E0,0E0,0E0,0E0,0E0,0E0,0E0,0E0,0E0,0E0,0E0,0E0,0E0,0E0,0E0,0E0,0E0,0E0,0E0,0E0,0E0,0E0],"parents":[2147483647,0,0,1,1,2,2,3,3,4,4,5,5,6,6,7,7,8,8,9,9,10,10,11,11,12,12,13,13,14,14,15,15,16,16,17,17,18,18,19,19,20,20,21,21,22,22,23,23,24,24,25,25,26,26,27,27,28,28,29,29,30,30,31,31,32,32,33,33,34,34,35,35,36,36,37,37,38,38,39,39,40,40,41,41,42,42,43,43,44,44,45,45,46,46,47,47,48,48,49,49,50,50,51,51,52,52,53,53,54,54,55,55,56,56,57,57,58,58,59,59,60,60,61,61,62,62],"right_children":[2,4,6,8,10,12,14,16,18,20,22,24,26,28,30,32,34,36,38,40,42,44,46,48,50,52,54,56,58,60,62,64,66,68,70,72,74,76,78,80,82,84,86,88,90,92,94,96,98,100,102,104,106,108,110,112,114,116,118,120,122,124,126,-1,-1,-1,-1,-1,-1,-1,-1,-1,-1,-1,-1,-1,-1,-1,-1,-1,-1,-1,-1,-1,-1,-1,-1,-1,-1,-1,-1,-1,-1,-1,-1,-1,-1,-1,-1,-1,-1,-1,-1,-1,-1,-1,-1,-1,-1,-1,-1,-1,-1,-1,-1,-1,-1,-1,-1,-1,-1,-1,-1,-1,-1,-1,-1],"split_conditions":[-2.117194E-1,-6.536452E-1,2.9211605E-1,-9.030017E-1,-3.0685958E-1,-2.3814797E-1,1.7529733E0,-8.6453605E-1,-6.4390916E-1,-6.9391966E-1,-5.8240855E-1,3.3164138E-1,5.447577E-1,5.7920915E-1,3.5186155E0,-1.0174891E0,-1.19937256E-1,-8.4130245E-1,-7.503662E-1,-8.7301356E-1,-4.8327348E-1,-1.1962035E0,-1.9123639E-1,-6.0195035E-1,1.202722E0,-3.252747E-1,1.1027249E0,-4.663139E-1,3.4533322E-1,-1.2844504E0,-8.420739E-1,6.786395E-1,-1.2967736E-1,-1.0730916E-4,-1.2956595E-1,-8.810913E-3,-1.5615846E-1,-1.2966357E-1,-1.2935054E-1,-1.0050888E0,-7.693832E-1,-8.007633E-1,-1.5605533E-1,-7.285323E-1,-7.0621777E-1,-7.006777E-1,3.3042455E-1,3.4458902E-1,1.5863894E0,-2.7641929E-3,1.5444101E0,-6.8939203E-1,-9.552493E-1,-2.3760676E-1,-1.0586132E0,-1.7803798E0,1.2815138E0,-2.4318686E0,1.7508397E0,2.532815E-4,-2.4319732E0,-2.0469508E-1,-2.4319665E0,2.1010876E-1,-6.2109955E-2,2.0873556E-1,1.963134E-1,1.6718143E-1,1.8891825E-1,2.0492376E-1,1.6956908E-1,1.8219437E-1,2.0110612E-1,1.8431619E-1,1.6971901E-1,1.848596E-1,1.654652E-1,1.641162E-1,1.479654E-1,1.9578393E-1,1.7459536E-1,1.8036333E-1,1.6132408E-1,1.749998E-1,1.5199931E-1,1.4670308E-1,1.3196695E-1,1.8270028E-1,1.5305032E-1,1.5819421E-1,1.3658787E-1,1.4631964E-1,1.243405E-1,1.1880048E-1,9.873573E-2,1.471289E-1,1.8247154E-1,1.2481862E-1,1.544752E-1,1.02432564E-1,1.2958157E-1,9.1684096E-2,2.878161E-2,1.6210116E-1,1.1882978E-1,1.21030204E-1,9.456569E-2,9.1904014E-2,6.2018823E-2,1.6758583E-1,8.907519E-2,1.5071458E-1,1.0779871E-1,8.72024E-2,6.2492248E-2,1.3948809E-1,7.121937E-2,5.102823E-2,2.4290973E-2,-1.6015042E-2,-1.2818804E-1,1.1439789E-1,2.9075915E-2,5.8370467E-2,-5.8175568E-2,8.899656E-2,-8.523694E-3],"split_indices":[441,270,232,441,137,4,441,61,441,4,441,441,441,4,441,137,393,175,194,4,441,66,289,156,442,232,9,4,441,442,423,291,248,350,343,439,72,438,438,180,441,441,34,441,365,9,4,410,389,7,441,232,9,232,427,313,270,9,270,331,180,23,332,0,0,0,0,0,0,0,0,0,0,0,0,0,0,0,0,0,0,0,0,0,0,0,0,0,0,0,0,0,0,0,0,0,0,0,0,0,0,0,0,0,0,0,0,0,0,0,0,0,0,0,0,0,0,0,0,0,0,0,0,0,0,0,0],"split_type":[0,0,0,0,0,0,0,0,0,0,0,0,0,0,0,0,0,0,0,0,0,0,0,0,0,0,0,0,0,0,0,0,0,0,0,0,0,0,0,0,0,0,0,0,0,0,0,0,0,0,0,0,0,0,0,0,0,0,0,0,0,0,0,0,0,0,0,0,0,0,0,0,0,0,0,0,0,0,0,0,0,0,0,0,0,0,0,0,0,0,0,0,0,0,0,0,0,0,0,0,0,0,0,0,0,0,0,0,0,0,0,0,0,0,0,0,0,0,0,0,0,0,0,0,0,0,0],"sum_hessian":[6.4320194E5,3.283431E5,3.1485884E5,1.1848806E5,2.0985503E5,1.7483981E5,1.4001905E5,3.561125E4,8.287681E4,9.52491E4,1.1460594E5,7.909038E4,9.574942E4,1.1498851E5,2.5030535E4,2.6385914E4,9.225336E3,5.054609E4,3.2330719E4,2.3300371E4,7.194873E4,3.2570186E4,8.203575E4,5.077929E4,2.8311098E4,6.713742E4,2.8611994E4,6.406963E4,5.0918875E4,1.8901156E4,6.129378E3,1.8384297E4,8.0016167E3,6.5230454E3,2.7022905E3,1.3620131E4,3.692596E4,1.401106E4,1.831966E4,4.73577E3,1.8564602E4,4.032915E4,3.161958E4,7.5200503E3,2.5050135E4,3.6502246E4,4.5533508E4,1.6797785E4,3.3981504E4,2.3821229E4,4.489867E3,1.8977232E4,4.816019E4,2.4209068E4,4.402927E3,1.0429572E4,5.364006E4,1.848274E4,3.2436137E4,1.4588373E3,1.7442318E4,1.618224E3,4.5111543E3,1.8381303E4,2.9951773E0,3.8533667E3,4.14825E3,1.1923246E3,5.3307207E3,2.4337224E3,2.68568E2,1.0077706E4,3.5424248E3,5.775183E3,3.1150775E4,2.8326008E3,1.1178459E4,6.202875E3,1.2116785E4,1.5108435E3,3.2249263E3,2.761627E3,1.5802975E4,4.1481733E3,3.6180973E4,1.1113015E4,2.0506564E4,2.9621714E3,4.557879E3,4.870407E3,2.0179727E4,1.1550787E4,2.4951459E4,3.1645326E4,1.3888182E4,1.5700961E4,1.096823E3,3.1121574E4,2.859931E3,1.0572566E4,1.3248663E4,3.7785122E3,7.1135516E2,1.7226935E3,1.725454E4,9.641827E3,3.8518363E4,7.2798774E3,1.6929191E4,1.2966853E3,3.1062412E3,1.6143148E3,8.815258E3,3.982915E4,1.3810908E4,6.657272E2,1.7817012E4,2.3938459E4,8.497677E3,1.2909088E3,1.6792859E2,5.3140546E2,1.6910914E4,1.2850914E2,1.4897148E3,2.2872504E2,4.282429E3],"tree_param":{"num_deleted":"0","num_feature":"456","num_nodes":"127","size_leaf_vector":"1"}},{"base_weights":[-2.9557464E-1,-3.9542452E-1,-1.8970981E-1,-4.872158E-1,-3.517067E-1,-2.576656E-1,-1.1895232E-1,-5.597822E-1,-4.5715123E-1,-3.9317E-1,-3.1319943E-1,-3.1102565E-1,-2.1937816E-1,-1.5388787E-1,-2.5328454E-2,-5.752344E-1,-5.1762927E-1,-4.6394992E-1,-3.3621874E-1,-4.3524003E-1,-3.7012026E-1,-3.5529116E-1,-2.7929693E-1,-3.670051E-1,-2.8570744E-1,-2.4737942E-1,-1.6667531E-1,-7.070796E-2,-1.6733752E-1,8.912265E-2,-6.2479753E-2,-5.8179164E-1,-5.559184E-1,-5.677916E-1,-5.035435E-1,-4.9997243E-1,-4.4831795E-1,-3.9172038E-1,-2.722115E-1,-4.7690427E-1,-4.2026266E-1,-4.0843904E-1,-3.4513852E-1,-3.7961388E-1,-3.2881555E-1,-3.3107156E-1,-2.575511E-1,-3.3120614E-1,-4.168829E-1,-3.132099E-1,-2.2403121E-1,-2.3183534E-1,-2.9357398E-1,-2.7646473E-1,-1.5426631E-1,-2.6926836E-1,-3.4716193E-2,-2.3850016E-1,-1.4873321E-1,1.06162E-3,2.0751269E-1,-9.762225E-2,1.445739E-3,-1.7468664E-1,3.814397E-3,-1.7324251E-1,-1.6174538E-1,-1.7171502E-1,-1.2532019E-2,-1.5142505E-1,1.0667862E-1,-1.4616913E-1,-1.6166128E-1,-1.4068575E-1,-1.2595806E-1,-1.0083208E-1,-1.3252494E-1,-1.11715816E-1,-5.4878123E-2,-1.4404754E-1,-9.256535E-2,-1.3818814E-1,-1.2126278E-1,-1.3553666E-1,-1.1761524E-1,-1.0539929E-1,-7.2234854E-2,-1.13957666E-1,4.044636E-1,-1.1118626E-1,-9.2458785E-2,-1.2985669E-1,-9.724061E-2,-1.0127339E-1,-7.172959E-2,-1.1262348E-1,-8.478639E-2,-1.4260486E-1,-1.1379716E-1,-9.544476E-2,-4.1614987E-2,-7.435188E-2,-4.5659177E-2,-8.990799E-2,-6.323128E-2,-1.2585586E-1,-8.330001E-2,-8.724513E-2,2.4066487E-2,-9.786742E-3,-4.992299E-2,-1.2657207E-1,-7.0324875E-2,2.6115118E-2,-4.0399518E-2,-1.1403319E-1,-6.7336544E-2,-6.560283E-2,-3.991775E-2,-6.393778E-2,7.9301605E-3,9.3132906E-2,2.766734E-2,-5.754966E-2,-2.0481236E-2,2.95664E-2,-1.9060552E-2],"categories":[],"categories_nodes":[],"categories_segments":[],"categories_sizes":[],"default_left":[0,0,0,0,0,0,0,0,0,0,0,0,0,0,0,0,0,0,0,0,0,0,0,0,0,0,0,0,0,0,0,0,0,0,0,0,0,0,0,0,0,0,0,0,0,0,0,0,0,0,0,0,0,0,0,0,0,0,0,0,0,0,0,0,0,0,0,0,0,0,0,0,0,0,0,0,0,0,0,0,0,0,0,0,0,0,0,0,0,0,0,0,0,0,0,0,0,0,0,0,0,0,0,0,0,0,0,0,0,0,0,0,0,0,0,0,0,0,0,0,0,0,0,0,0,0,0],"id":11,"left_children":[1,3,5,7,9,11,13,15,17,19,21,23,25,27,29,31,33,35,37,39,41,43,45,47,49,51,53,55,57,59,61,63,65,67,69,71,73,75,77,79,81,83,85,87,89,91,93,95,97,99,101,103,105,107,109,111,113,115,117,119,121,123,125,-1,-1,-1,-1,-1,-1,-1,-1,-1,-1,-1,-1,-1,-1,-1,-1,-1,-1,-1,-1,-1,-1,-1,-1,-1,-1,-1,-1,-1,-1,-1,-1,-1,-1,-1,-1,-1,-1,-1,-1,-1,-1,-1,-1,-1,-1,-1,-1,-1,-1,-1,-1,-1,-1,-1,-1,-1,-1,-1,-1,-1,-1,-1,-1],"loss_changes":[4.6794453E3,9.1403906E2,1.0331763E3,1.6008984E2,2.4627344E2,2.2386084E2,3.443136E2,1.3722656E1,4.257422E1,7.1893555E1,1.14089355E2,6.4791016E1,9.41416E1,8.575403E1,1.2164671E2,1.6699219E0,3.8010254E0,2.7481445E1,9.733429E0,1.6208496E1,4.5818848E1,2.2860352E1,4.981958E1,2.5317383E1,5.341748E1,2.9856445E1,3.0128967E1,7.6260574E1,8.733325E1,7.309329E1,4.8519936E1,3.4748535E0,1.1386719E0,3.0200806E0,4.870117E0,7.1132812E0,1.9958496E1,3.972763E0,1.1466568E1,3.6569824E0,1.2352295E1,1.3280029E1,1.8700684E1,8.384277E0,1.4624512E1,9.113403E0,4.6020752E1,1.7729004E1,1.2891846E1,1.875E1,1.6599915E1,4.451526E1,2.089746E1,1.1529678E1,2.9390259E1,8.612228E0,1.0998109E2,2.7113586E1,5.7325928E1,2.1860073E1,3.545877E1,3.852408E1,4.8358025E1,0E0,0E0,0E0,0E0,0E0,0E0,0E0,0E0,0E0,0E0,0E0,0E0,0E0,0E0,0E0,0E0,0E0,0E0,0E0,0E0,0E0,0E0,0E0,0E0,0E0,0E0,0E0,0E0,0E0,0E0,0E0,0E0,0E0,0E0,0E0,0E0,0E0,0E0,0E0,0E0,0E0,0E0,0E0,0E0,0E0,0E0,0E0,0E0,0E0,0E0,0E0,0E0,0E0,0E0,0E0,0E0,0E0,0E0,0E0,0E0,0E0,0E0,0E0,0E0],"parents":[2147483647,0,0,1,1,2,2,3,3,4,4,5,5,6,6,7,7,8,8,9,9,10,10,11,11,12,12,13,13,14,14,15,15,16,16,17,17,18,18,19,19,20,20,21,21,22,22,23,23,24,24,25,25,26,26,27,27,28,28,29,29,30,30,31,31,32,32,33,33,34,34,35,35,36,36,37,37,38,38,39,39,40,40,41,41,42,42,43,43,44,44,45,45,46,46,47,47,48,48,49,49,50,50,51,51,52,52,53,53,54,54,55,55,56,56,57,57,58,58,59,59,60,60,61,61,62,62],"right_children":[2,4,6,8,10,12,14,16,18,20,22,24,26,28,30,32,34,36,38,40,42,44,46,48,50,52,54,56,58,60,62,64,66,68,70,72,74,76,78,80,82,84,86,88,90,92,94,96,98,100,102,104,106,108,110,112,114,116,118,120,122,124,126,-1,-1,-1,-1,-1,-1,-1,-1,-1,-1,-1,-1,-1,-1,-1,-1,-1,-1,-1,-1,-1,-1,-1,-1,-1,-1,-1,-1,-1,-1,-1,-1,-1,-1,-1,-1,-1,-1,-1,-1,-1,-1,-1,-1,-1,-1,-1,-1,-1,-1,-1,-1,-1,-1,-1,-1,-1,-1,-1,-1,-1,-1,-1,-1],"split_conditions":[-1.4161342E-1,-6.5879565E-1,3.0462095E-1,-9.030017E-1,-2.884385E-1,-3.1295145E-1,1.4866767E0,-8.644391E-1,1.7146673E0,-5.927091E-1,-4.0111572E-1,-1.1153778E0,5.447577E-1,-1.32055E0,-7.9594606E-1,-9.957029E-1,-1.2964877E-1,-8.198815E-1,-7.272737E-1,-7.21201E-1,-5.141395E-1,-5.408408E-1,-1.5591356E-1,-2.798727E-3,4.3080574E-1,7.915627E-1,-4.390341E-1,-1.5755391E0,-1.1898128E-1,2.031666E0,2.8174589E0,6.786395E-1,-1.2970372E-1,4.3664103E0,1.5514445E0,-1.3475442E-1,-6.3886476E-1,-5.605006E-5,-1.4945254E-1,-1.8431845E-1,-7.633823E-1,-7.43797E-1,7.658641E-1,2.2736132E0,-5.9322506E-1,-1.2178193E0,-1.1963813E0,4.156441E-1,-5.86884E-1,1.9953735E0,1.3601546E0,-9.88347E-1,-1.0226686E0,3.1163583E0,-1.445617E0,-2.2904763E0,1.6433151E-1,-1.947012E0,-1.0585831E0,-2.0921297E0,-1.1385226E0,-6.8371636E-1,-6.885099E-1,-1.7468664E-1,3.814397E-3,-1.7324251E-1,-1.6174538E-1,-1.7171502E-1,-1.2532019E-2,-1.5142505E-1,1.0667862E-1,-1.4616913E-1,-1.6166128E-1,-1.4068575E-1,-1.2595806E-1,-1.0083208E-1,-1.3252494E-1,-1.11715816E-1,-5.4878123E-2,-1.4404754E-1,-9.256535E-2,-1.3818814E-1,-1.2126278E-1,-1.3553666E-1,-1.1761524E-1,-1.0539929E-1,-7.2234854E-2,-1.13957666E-1,4.044636E-1,-1.1118626E-1,-9.2458785E-2,-1.2985669E-1,-9.724061E-2,-1.0127339E-1,-7.172959E-2,-1.1262348E-1,-8.478639E-2,-1.4260486E-1,-1.1379716E-1,-9.544476E-2,-4.1614987E-2,-7.435188E-2,-4.5659177E-2,-8.990799E-2,-6.323128E-2,-1.2585586E-1,-8.330001E-2,-8.724513E-2,2.4066487E-2,-9.786742E-3,-4.992299E-2,-1.2657207E-1,-7.0324875E-2,2.6115118E-2,-4.0399518E-2,-1.1403319E-1,-6.7336544E-2,-6.560283E-2,-3.991775E-2,-6.393778E-2,7.9301605E-3,9.3132906E-2,2.766734E-2,-5.754966E-2,-2.0481236E-2,2.95664E-2,-1.9060552E-2],"split_indices":[441,270,232,441,4,175,441,23,442,441,365,389,441,62,442,4,77,194,175,4,137,441,175,121,441,62,4,370,4,346,289,291,438,7,446,239,441,369,24,384,441,4,270,289,9,256,9,441,213,442,423,9,389,441,442,332,442,256,9,351,214,366,199,0,0,0,0,0,0,0,0,0,0,0,0,0,0,0,0,0,0,0,0,0,0,0,0,0,0,0,0,0,0,0,0,0,0,0,0,0,0,0,0,0,0,0,0,0,0,0,0,0,0,0,0,0,0,0,0,0,0,0,0,0,0,0,0],"split_type":[0,0,0,0,0,0,0,0,0,0,0,0,0,0,0,0,0,0,0,0,0,0,0,0,0,0,0,0,0,0,0,0,0,0,0,0,0,0,0,0,0,0,0,0,0,0,0,0,0,0,0,0,0,0,0,0,0,0,0,0,0,0,0,0,0,0,0,0,0,0,0,0,0,0,0,0,0,0,0,0,0,0,0,0,0,0,0,0,0,0,0,0,0,0,0,0,0,0,0,0,0,0,0,0,0,0,0,0,0,0,0,0,0,0,0,0,0,0,0,0,0,0,0,0,0,0,0],"sum_hessian":[4.4269184E5,2.2781653E5,2.1487533E5,7.349467E4,1.5432186E5,1.09606336E5,1.0526899E5,2.1524242E4,5.1970426E4,7.430435E4,8.001751E4,4.5787117E4,6.3819223E4,7.6662055E4,2.8606936E4,1.574125E4,5.782992E3,4.920154E4,2.7688901E3,2.6294371E4,4.800998E4,3.5693117E4,4.4324387E4,1.4255093E4,3.1532023E4,4.1673953E4,2.2145268E4,1.0671285E4,6.599077E4,7.01E3,2.1596936E4,1.173011E4,4.0111404E3,1.2592455E3,4.5237466E3,1.4880284E4,3.4321254E4,1.4802358E3,1.2886543E3,6.9446904E3,1.934968E4,1.8941219E4,2.9068762E4,1.8595975E4,1.7097145E4,1.3106032E4,3.1218354E4,8.3032295E3,5.951863E3,2.1804814E4,9.72721E3,3.1186104E4,1.0487852E4,2.2466484E3,1.989862E4,1.6365021E3,9.034782E3,1.3674213E4,5.231656E4,4.0204858E3,2.9895142E3,1.393549E4,7.661445E3,1.1720329E4,9.781217E0,1.7402917E3,2.2708486E3,1.2482607E3,1.0984702E1,4.517814E3,5.932521E0,1.1218839E4,3.6614456E3,1.9886309E4,1.4434944E4,7.0465186E2,7.7558405E2,6.0579706E2,6.828573E2,6.811182E3,1.335087E2,5.497973E3,1.3851708E4,5.188953E3,1.3752266E4,2.7438227E4,1.6305337E3,1.8594117E4,1.8563974E0,5.64176E3,1.1455386E4,8.322284E2,1.2273804E4,5.8462773E3,2.5372076E4,4.3440366E3,3.9591934E3,2.323427E3,3.6284358E3,2.1203787E4,6.0102734E2,7.3039634E3,2.4232463E3,7.3843945E3,2.3801709E4,1.1732559E3,9.314596E3,2.159922E3,8.6726295E1,1.8064974E3,1.8092123E4,3.0214047E2,1.3343617E3,4.0729194E3,4.9618633E3,1.2314923E3,1.2442721E4,9.575318E3,4.2741242E4,4.2503378E2,3.5954521E3,1.578512E3,1.4110021E3,3.3089988E3,1.0626491E4,3.0712234E3,4.590221E3],"tree_param":{"num_deleted":"0","num_feature":"456","num_nodes":"127","size_leaf_vector":"1"}},{"base_weights":[-2.44334E-1,-3.6300245E-1,-1.7789397E-1,-4.707484E-1,-3.2404122E-1,-2.4026714E-1,-1.234603E-1,-5.475383E-1,-4.3418166E-1,-3.7494957E-1,-2.934756E-1,-2.5884324E-1,-1.7525066E-1,-1.7622331E-1,-8.52325E-2,-5.581372E-1,-5.1663923E-1,-3.8243717E-1,-4.5063925E-1,-3.2836884E-1,-3.936627E-1,-3.403099E-1,-2.7354875E-1,-3.4022543E-1,-2.4424799E-1,-1.5426946E-1,-2.44841E-1,-2.1683587E-1,-1.5222386E-1,-1.2383541E-1,-4.3105464E-2,-5.5824417E-1,